#ifndef DNN_PARAMS_0_HPP_
#define DNN_PARAMS_0_HPP_

#include "dnn_config.hpp"

static ap_int<CONV_LAYER_0_WEIGHT_BITS> conv_layer_0_weights[CONV_LAYER_0_PE][CONV_LAYER_0_WTILES][CONV_LAYER_0_SIMD] = {
{17280, 17669,25349, 23081,4854, -19196,-12432, -13606,-9156, 17757,-18653, -9662,10555, -18031,-11227, -634,-1662, -11213,11041, -2364,-5799, 9785,12757, 20684,28810, 11367,21945, -7218,-15079, -4384,12653, 16592,10200, 13736,-19686, -30360,-10485, 26618,-18053, 1203,18057, -1783,-18629, 1169,-6413, -13891,22844, 13774,-2836, 8055,-23850, -4386,-6535, -25503,117, 21099,-4084, -13128,6724, -9708,-14891, -20197,-2096, 25763,-14791, -16212,-17292, 10035,-11729, -2387,-29139, 13670,8272, 18995,16840, 11803,-4307, 7006,-15, -17054,-11812, 14757,14665, -18300,15556, 1660,4289, -4038,2900, 15552,-23159, 12643,10004, -17750,-8259, -23903,21934, -2107,-245, 3441,-3539, -9337,5506, -15186,-24509, 2963,20267, -11111,-23179, 14040,-14272, 3981,2702, -15397,-3286, -9679,17544, -15669,4138, -28822,435, 9955,-23799, 17267,-19048, -579,6781, -2760,-17469, -10181,16875, 24499,-3306, -413,12184, -16657,19504, -10169,-16564, -4545,22565, 18623,-14142, -22869,-23231, 13789,1364, 21034,27901, -11566,-13782, 8816,711, -6979,1781, -22594,8872, -23167,-443, 2391,16171, 1664,3829, 2195,-3200, 1850,107, -511,-2426, -4179,2806, -5353,-3214, -4043,1128, -6021,5558, -5273,2306, 1972,-2772, -4727,36, -5814,5505, -5196,5039, 2928,-3308, 5316,-2974, 4445,-6398, 1041,5487, 1786,-1095, 3977,-1904, -5784,-7029, 4939,-4796, 4528,2552, -6580,-5614, 6333,-4348, -4130,2156, -5770,-1163, -3395,906, 4670,5134, 4576,-2471, -6465,-5164, 5767,-6099, 1932,-1100, 2889,1358, 2834,4738, 3234,-4418, -7143,-5507, 2877,-2556, 2662,5235, -2097,4988, 1302,2824, -2372,-3857, -4317,6621, -1886,4765, -4626,6769, 1739,6210, -5327,684, -4746,1049, 5380,1979, 4874,408, 1630,-4887, -2457,5245, -853,-4824, -4013,4902, -2480,248, -2633,2418, -6314,-665, 2615,1305, 3370,-4275, 3359,4323, -1702,-1118, -3657,3026, 2731,-1400, -3144,-4531, 1603,5508, 1277,-6517, -5986,-5922, -6707,-1886, 5697,1175, -393,-6286, -5077,4482, -3493,-904, 5139,3553, -261,-39, -390,1851, 830,-5631, 6282,-5214, -7033,2122, -3412,-4861, -5049,-3186, -5101,459, -6442,-1297, 5042},
{-7013, 22939,2115, -995,-21370, 30400,26809, 678,3227, -16548,-15711, -87,-18901, 24294,15938, -15394,-9316, -17599,19922, 23557,30354, 19447,5415, -23145,-7485, -25130,23115, 8528,13619, -12772,429, -21384,14152, -26526,-23148, 19897,13117, 9973,2127, 8298,5567, 23871,31670, -27262,-16957, 14533,-22061, -27144,21525, 27636,1496, 17263,-2480, 21633,-13126, 17074,-28271, 2357,8265, 18108,-22325, 19112,1287, 28452,26940, 24282,-7853, 19255,-22485, 80,20146, -1078,-20928, -29663,8145, -1419,32767, 9273,-391, -20201,-12002, -29591,10764, -25762,22787, 32527,-20999, 7705,-11149, -28547,-17855, 4853,-5037, -8770,-13928, 13231,17577, -18193,13482, -16915,10391, -27024,-5363, -2379,14957, 3537,7849, -31696,28706, -19421,8738, -18651,26686, -9540,7406, 27016,18131, 23306,-6476, 13669,8728, 8204,7381, 25847,856, 17525,24904, 26799,7937, 2033,2035, -13475,7648, 17533,11493, -23235,-22189, -27733,27967, -9827,-19499, 24988,26384, -15380,22027, 3582,11705, -25796,27980, -17012,-17260, 5470,-15272, 20226,4941, -22085,31738, 2389,-18488, -19795,5829, 17055,-1887, 4727,4181, -1075,1107, -332,-2332, 1718,-1355, 1500,594, -5805,3879, -5249,-3807, 2371,-3554, -1310,4627, 5041,5020, -81,-2290, -3396,2409, -1986,3898, 281,-4067, 3209,4188, -14,953, 51,168, -2502,4145, 1653,40, 1293,2809, 359,2461, 4756,2734, -2349,4314, 3267,-3396, -940,5200, -4428,3513, 2548,2612, 3488,-3510, 1030,1915, -4147,4398, -2473,1052, 978,-4975, -5346,-2969, -3405,-3299, -2519,1677, -2070,3475, 1018,3848, -275,-2204, -4464,-1408, -2107,465, -3841,99, 148,2045, -4594,4855, 4058,-4366, -2959,-5057, -1917,2368, -463,1227, 3830,-2972, -1839,-339, 4416,1530, 3407,-3974, 4209,652, 2660,-1661, -5065,-1873, 1216,-5749, -19,3823, -29,-2335, -5149,4175, -5787,-1647, -5577,-2684, -2464,-5603, 4543,-2054, -4616,-2865, -702,-4358, -1557,539, -677,-2576, 4005,-1915, -4415,-1742, 1575,-1461, -5325,2229, -3442,693, 5000,507, 5072,-1092, 522,2098, -1181,-3243, -1271,47, -1950,4511, 244,1797, 579,4803, -5181,-5391, -3191},
{965, 1253,1742, -4246,4835, -4040,-4433, 1287,4033, 3148,-4249, 515,4333, 613,5339, -1229,2262, 5050,1503, -436,2561, 1537,3120, -1999,-4307, -26,-478, 3049,2223, -723,-1254, 124,-860, 415,-3915, -998,-240, -371,-4352, -2682,-4983, -4831,-3902, -4365,622, -1197,2624, 4542,1289, -1182,5483, -440,-2489, 3305,2403, 2983,4517, -2759,1556, 769,-371, 3901,2411, -5222,4513, 3889,751, -3244,-4336, -1960,541, -500,3488, 1680,-288, -4910,-3598, 2938,-102, -3726,-4474, 855,1471, 4993,5584, 4644,4325, 5134,5393, 5414,-3381, -4266,3370, 4583,1410, -3647,3987, -1234,2202, 5332,-2472, 608,2152, 4246,1310, -4347,-3868, -3337,2162, 3443,601, 826,-439, -5760,-3774, -3267,-1062, 4171,-2793, -2647,1020, -1989,1425, -2669,-1760, -3409,-1517, -4675,3638, 460,-3797, 1070,3866, 352,1144, 3182,-4395, -2491,-291, 3402,3503, -2090,-2086, -3180,3130, 3599,-5215, 1359,-5347, -4511,3945, -2550,1565, 1371,1263, 4211,-789, -1441,2728, 3152,3321, 3675,3201, -3330,2960, -2717,-3993, 3123,810, -3445,2600, 3846,-3180, 2239,1455, 4199,-1292, 1978,2582, -1695,2689, -3430,-2167, -1069,3249, 3709,444, -3839,2126, -1464,-3327, 2675,3498, 3744,4655, 3713,2315, 2233,-1766, 2380,-1240, -959,3753, -2285,-2086, -2171,1626, -638,2793, -1874,1341, -1929,2909, -2695,-619, 2743,-3511, 957,-747, -891,3629, -911,3342, -2159,1044, 2609,-2861, -76,2439, 3975,2118, 3160,-2330, -3333,-4022, -3332,3566, 882,526, 1988,3019, 3297,1297, -3315,-2320, 4117,2484, 455,-2791, -386,75, 296,-3093, -2602,-691, -3836,-373, -3202,824, -3687,1990, -2890,4315, 637,1039, 1738,82, -2722,2222, 453,-3036, 1631,-529, -2584,3567, -3737,1844, 3595,2177, -3050,2543, 3795,3171, 1733,-1203, 1498,-2379, -3878,268, -320,-1617, 1070,914, -480,2069, -3893,1121, -3975,-2988, 24,-2754, -3169,-2201, -3470,-3557, 297,-3535, -3010,2332, 1314,-3532, -3428,1142, -1614,1530, -1717,2782, -1117,2360, 936,1245, -3752,2110, 1133},
{3713, -2364,710, -2524,-735, -2241,-4075, -3447,3412, 1491,-915, 1064,3172, -2647,1029, 2731,2652, 1745,525, -1751,362, 385,-1887, -1118,-2051, -76,1376, 2967,3451, -2261,3878, 285,2022, 1195,1267, 2731,-46, -180,3009, 1735,1497, 2464,2923, 834,-1655, 3511,-2188, -205,-3206, 2868,3214, 191,273, 2759,-3714, -1155,3686, -2086,69, -3707,-3091, -1337,3777, 1177,3238, -2392,-2094, -1772,2660, 3440,1983, 2165,-2686, 2113,-2509, -3074,-1391, -3815,-4338, -2382,-1974, 2446,-1091, -538,-3337, 2530,-15, -3895,-932, -2004,-408, -2666,-2373, 1191,-3773, 709,-127, -1107,-2565, 2508,-649, 4263,-1644, -2449,-1565, 3824,-1067, 3985,-3858, -1165,-1166, -875,1389, -2020,-2797, 2517,2254, -3095,-1757, 2278,2389, 632,-1655, 1090,4540, 458,-1865, 2209,-1268, -565,3834, 3867,-1715, 146,-59, 4052,-1739, -119,4385, -1447,3865, -2128,-81, 4831,2183, 2508,420, -3713,-642, 280,2433, 3800,-3369, -2611,2061, -2047,2731, -3488,-238, -2327,1561, -2227,79, -15532,-13990, -15697,5303, -15017,-7815, -18456,222, -9550,-8944, -13847,-8756, 6478,-11780, -1063,5847, 13545,-17119, -19972,-4574, -2605,-2849, 6816,-11220, -12975,894, 7425,17409, 14386,4602, 5426,-10525, 15934,-17108, 11817,-9198, 9987,2845, 6713,-4574, -8697,-7137, -15322,-15677, -5195,-1726, 7491,16133, -12290,-9985, -4001,7076, -109,9576, 5730,8061, 6321,-5230, -9599,-14270, -13176,5895, 9995,12332, 1150,12876, 724,15473, 339,-14277, 16597,-6147, 5087,-10164, 9178,-9652, -9342,4503, -10207,-3784, -10469,1379, 7720,16216, -18305,-19525, -8609,-17231, 17282,-16361, -11295,-19977, -10315,-11746, -6222,-8841, -3764,14522, -16484,10101, -4955,-5322, -10820,2457, 2089,-9540, 5779,13664, 4772,-19887, -6265,-15006, 4186,-14721, -1471,-17829, 4151,11939, 6652,-4863, -17326,9681, 14305,-3061, 2121,17486, -15913,2503, 7740,12878, 5188,13837, -17868,3511, -545,7983, -9684,14437, 12293,-7202, -18912,-2717, -5258,-17916, 8945,1038, -14,-20878, 8730,4556, -7367,-3060, -7819,-11079, -6443,-1304, -8657,10629, 756,-6609, 292},
{-5702, 3993,5417, -1322,-2056, -6214,395, 7355,-8075, 4940,1333, -5242,-9344, -446,6178, 923,-9255, 1480,-1235, 5460,312, -1405,2697, -7107,4534, -3758,-6490, 7595,-6947, 4314,2455, 1709,7503, 6378,-8051, 6440,-2032, 8345,5840, -5325,3308, -1166,-6445, 6479,3190, 4150,-3001, -2695,10407, 2122,7074, -5369,-9392, 8545,4133, -5927,-6410, 102,-8122, -8569,161, 2706,2475, -2563,-9259, -5557,-894, 1104,-8666, -1802,-2246, -989,9357, 7647,2245, -4550,161, -9400,-600, 5638,-5656, 6034,-7463, -1349,-2979, 851,7329, 3950,-8810, -2448,-7449, 157,-1642, -1241,5556, -2611,3016, -9585,835, -3213,-2241, 5654,4286, -1352,-7255, -4656,1835, -906,7189, -6692,-861, -1412,-5583, -7415,-8057, -6248,-5259, -5636,1866, -9199,-3918, 7220,8003, 6226,6922, -3219,-8351, 7891,-6274, -8075,-5679, 899,-4479, 6453,1588, 3224,-2243, 7559,-9571, -1307,5874, 9615,4952, -1173,5503, 5857,2118, -5207,8369, 2635,-1998, 2215,6843, -4029,4686, 904,6626, -8846,4870, 6686,-3303, 960,-6465, 5307,-655, 10170,12203, -6857,-3978, -2846,-9601, 7653,-4803, 7192,6547, 2058,-1391, 11539,1287, -2168,8094, 4082,236, 8205,-3423, 4551,4792, 8420,4949, 9172,7697, -11112,2337, 5089,6880, -4568,-1192, -5925,127, 9895,10389, -9510,8052, 12498,-6725, -6506,-4210, -9784,8565, -7474,12161, 8967,12623, -5864,3338, -974,1977, -8056,2467, -7873,2879, -1816,12674, -3133,-10483, -3368,8680, 5320,6992, 8168,-4048, 3885,5762, 9780,4063, 6236,-1248, 10359,-3311, -1754,-6331, -6428,-550, -9567,8084, -990,6932, -1064,-4797, -5346,2988, -80,2563, 5181,-2583, 989,12029, 11211,-2176, 9014,4687, -11378,1837, -5098,12091, 1526,-5599, 2282,-3036, -5235,10140, -8540,233, -2035,13367, 3065,7088, -8112,-7486, -2466,5794, 8834,1093, 11608,8580, -1772,3589, 6921,-8232, 1451,623, 5259,9986, 11282,9255, -8778,-3851, -3379,-235, 8247,-6497, -8575,-8493, 3898,10842, 10018,7316, 9689,9704, 10534,2764, 6825,-6813, -2735,-2500, -9379,8969, 805,1291, 9792,2130, -1250,-9543, 8991},
{15263, 14218,20756, 7241,15071, 18260,15020, -5885,10277, -17117,9449, 3512,4248, 9574,14835, 16342,-8834, -7078,-18499, -6214,-12893, -2752,20977, 21074,2094, 8714,-16206, 17760,-17734, -17918,-15665, -1399,-5091, 20053,-2654, 9068,7320, -7934,-24104, -9439,-14341, 23598,10656, 6325,-3014, -312,-12142, 21122,7314, 11425,-24107, -16219,1278, -20415,-19829, 11740,18625, 20433,-27166, -19586,-15702, -12659,13487, 9838,25551, -10004,-10553, 25631,13033, -10449,-20470, -6537,14440, -186,1694, 16759,11819, -19481,17836, 6636,13516, -11549,5517, -18589,-20307, 10482,-10248, -896,-931, 7027,17467, -17444,11764, 5500,19401, -21714,14752, -27459,-4490, -384,-16263, 3251,10253, -16751,1721, -17383,-11223, 24857,9981, -6207,-14744, 8827,8866, -12341,-9986, 2657,-26913, 4374,-1772, 8437,-15773, -10676,-15669, 21551,-19850, 26971,2265, -18814,-4093, -19899,-19735, -17469,-7914, -24087,-9328, 19847,-10076, -10934,-19661, 10421,-24453, 3839,-14762, 5024,-22149, 9537,-14040, -19216,20770, -870,-786, 6452,5476, 2316,-14818, 8885,-5197, 14232,-11762, 1085,-22985, -1279,6790, 22926,6444, -18123,2642, 19428,13941, 12979,9383, -13216,-5094, 17447,-14635, 15107,-6904, 11009,8415, -6744,18143, 1736,-5325, 14522,-12916, -5015,12135, 17194,-7026, 17235,22155, 2723,-8735, -15919,4890, -22621,14692, -15226,-21512, -14207,22001, -3827,-19604, 12891,16449, -4938,-19952, 20280,-12851, 7891,15074, 10930,814, 15413,431, -18263,10933, 11872,-9193, 17575,18366, -1958,3646, -19429,-14358, 6218,3270, -14354,9674, -7161,-18597, 4800,-19938, -2226,-248, 13668,-20367, 16346,-7482, 808,9889, 2489,8318, 17186,-16623, -10935,-601, 3526,-11327, -12754,19660, 14494,6418, 6419,-4364, -4799,16016, -11858,7704, -9759,-23261, 20941,-18382, -2467,-80, 8201,-16478, 12900,11682, 6970,-7289, -12465,-16761, 20129,20139, -1884,22279, -10221,20298, -4279,-19661, -3737,-21562, 20688,11474, -18790,-14375, -7408,-23419, 13112,23409, 23591,-15448, -5373,22325, 16446,22359, -21083,-6540, -24117,-18046, 1541,-21649, 17536,1810, 11934,11970, -11775,-5454, 16175,-17656, -11941,-20320, 6153,17252, 16921,-8874, 10716,14402, -16130,21988, -5425,10619, -496},
{7190, -3921,2844, 5690,4057, -3073,5490, 7524,7327, -4129,1574, 8191,4601, -4132,356, -1474,7871, 4177,-6052, 2523,-4906, -788,-6391, 951,-4547, 1725,-2055, 4779,-7488, 7906,-1632, -6679,5047, -5042,1165, -5190,958, 1259,5551, 5228,1758, 4577,-7012, -619,-4089, -5711,2725, 446,-448, -3633,-3507, -4571,836, 4416,2931, -2064,1570, 7793,-6141, -473,-4935, 6892,-885, -7875,1762, -1531,-2786, -7948,-9073, -6543,-4362, -3530,4160, 4365,-3515, -6158,1383, -9288,243, 2502,-6263, -2857,3671, 3014,2325, -8133,4905, 8404,-6519, 5082,6059, 1963,142, -6723,-1636, -3402,-754, -6973,5426, -1462,-2306, 3561,-7431, 6221,-984, -6614,-6568, 5929,5135, -4537,-3997, 5820,-3367, 3758,-5584, 1514,-2525, -2260,6227, 1319,-3134, -10100,-5553, -2457,-154, -7534,-3944, -3938,-5338, -7807,2105, -9779,5530, -4079,-132, -922,-457, 3073,-988, -4722,-6826, -7495,4068, -8635,3446, 9126,-8057, 3101,-2663, -1208,-3867, 8800,1335, -2755,4774, 4176,-5116, 7426,3718, -1116,-8770, 7566,386, 1154,3713, 2157,-3311, -1127,3271, -2950,-1136, -4004,-273, 899,3005, -362,1239, 210,-2981, -2145,-2263, -1580,-1366, 1926,-3420, -737,1930, 139,1067, -3367,-4170, -3266,1683, 3255,-3908, 1155,-3379, 1619,3805, 21,3155, 3021,1418, -566,-3996, 793,-1967, 296,-3242, 2950,-603, 2706,-357, 1450,-3194, 1665,-2530, 4432,-3291, -2781,-1583, -3936,2528, 2822,1209, -4226,1225, -1368,3745, -106,2597, 122,3210, 821,-2481, 447,3665, 927,-328, 1664,3053, -610,2990, 1430,1523, 1206,-4421, 2611,-2821, 3576,2553, -1604,1150, 1755,2505, -1145,-280, -77,-2557, 3980,1201, 2384,1257, -1637,1919, 1273,-1830, 2794,-251, 916,3869, 2053,748, -2068,-1481, -2424,-436, -2720,-3053, -365,-2803, 3294,-148, -108,-1852, -696,-250, 565,3464, -2511,-2087, -3965,1950, -1082,-2275, 2825,-1500, 1529,2059, 3073,789, 1429,-147, 2591,2804, -3735,1573, 3268,-1792, 245,782, -786,-751, 3204,2932, -2804,858, 2451,-1223, 1244,-2269, 2950,-583, 2286},
{12863, 10729,1489, 1907,-1763, -11131,11145, 5510,1789, -13544,-766, 10050,-3595, 823,14144, -7814,10253, 7243,1214, -6412,-4213, 7962,3377, 11640,-10788, 12309,6429, -5274,-6954, 4433,11439, -3955,7400, 4788,11901, 7962,-5510, 5667,1175, 3821,-3871, 8850,-6027, -11376,601, 10868,-852, -3415,7604, 13518,-3233, -5589,7576, 308,5025, 670,-4490, 11945,-9017, -3136,1502, 3897,-8514, 6009,8222, 13284,11654, 3212,4101, -5639,6624, 5410,10381, 11286,-1774, 10938,3284, 1349,-2681, -6101,-14581, -3657,2163, -7,15073, -2596,-7368, 8807,3977, 29,-2843, -743,-5770, 11984,3804, -7896,-10983, 7723,-5071, 1803,2046, 1394,9334, -5871,5816, 9556,-764, 14284,1640, 170,4146, -11893,7141, 12307,-853, 4783,-4543, 5033,3197, -5714,5339, 1,-8957, -7598,1785, 4127,-2136, 11268,-1097, -692,11638, 11051,-1844, 10876,-3810, 9352,-9168, 7442,14227, 13690,12468, 8728,7965, -800,10931, -11340,10883, 11120,-7694, 12555,-7683, -6768,6343, -255,3355, -7626,10746, 8999,-4039, 3381,-4517, -6846,-9906, -8412,11995, 17143,10058, -11792,16000, 17322,-592, 18439,-3159, 14855,10928, -7975,-14730, -2856,7972, 2664,5607, 19638,-13066, 21503,-15120, 16850,1675, 21119,8607, -2785,17450, -16801,17282, -5466,-18258, -8795,-4751, 2921,214, -7835,-8243, 6246,-895, 6932,17063, 15267,-11057, -14375,-12409, 11466,1395, 15250,10380, 3212,4671, -13155,11462, 10918,16761, 21306,17165, 18911,18259, -2472,19112, -7029,18202, 15719,12671, -16298,-1294, -2413,3074, -7496,17942, 5707,-12786, 14517,14762, 13218,16438, 8037,761, 1752,658, 14036,-7064, 10681,-2823, -2488,-14295, 7368,-5850, -5638,-1260, 20287,-6726, -12802,8733, -17282,-6492, -13971,-2136, 14572,-4741, 17588,-15330, -12077,17043, 10385,13416, 6779,12374, 16913,5536, 1126,12371, 19542,14293, -12932,9515, -11887,7059, 20825,12278, -4920,10409, 2120,-4127, -9298,7748, -14670,-6820, 14509,10843, -16610,-11677, 838,-5208, 19193,-2841, 1822,4748, -15185,3672, -11320,-18288, 3327,-8562, 3606,2304, -4526,-15770, -18288,-4681, 9002,-10703, 16254,1124, -10336,7069, 12745,18353, -2610}};
static BiasActivation<CONV_LAYER_0_PE, CONV_LAYER_0_ATILES, conv_layer_0_bias_dtype, conv_layer_0_acc_dtype, conv_layer_0_output_dtype, conv_layer_0_m0_dtype> conv_layer_0_activations = {
.m_bias = {
-424792863,
432408120,
-310089637,
435123864,
-443681583,
444299426,
-444772114,
-364416823,
438353713,
-416622203,
254717767,
59936441,
441944963,
431782338,
-407559327,
291657134},
.m0 = CONV_LAYER_0_M0,
.zero_point = CONV_LAYER_0_OUTPUT_ZERO_POINT,
.min_val = ACT_MIN_VALUE,
.max_val = ACT_MAX_VALUE};
static ap_int<CONV_LAYER_1_WEIGHT_BITS> conv_layer_1_weights[CONV_LAYER_1_PE][CONV_LAYER_1_WTILES][CONV_LAYER_1_SIMD] = {
{-5342, -2991, -7115, 1756,-3257, 6433, 5178, -5367,4166, 3852, -6053, 2441,-3084, 2785, 831, -2776,-5446, 1773, 4555, 173,-245, -2984, 7169, 4651,3890, -5351, 8009, 2351,1070, 3812, 7727, 4051,3312, 1647, 2093, -5004,4499, 3226, 5595, 3398,1108, -6197, -1488, -7085,3580, 2807, 242, 5059,6880, -3962, -5079, -1018,-3078, 5767, 2177, 6635,4097, 6446, -1655, -5093,3539, 3432, -4279, -3570,-5844, -2445, 1975, 4519,-414, -4408, 336, -3883,-3646, 3234, -5747, -4494,-2839, 5684, 963, 817,-6603, -6576, -794, 4653,-6423, -1358, -1346, 3135,-5773, 4821, 4044, -1918,-1642, -7091, -936, -1453,1044, -105, -7394, 3442,-2156, -292, 5916, 6114,7097, 1594, -4739, 3714,-2196, 2048, -3416, 4674,6640, 4754, -1584, -5161,810, 4804, 6893, -3247,2568, 2883, 5747, -667,533, -3625, -893, 671,-2596, -3029, -355, -2642,-3398, 3053, -1172, 2322,1780, 2452, -3865, -6155,-4073, 2163, 5662, 5119,-6021, -9132, 4977, 7729,5418, -8227, -3862, 5533,-4766, -5799, 5533, 7000,-3656, -9147, -5210, -810,4894, -6612, 4801, -4379,1163, -8710, -5103, 5502,4154, -5442, -3895, 334,-2535, 943, -5850, -5925,-4758, -4698, -3580, -2073,-2074, -6639, 8164, -1914,6037, -7358, -8238, 10044,-273, 6208, 7975, -8396,4623, -2556, 2492, -5577,-7567, 8275, -9751, -2758,-8952, 5136, -1132, -7081,4792, 6911, 6555, 6161,4157, -4157, -3144, 7032,7914, 4576, 6876, 5121,-9646, 3424, -8399, -6476,8388, 2394, -4317, -3341,-6741, -4539, 8014, 5796,-6797, -3636, -1258, -2081,-349, -8023, 7054, -4320,6452, -856, 8455, -4120,5825, -8737, 3328, -7989,1420, 3770, 3281, -5701,6593, -9038, -8710, 5485,-1697, 5911, 4040, 5254,-3931, -3105, -7328, 8476,-5811, -3638, -4166, 5791,141, 8194, 2256, 2058,-4545, 1758, 4503, -4179,-8246, -7012, 1288, 9813,-7525, 4267, 2220, 384,2200, -7985, -6733, -2631,-7734, 2367, 4725, -9258,-15981, 20857, -22756, -26106,-1373, 16554, -17666, -24547,1382, 1443, 7284, -12102,-16038, -21630, -13889, -6416,-1147, -20075, -15657, -6427,19417, -10753, -24077, 14625,-23539, -1900, 12937, -18723,24615, -17646, 19574, 13715,21674, 20937, -4686, 20056,5584, -17739, 17745, -3209,20675, -16743, 24543, -24915,24248, -11255, 16215, -21564,-21697, -10165, -954, 421,3190, 8761, -8923, -14011,-20817, -272, 8222, -11389,-13230, -15347, -19297, -17966,23952, 12379, 18672, 21967,-3959, 7372, 6728, -9082,-3926, 13488, 22309, -17136,15430, 22352, -11331, -10883,9191, -8385, -2505, -21091,21577, -12995, -18811, 8479,19177, 13867, -16279, -5274,10988, 9970, 5062, -4519,-13427, 13098, -7992, 17170,2591, -17356, -16433, 13557,-15612, 65, -11775, -19040,21854, -13191, 17341, -1574,-5621, 20393, 15426, -14991,14106, 10238, 1424, 4222,-4498, -7815, -10533, 13548,9588, 4917, -12168, 8834,4530, 13218, 4560, 7999,-10499, 9020, 21790, 19429,-9224, 19546, 5357, 5302,22448, 17319, 9332, -14150,239, 2448, 10314, -8319,-7009, 9263, 5649, -1256,9255, -3164, 4291, 1933,3148, -6483, -4965, -5785,-7512, -8683, 8582, 5426,-1398, -7021, -4362, -7592,3330, 7738, -7343, 7954,-2225, -7634, -9800, 6594,-8928, -2142, -7523, -4660,610, -7541, -9055, -9754,8714, -4397, 8496, -6800,934, -2578, -4113, 3563,5411, -8644, -6334, 1838,-8805, -3882, -1562, 4713,-8033, -2468, -4561, 4722,-294, -6079, -8298, -4732,1222, 5394, -1390, -4248,-7542, -7989, 3120, 922,-363, -6593, -3485, -1638,-10194, 6348, -9043, -3670,1798, 844, 2035, 7900,7478, -7615, -5414, -4583,6926, 969, -4292, -8795,6034, 5266, 7067, -6349,5052, 1157, -4429, 2908,-3402, 1985, -4009, -579,-6640, -8562, -6672, -758,-1164, -1069, -2375, 4972,-3214, 1763, -9128, 4972,6812, -6178, 7127, -8593,-8899, 5551, 8096, -8361,8065, 3846, 4197, -5614,-6799, -8356, 8209, -1749,-8259, 5366, 3566, -3282,5738, -7506, -5227, 6703,-4069, -8058, 3719, 9141},
{725, 7835, 8793, 8584,-8430, -908, -5570, 9072,-8475, 4710, 5177, -8967,5055, 3516, 6902, 4969,887, 559, -2660, 8546,-8508, -8357, 1252, -7408,6055, 3132, 7758, -3968,-8534, -2546, 3449, 1771,2686, 7664, -4203, -8830,-4010, 8782, -10186, -2577,-2731, -2395, -9122, 1827,2275, -6865, 1955, 5069,-4705, 3712, 7577, -496,-10013, 5153, 7626, -665,4750, 1833, 4039, 2730,9537, -4815, -8292, -7529,6527, -5568, -3730, 491,3173, -7554, 6554, 6008,-6968, 618, -9382, 7824,172, 761, -5515, -5714,3349, -7976, -7670, -8528,-7472, -1395, -6799, 6475,-9502, -2979, 7742, -3497,-154, 7577, 1896, -7636,8279, -2116, 8842, -5591,-3835, 470, -8636, -7693,9116, -5944, -9536, 9183,6118, -8010, 2886, 8945,891, 3050, -9149, 5514,4278, 6047, -3030, -1808,-8492, 309, -5010, -5798,986, 5255, 8044, 6145,6790, -2001, -2217, -352,37, -6338, 8142, -555,-4515, -4023, 3011, -6033,2148, -49, -3493, 5635,8054, -9538, 17182, -857,6471, 7388, 5802, -2481,-5677, -12950, 10517, 454,-2199, 12127, -16395, 14284,9051, -195, 400, 8241,8229, -2301, 11056, 14089,15819, -3460, 15121, 13717,7969, 4540, -13818, -10641,-16356, -5391, 17411, 17240,10083, 707, 8366, -11458,-3107, 9992, 10855, -14203,7385, -3767, 2388, 16021,11744, -11000, -1821, 4864,-16682, -15480, 10525, 8965,1911, 3551, -7294, -275,449, -13295, 12994, -7604,1771, 2047, -11480, -6201,-352, 8020, 15674, -12136,-11104, -14941, -3842, -13468,-2435, -19072, -7814, -4974,1363, 456, -4773, -2064,-8607, -3411, -13142, -9892,-3701, 6487, -9800, 2222,-6871, -18694, 10767, -12956,-4606, -14422, 3162, -14014,15910, -14105, 4521, 7126,-11529, 16632, -9409, 2582,5641, -15952, 14407, 1599,-10298, 11410, -8283, 11967,-5042, -17021, -831, -13332,13785, -4229, 1154, 16785,10197, -12655, -11389, 8785,9249, 6477, -12855, -4460,-15153, 2403, 16281, -14913,9136, -11426, -1701, -15266,-11758, 7887, 13720, -9207,-4659, 6961, -3845, 6929,-5360, -9411, 5796, 3758,5019, 8076, -7508, 2820,1653, 7796, 6393, 4608,-6144, 2911, -6467, 4045,-1773, -4312, -1960, -2412,-4457, -1661, -8942, -4759,7868, -2775, 7665, -771,-7133, -836, 644, -1664,-3138, 7623, -6855, -5931,-6717, -1032, 5261, -1253,3365, -2624, -8312, -8854,-82, 8087, -8760, -2166,-6851, 2861, 8673, -357,9142, -3282, -686, 2498,6166, 5719, 1572, -70,-5751, -3889, -5151, -4393,-1912, 4345, 8838, -1167,6518, -2983, 7338, 3874,-8961, -7713, 8888, -3150,-1231, 3386, 1203, 7195,5573, 9747, -1153, -1204,-5481, -2785, 7677, -6335,1307, 5503, 9492, 2914,1442, -4742, -9222, -5747,-2863, 7174, -1770, -9050,7961, -4638, -4621, 2339,6739, 6684, -4315, 1566,-2998, -9589, 2511, -8425,3905, 1112, 9231, 1170,-31, 9092, -3115, -3025,-7740, 3227, 5004, -1946,-1299, -2045, 6973, 7148,1188, 3303, 428, 6363,5937, 9076, -2580, 3505,-8082, -4657, -6679, -5077,-1687, 4002, 6325, -8266,5623, 881, 4116, -3871,-1580, -4426, 7793, -346,460, 5662, 7583, 8966,2516, -3787, -4693, -2724,2916, 20, 3905, 2614,-3163, -532, -6328, -4295,-3918, -674, 6384, -1580,4401, -5854, 703, -8650,-4842, -1630, -2066, -211,2860, 4093, 6403, 2858,-3399, -6330, 3448, 4849,2758, 8473, -4128, -1263,7171, -4467, -1490, 7807,7563, 6237, 4575, -1015,4392, -5651, 3234, 4815,-6783, -4015, -6953, -8583,-7498, 5583, -6749, -8066,-1852, 8696, -7352, -5174,-185, 2188, -7399, -4529,-8538, 3268, -4357, -3324,-930, -4249, 3386, -7510,-6426, -1913, -2662, 1472,-6442, 5424, -7465, 5695,1008, -1208, 3190, -5187,6906, -2218, 6215, -8185,-3524, 5043, -6599, -2449,-5445, -7876, 7129, -2908,5333, -2233, 3221, -8909,-1025, 5529, 5956, -6520,-6645, -3809, -3739, -2624,2802, 2071, -936, 516,2693, -3140, 6417, 2426,5886, 2718, -912, -489,-1679, 1884, -3424, 3020,-7774, 29, 3922, 680},
{5647, -3020, -8976, -12682,5313, 873, -15412, 2442,-1614, -12451, 3753, 11083,4138, 8642, 13716, 8903,7687, -16726, -878, 4755,-895, 2621, -14469, -10555,13920, -5941, -15862, 2153,15388, 3187, 1610, 14879,-3410, -11067, -1295, -14161,9477, -8650, 11929, 4087,12319, -279, 6887, -8933,14440, 2316, 3496, 11721,-13742, -13127, -10408, -12273,9140, -4052, -6677, -3802,12498, -7870, 2407, -11869,8692, 7339, 10381, -8498,-6271, -13731, 737, 6508,14853, 1579, 8201, 11067,4314, 7744, -14444, 10508,1261, -2443, -1864, 322,-6304, 1808, 2667, 12054,-6813, -13972, 8428, -2659,-11406, 10963, 987, -4774,-12656, -15212, 279, -8335,-59, 11636, 7331, -6235,-2031, -11613, -13182, 9599,-3791, 2245, 8497, -12268,-8732, -13186, 13037, 10861,3721, 5578, 3198, -2310,-11465, 4096, -2664, -16086,-14496, -14115, -3910, 10729,10335, -13086, 12355, 11864,-6899, 8682, -7386, -3131,3947, -14169, 4091, 5640,-14368, 2352, -12794, -7226,-545, 11455, -4839, 9338,4113, -9059, -3841, 942,-3412, 9093, 9914, 1708,-9420, 4841, -9398, -2521,5165, -4795, -1591, 10170,-8954, 611, -2107, 3022,8170, 4061, 9104, -945,4911, 8014, 3869, 4325,11390, 5798, 7574, -6330,-5755, -7116, 7440, 11220,9498, -2246, 2549, 10747,-5222, 9414, -7289, -11950,5957, -6218, 12148, 3144,4034, -8307, -10540, 3004,-5427, -1102, -1164, -11903,11149, 7049, 5525, 4934,12277, 6987, 6614, -9607,-12538, 10101, -2394, -5499,8325, -2006, -4017, 8071,3577, 7997, 6242, 7153,-6074, -7837, -3046, 13278,-320, 6678, 11630, -5655,516, 695, -6127, 7226,-9507, 12457, -7711, -4448,-12024, -5537, -4893, -7767,10059, 1645, -12115, 3164,-3700, -1171, -3122, 5295,-1740, 3530, -6698, -7282,605, 368, -5037, -2514,10983, 4227, 11074, -5071,-11167, 6144, -3077, -10223,5709, 8527, 11617, -9469,12142, -550, -6843, 13393,1433, -9060, 11991, 4854,-7310, 9957, -286, -10408,11338, 2013, -11491, -6058,11696, -3093, -27, -7393,1385, 7875, -10473, 1551,-9778, 2306, 8536, -8320,9197, -7163, 1792, 3398,-9365, 4646, -9706, -9125,3770, 7760, 3979, 1843,6712, -7049, -3609, -3570,-11367, 3416, -11396, 5758,8936, 1323, 5743, 9091,8995, 359, 8451, 11051,-6514, -10469, 4291, 5577,1523, -72, -5735, -9577,1684, -8792, -8794, -2456,2468, 10232, 11209, -7060,7211, 720, -3210, 2234,7992, -1701, 6403, 9484,11827, 6392, 1875, 8738,401, -2474, 342, 9816,10071, -2451, 9004, -8557,4034, -10592, 4064, 11790,-5675, -1847, -6489, 6197,-7338, -1917, 3169, 7497,-2733, -7408, -2064, 3455,-5288, 2638, -3430, 7969,-5795, 10570, 4559, -3838,-8152, -5568, -8394, 11937,3732, -2985, 7836, 2467,-5834, -6132, -5692, -5556,-8670, 3246, -870, -7814,-26, 9429, 3336, 2701,-11081, 8392, 1670, -3075,-5981, 4950, 6502, 11882,2863, -2938, 1404, -8124,5123, -1303, 2309, 8300,7568, -559, -10303, 5270,3574, 5603, 6645, 2508,-8818, 4263, -5225, -7826,9043, -9222, -2486, 3975,5738, 4052, 624, 8633,-6548, -345, -5813, 2628,-3896, 8555, -9893, 4376,8377, -9806, -1416, 577,4026, 5413, 6500, -11921,-8466, 11148, -10338, 3385,-2344, -1917, -5386, 7616,-7355, -5390, -9449, -8481,1928, -7803, -1021, -11199,-1843, -101, -5776, 6216,-5412, 9884, -7381, 8822,-7612, -1175, 4032, -3346,-374, 11240, 11099, 9694,-8592, 7077, 6888, -4053,-704, 7114, 2508, -10480,-5775, -10529, 2573, 3583,-5995, -3829, -3000, 9831,4605, 9280, -4741, -2828,-130, 10535, -4640, 9773,-1729, 1702, -10882, -4572,-7145, -5040, -9796, 3892,6595, 3822, 1443, -2154,7125, -7728, 2769, 10789,6307, -2489, -2833, -8031,9295, 10065, 2778, 3677,10997, 5242, 7790, 9768,2688, -4785, 4450, -4556,-11009, 4014, -10632, 4339,1768, 11294, -3808, 6855,4752, -6833, -838, 2068,-568, -7028, -2599, -7445,964, 9361, 6750, 708,6979, -5086, 10454, 2343,3485, -1037, -153, -6743,-3007, 5522, 922, -4519},
{18694, 17995, 8450, 4752,-8262, 20594, -17331, -5907,25971, 29760, -1977, 1245,-29002, -22588, -28961, -18680,-32455, -16186, 27343, 22857,-7925, 29475, 7297, -15361,-8707, 12004, 11951, -21918,17350, -3259, -14424, -32151,-30037, 3634, 5481, -14500,-16023, 27073, 10299, 22578,-9773, -13293, 16693, -8337,3911, 14308, -1952, 17502,8063, -4624, 2448, 22065,-280, 23440, -1573, -18041,-13887, 16843, -18315, -16901,8759, -630, -17390, -22300,-13790, 12166, 4145, 5179,-5898, -32264, 7437, 11528,12137, 21961, 3562, 27060,4834, 21066, -2739, -3391,-31431, -31563, -21377, 207,8756, 26626, 31202, 16810,13459, -21663, 5066, 14687,-7256, -2780, -27083, -21916,-24690, -32238, -23525, 28031,-15183, 5433, -8491, -6630,32767, 14525, 10058, -2622,19144, -903, -13062, -2817,-12289, -9508, -12287, -10443,-10599, 13785, 15295, 26866,30914, -14576, -11335, -16698,13328, -26504, -25586, 5249,-3129, -16329, -1584, 8350,-25077, 27520, -1811, 7664,-6876, -320, -15219, -5621,924, -5184, -24079, -9603,-22091, 18040, 25955, -24461,3346, 1810, 22897, -7658,4753, -10295, 4093, -19719,13702, 19701, -25845, -7437,-5856, -3750, -18841, 21564,-16711, 751, 25920, 25840,-16417, -7144, 26070, -18269,-2431, 18337, -5489, -15549,-7433, 4515, 14744, 23251,-10540, 22077, 7713, 1408,25586, 13516, 7381, -6547,-11871, -674, -7529, -16362,11621, 13461, -17275, 25162,15150, -1336, 1728, -8414,-16250, 22980, -4596, 9545,-3330, 10482, 13517, 315,-23607, 18690, -21326, 14261,-21093, -680, 3210, 3670,-15104, -26061, -218, -1611,407, 16613, 12538, -20612,141, -6436, 25413, -1062,-12490, 6232, 3538, 7719,14858, -9617, -1698, -20602,21565, 6577, -13701, 3007,-15158, -10745, 16509, 24715,-10803, 18360, 14078, 7256,-23303, -14275, -7548, -16310,7642, -2174, -11668, 16636,23108, -13641, 5635, -9368,25489, 8449, -23542, 21731,23994, 3784, 511, -12943,-613, 13466, 26266, -15989,-19121, -8842, -17999, -23344,-127, -24198, 17099, 18439,-18663, -24328, -2993, 2125,8842, -17236, 24981, 24192,-12208, 2870, 4264, -9437,-10660, -9137, -7139, 9684,-14163, 7606, -7230, -11802,7996, 8469, -6626, -6734,4409, 7753, 9038, -7655,11543, -12187, -7237, -13252,1005, -8377, 530, 15692,-8640, -11823, 11108, 4964,7260, -2148, 7820, 9081,-1220, 2362, 14612, -14547,-8972, 15007, 5549, -12475,12341, -12520, -3339, -11967,-8470, 5341, -7276, 3086,-9496, -9693, -8112, 10660,-6232, 9476, -14192, -724,-9266, 8457, -13325, 10768,-964, -316, -7587, 8532,-5853, 214, -7397, 10954,11700, 6484, -3684, -79,7419, 6558, 13808, 9960,12774, 10615, 7900, 10204,-11013, -15019, 14523, 12804,8811, 5686, -11647, 19,4239, -10163, -12161, 8446,-10303, -9743, -3934, 8335,-6808, 1866, 8608, 1653,77, 14494, 10063, 1956,-6487, 4245, -5972, 3609,-2083, -8183, 8895, -2900,-2091, 16488, 9459, -437,13484, -14922, -12948, -2119,-14571, 6508, -3315, -5395,-6343, 5290, 5438, 6735,-9029, 4105, -6985, -14419,-1594, -14065, 7745, -8627,-14199, -14140, 13175, -11887,-3441, 4573, -5577, 10999,-9118, 6657, 4294, 1967,1739, 5326, -163, 5335,947, 146, -1909, -4720,-4838, -3936, 1462, -3760,5824, 6707, -1375, 630,3306, 4051, 3, -4457,9040, -6258, 11257, 10401,8545, -1620, -10676, 166,-2298, -1629, 8199, -4331,-10517, -10677, 10671, -11003,-2958, -4210, -1067, 4675,8498, 1013, 7514, -5867,9015, -8860, 2931, 10713,-4523, 6638, 8297, 2769,4115, -3582, -7604, 4232,-828, -7754, 2546, -5536,266, 7568, -4277, -1143,-5920, -3110, -8339, -4782,11609, -10470, -10368, -540,-6949, -3886, -2816, -7598,834, 8384, 1967, -11412,10991, -116, 5642, -2675,-6316, -10879, -9594, -553,-1746, -6105, -7921, -4428,-2724, -2498, -1380, 3546,-6572, 11330, 2186, -4593,-1656, -12270, -2273, 7301,-4224, 591, -8784, 3436,-4361, 2550, 8281, 6161,-2667, 4793, 9931, -5545,6208, 7214, 11073, -7340,7626, -2567, -1151, -1766,4924, -9654, 5213, 2079,-1588, -10393, -2279, 774,-9144, 1804, 9158, -6575}};
static BiasActivation<CONV_LAYER_1_PE, CONV_LAYER_1_ATILES, conv_layer_1_bias_dtype, conv_layer_1_acc_dtype, conv_layer_1_output_dtype, conv_layer_1_m0_dtype> conv_layer_1_activations = {
.m_bias = {
-71670127,
179745384,
-140655910,
327672518,
65761816,
32032464,
-20500171,
120262708,
123547782,
-257539298,
-159864802,
-39659210,
258369659,
-152316127,
87034475,
28753716},
.m0 = CONV_LAYER_1_M0,
.zero_point = CONV_LAYER_1_OUTPUT_ZERO_POINT,
.min_val = ACT_MIN_VALUE,
.max_val = ACT_MAX_VALUE};
static ap_int<CONV_LAYER_2_WEIGHT_BITS> conv_layer_2_weights[CONV_LAYER_2_PE][CONV_LAYER_2_WTILES][CONV_LAYER_2_SIMD] = {
{3724, 5764,-95, 10545,2090, 1933,1343, 4247,513, 8738,1058, 1249,3264, 3822,1836, -1307,-1839, 4848,-3640, 7219,-2439, 1105,571, 2036,-4239, 2246,2278, -2623,-2161, 3341,130, -2626,-3967, -101,-3831, 1154,-2899, 219,254, -445,-5824, -1587,863, -4397,-6970, 757,-1540, -1837,1937, 2720,342, 9714,2850, -161,3712, 4312,-4293, 1287,2029, -257,-1303, 1823,2956, -668,-5414, -3884,-5216, 3609,-1329, -437,2607, 880,-6500, -1270,1449, -4477,-7469, -1747,-1471, -2124,-5103, -5360,-2701, 1321,-1796, -1212,-203, -2358,-6081, -3192,-1679, -4246,-8507, -5961,-399, -151,-2067, 736,-689, 7211,2879, -167,1773, 2686,-4000, 1442,3774, 963,-5062, 3387,1333, -2079,-6572, -6344,-3243, 785,2830, -2679,1976, 374,-6463, -2981,467, -2511,-8760, -3693,-1225, -1562,-3937, -5029,-1958, -1370,875, -2222,-102, -1476,-5966, -1601,954, -1056,-7584, -4782,738, -3020,3989, -2197,3513, -3553,-1208, 800,19, -3140,-2473, 753,2732, 5221,-3596, -843,-5204, 1897,4906, 1748,3008, -1873,-2112, 1727,-517, -5495,-1151, 2579,4898, 4559,-3055, 115,-7919, 4218,2935, 3662,2446, 2080,-1516, 2878,357, -3005,1483, -950,6314, 3945,-3246, 2766,-6094, 4529,4547, -3768,5146, -2783,710, -425,-689, -2488,-5012, -3963,-832, 5882,-9585, -1846,-5940, -1902,1086, -6140,5314, -2779,1239, -877,-1219, -3854,-7131, -5322,197, 4680,-9829, -7133,-4525, -1711,1558, -1316,2863, 1201,371, -583,526, -3047,-7501, -3122,2999, 866,-7980, -5763,-5326, -298,-4, -2313,3804, 1014,1891, 381,1650, 155,-3670, -848,-3664, 347,-5053, 468,-2693, -2971,229, -4979,2704, -1618,1392, -1248,1308, -1677,-4305, -1036,-3711, -738,-6115, -2788,-5269, -2800,108, -2150,1203, -2008,2384, -1789,2189, -1164,-2701, 1218,-2277, -1378,-3304, -4526,-4607, -2514,1284, 4121,-330, 666,1139, 297,-244, -1085,2158, 2961,-467, -2038,2936, 1950,-1296, -97,-322, -185,-2564, -293,368, -4592,120, -1280,-2742, -457,-1382, -4872,980, 2209,-779, -92,1009, 2482,-1697, -546,730, -3154,616, -706,122, 3637,-1599, -4635,3195, -650,-450, 864,-587, 2610,-2462, 806,-623, -1282,85, -1102,-643, 183,421, -3792,1566, 2799,-618, -199,-971, -1452,-4848, 544,-146, -5765,-1290, -306,-3765, -274,-183, -7817,405, -1861,-1525, -445,-572, 5670,-4061, -538,462, -2416,1104, -1464,-1591, 3282,209, -4430,1238, 1376,-928, 648,-1136, -1470,-3426, -1239,-645, -1703,-1584, -497,-1673, 179,1341, -3247,165, -1007,-211, -7,-997, 1639,-4988, 990,-537, -3004,-333, -624,-3482, 2072,1363, -6359,-444, -2008,-552, 224,193, 2608,-2403, -2094,277, -1149,496, -1576,-821, 2475,1754, -2105,1207, 1456,-703, 248,1746, -615,2505, -2002,-612, 2551,-5405, 223,1194, -5462,1561, -434,4324, -3560,1769, -620,341, -4926,-521, 2463,-3218, -921,-7000, -2648,-1936, 1704,-1782, 5309,-2526, 2979,-1754, -8386,1462, -1266,1725, 2907,-4271, -2414,-1106, -2923,-474, 2911,926, 3221,-4342, 4777,-2858, -7717,-1320, 1414,1824, 3279,242, 4829,2778, -1140,3595, -7981,451, -933,4476, -2571,3576, 3946,-446, 69,2145, 610,-4136, 8600,-7113, -3867,7783, -16653,-1281, 683,5352, -1393,157, 293,-1683, -2563,-1275, 2258,-1552, 1087,-2147, -2763,18, -3892,520, 2666,-4959, 2386,3490, -5221,-2607, -3077,-2521, 5908,6471, -1595,14587, -1971,-1104, 3541,2252, 1651,-1859, 2957,3433, 6450,563, 418,993, 3620,3070, 4924,5862, -5323,4097, -6172,3032, -3056,4864, -3171,-640, 4617,785, 738,2571, 4065,2115, 3494,1812, -3391,4276, -7901,3014, -3406,4789, -3257,1350, 2539,-502, -4607,-1182, 528,944, -647,-243, 115,-2199, -2777,-1550, -1497,-1656, -2238,-2063, 1798,-1836, -3990,-1149, 741,540, -840,-1212, 1266,-2401, -2276,460, -2600,-2134, -2580,-990, 2947,-3402, 858,-2334, 2628,355, -685,98, -846,-2290, -3052,-370, -2505,29, -1641,431, 3041,-1205, -4478,-636, 1,-547, -578,-1617, 506,-1841, -1433,-205, -1815,-2075, -4874,-612, 2572,-1077, -4129,-958, 1113,651, -1579,-1114, -517,-1766, -3378,-1031, -2676,-1765, -3122,-726, 2689,-1761, -931,-3086, 776,126, -1856,-437, -226,-2513, -2262,88, -1840,-1779, -1539,224, 2721,1368, -3387,299, -31,382, -797,-1023, 531,-2388, -1106,-1106, 85,-2166, -1983,-550, 2774,-1293, -3351,-1330, 320,298, -956,-406, 180,-2573, -2930,-1204, -3166,-2924, -4104,-1316, 2983,-1067, 635,-1807, 78,625, -1042,-59, 776,-2272, -1122,606, -4546,-1294, -458,929, 1750,-1091, -2404,-1125, -310,-448, 96,-485, -1323,-157, 1121,1356, -282,1176, -1385,-1170, -772,-1010, -6,-1457, 1414,-306, -273,-1734, -1452,-487, 302,1723, -789,75, -1306,-1553, -720,-1050, -439,-1039, 693,-1345, 178,-1548, -598,147, -1014,2004, 108,-561, -922,-1002, -761,-1545, -1447,-771, -904,-781, -461,-1252, -1277,-220, 521,2318, -680,1204, -1822,-1087, -727,-1110, 90,258, 743,-1285, -349,-2731, -1012,917, 558,1541, 218,206, -1763,-1674, -1156,326, -1506,717, -1189,-1056, 961,-2288, -860,1721, 64,1646, 1835,-1229, -1685,-1576, -1030,767, 1135,161, -917,-801, 985,-1472, -1311,-1315, 278,1498, 1264,-1355, 452,-1323, -1211,1023, 3262,1429, 466,-1185, 1820,-2183, -1076,1752, -372,1552, 1317,-1201, 2411,-1742, -1105,2086, 1784,2060, 538,-1730, 484,-1676, 181,735, 214,1772, 1767,-1273, 1123,-929, -1095,1159, 1546,988, -5021,-153, -220,-1449, -2335,1185, 4620,3743, 404,3979, 684,-1781, -1232,254, -1487,1121, -2498,-1038, 396,-1753, -2066,4973, 4160,2619, 3257,6662, -787,-674, -2433,2096, 1622,2122, -2563,-809, 311,-1242, -1410,5305, 1038,2695, 1702,3563, 853,-1059, -355,-2799, -2554,-2116, -186,-314, -4236,449, 434,-4653, -2786,2186, -4370,-3827, 194,260, -530,-8000, -13059,-4990, -1675,-434, -7540,-859, 287,-7325, -9604,-1886, -8875,-6683, -10426,471, -1033,814, 69,627, 1161,-134, -683,258, 640,310, -3340,-1581, -1678,-2532, -1847,28, -930,1759, 1822,961, 1040,-14, 2003,1154, 1794,2867, -954,-355, 2996,-1423, 3756,1584, 855,-1760, -2037,-1117, 1806,530, -886,520, 2496,-1780, -923,-2662, -744,-764, -2402,2295, 299,-688, 2890,-1874, 983,336, -1139,430, 820,-3701, 2580,-2849, -2864,-1266, -861,352, 777,-2837, -8626,820, -2157,-611, 83,809, -4297,2096, -256,-916, 5198,4486, 657,261, -1535,-5333, -17310,78, -3162,2070, -2673,-1487, -2029,2910, -2910,351, 2990,4803, -7359,623, -41,2772, 340,1519, -6886,2542, -1971,-906, -2907,-141, 1267,2823, 3531,3185, 685,-1866, 3012,-6021, -13373,345, 47,-3, -5433,1518, -489,40, -1042,-2696, -1134,4743, -5417,1641, -2219,-6828, -16922,-137, -3513,781, -6763,-382, -1416,-320, 864,-3338, -4104,4250, -10911,3036, -519,7793, 12867,2910, -784,1027, -919,264, -2971,355, 7843,1872, -1768,1884, 4927,-1429, 2946,-6560, -11193,-1105, 2372,684, -2704,795, -10,-959, -2993,-2506, -849,967, -5921,2593, -1034,920, -2487,-1554, 1022,2182, -6583,194, 1187,-4472, 967,-1842, -1797,481, -8783,368, 1381,8266, 20246,-474, 2410,2117, 2069,182, -1384,-5491, 4260,3108, 1144,-1419, 10605,-1916, 3675,-2197, -4793,-2168, -3459,-1239, -1775,-889, -1241,-1955, -189,-351, -2304,-1702, -3864,-1280, -1702,-1980, -888,-536, -4381,-1921, -1297,-784, -2228,56, -1345,-256, -631,-2399, 123,-2270, -1625,152, -2954,486, -2584,-1294, 187,-2261, -2211,140, -2809,182, 220,-2875, -2167,-1171, -1403,1106, 3683,564, -3854,285, 1136,1, -1403,1371, 1573,-597, 2247,2184, 3374,-1388, -1437,4085, 2027,3849, -4197,305, 2443,441, -2319,4132, 4445,-766, 6863,5046, 4446,-2266, -1882,1686, 4701,952, -1927,535, 1571,-149, -1531,3367, 2674,271, 3484,1443, 3715,-2064, -1841,-1644, -3164,-569, -3630,-1577, -1046,-893, -939,-2766, -2746,-1042, 1203,-3004, -1421,2, -483,-2340, -993,-1606, -4754,-1267, 184,-1013, -2053,-1504, -2407,-858, 545,-2413, 510,-1593, -1128,-1027, -1438,-1803, -1935,-1677, -1611,-1749, -1412,-1999, -865,-464, -780,-3668, -2615,-1006, -678,-6665, -6862,-2530, 510,-327, -2664,190, 2603,-814, -997,-53, -2142,2872, -2138,2079, 1376,-7650, -9819,-3718, -476,-273, -4688,-693, 1467,-1242, -2866,-1267, -5003,2481, -7211,2411, 415,-5553, -7775,-2153, 624,1010, -3132,-571, 1897,537, -1555,-1509, -3742,3274, -6000,2226, 329,-1266, 628,-82, -2136,-342, -438,63, 372,2394, 2089,378, 757,2111, 639,-1398, 190,-3345, -1692,-1323, -1455,251, -1206,119, 510,830, 651,-799, -1881,4052, -2414,-1696, 62,-2356, -2822,341, -2019,788, -1634,31, 503,1275, -279,-1539, -780,4022, -1965,-174, 68,4479, 6289,1620, -2944,-421, 292,892, -1479,1329, 1892,714, 1858,197, 4818,-3590, 239,5783, 5280,2144, -1205,151, 723,201, -1795,2245, 533,560, 2151,139, 3923,-4189, -177,2377, 3900,2157, -2561,885, 1215,1066, -1150,4416, -327,48, 2643,8, 4678,-2938, -86,2631, 1144,-1234, 3377,1123, 733,1299, 1630,-1791, -2293,1042, -1647,-5885, 2937,2754, 783,-798, -6092,-1568, 2842,-1661, -1973,-224, 739,-4281, -5731,-1137, -2886,-6839, -1673,1437, 785,4002, 915,-568, 5079,-1728, 2347,-480, 725,369, -6201,-1937, 2108,-8933, 3108,436, -37,-496, 1348,-1442, -2240,-807, -1270,1482, 419,-1756, -3259,11, 4322,-4895, -474,-2491, 448,-3013, -2123,-4260, -1970,-1241, -5560,2197, 298,-3518, 230,-1660, 1754,-788, -3418,-1677, 1236,141, 3664,-1922, 277,1051, -1952,3204, 1499,-3973, 1902,-245, 4243,-1378, -3219,-598, 1594,117, 1998,4081, -3533,2701, -4370,1031, 253,-6485, 4055,-64, -1284,-184, -4011,-1599, -1371,-1859, -1675,2236, -7782,2692, -7285,1051, -2086,-4593, 5129,-66, -6410,2034, -5295,-4061, -1961,2043, -744,2542, -11722,2131, -4598,-722, -2469,1103, 3434,3103, -2851,5934, -4107,-5192, -2522,-418, -2964,-1147, 1509,-572, 2518,-1138, -175,-2425, -2317,-1449, -512,-2577, -1419,928, -98,1543, -7899,-2742, 596,1190, -2370,58, 452,-5327, -2837,-2611, -2546,-2770, -4987,258, 2835,1820, -7829,616, 704,-814, -1415,-579, -313,-4834, -1413,64, -1923,-2343, -4757,-198, 2348,1360, -2668,-220, 1730,-529, 3024,750, 178,-1946, 745,-1977, 805,128, -2973,3474, 778,1372, -8438,-1225, -180,571, -2785,862, 392,-8484, -2451,-1824, -2213,-4312, -4288,985, 2910,-641, -8695,-2595, 1031,1440, -1721,-452, 62,-6850, -2836,1240, -2112,-6479, -5801,294, 4458,3617, -1962,1726, 1918,816, 527,293, 3187,-413, 4299,-3049, 2948,1707, -1420,4736, 3269,3488, -9486,-368, -1509,1042, -1182,1180, 1064,-5050, 395,-600, 743,-1708, -3140,3798, 2530,-260, -9759,-1296, 768,1855, -718,104, 691,-4418, -1463,1171, 2047,-3582, -6157,1398, 4141,805, 1459,-832, -1250,552, -1194,69, 852,-935, 45,-1032, -2391,1680, -60,190, 185,-505, -150,-1079, 709,-1104, -1022,-234, 1135,-1341, -1274,-586, -16,1491, -310,800, -827,-487, -1084,-40, 968,-848, 1818,-196, 1062,-1187, -3201,-889, 875,1663, -1042,-540, -394,2073, 2686,-1017, 1007,1356, 208,755, -1783,-3307, 2405,680, 648,-5872, -1856,-6708, -284,1496, 2694,-3, -1210,299, -2530,439, -985,-626, 2089,1322, 3580,-5323, 794,-7732, -1468,873, 4152,498, -1966,202, -1692,-498, -1769,-974, 2433,255, -15,-4957, 792,-6647, -1107,903, 2028,1190, 395,890, 598,749, -1172,-1061, -5415,-368, -4444,1324, 30,-3041, 566,-1394, -4423,3460, -3154,567, -4354,516, -1325,4296, -1880,-225, -4073,8284, 2197,-5484, 1609,331, 1158,2709, -1683,737, -4318,-34, -591,-1559, -2517,215, -5028,4209, 1430,-2781, 1987,574, -1932,-57, -2918,46, 3141,-705, -5120,3240, -1401,5836, 3015,-669, 1130,4067, 8235,2148, -755,479, 2774,-5206, 2340,-4993, -1996,-1451, -4693,-2384, -2162,288, -3934,4459, 4282,2284, -2351,-1720, 29,-8941, 2283,-10218, 211,984, -2921,-6425, 2965,2441, -359,5942, -2086,-177, -3883,1479, -946,8269, 2737,10508, -1932,5792, -7221,10171, 2732,502, 945,2292, 11988,1645, 3947,3216, 2273,2429, 7177,2958, -555,5394, -14435,1566, -4443,5553, -5694,3426, 5886,921, 358,-969, 3691,-5225, 2985,-5504, 3864,1862, -7479,-3782, 647,1792, -1395,2280, 633,-4870, -6726,-5480, 3110,15539, 34,10942, -454,-2591, -319,10704, 7775,-6174, 1589,-3444, 16778,-173, 810,-3998, 2165,10137, -390,5675, 1670,-3489, -150,5072, 2361,-5506, -7056,-3321, 12542,-1988, -681,-2964, -3609,-2214, 948,-3864, 3829,-1856, -7174,-2651, 968,3133, -3291,-3499, 3655,-452, -5495,1350, 1372,534, -577,169, 533,2262, -5380,-333, 1631,706, -475,525, -1067,3510, -2582,3585, -3342,-339, 5344,-1301, -1941,6229, -5028,293, 7865,-1647, -1130,-453, -1036,394, 4772,-258, -5268,-1531, 1087,-185, -1221,3022, 3022,904, 3774,710, 3203,-1360, 1072,-3393, -9979,-772, -216,876, -5780,370, 428,-2792, -10051,-1639, -1707,-3069, -3742,1287, -890,1539, 4306,-1766, 859,129, -3998,-140, -452,-3663, -289,-11, -3151,-284, -3880,-455, 258,228, 4220,505, -5614,-1040, 1837,-52, -645,2758, 7720,311, 3627,4324, 4874,-2293, 964,-703, -4348,1202, -1442,1171, -3733,581, 1845,2053, -4001,-1384, 1754,613, -2001,1515, -176,23, 7343,-2295, 3265,482, -4076,-452, 710,-3170, 5683,-156, -3732,683, -1954,677, 397,-935, -926,-2632, -5973,-324, -3990,-278, -1943,-4391, -3613,380, -2968,-845, 443,-2080, -340,883, -1662,3497, -2776,2492, -1538,5621, -1293,1051, -972,838, 1171,2970, 966,-244, 4291,3274, -6325,1898, 1653,495, 2731,-841, 837,429, 2965,-1335, -1099,2451, -7024,3115, 585,2057, -763,-908, 900,21, 1649,-2414, -71,1668, 4917,-1581, -2851,1262, -775,2907, 22,896, -6902,-152, 4035,3454, -2466,2370, -196,-2217, 6756,-433, -1899,3827, -3160,2879, 2623,72, -8203,-4755, 2399,-679, -3896,-3225, 362,-5614, 6933,-605, -7813,2865, -15207,2522, 836,710, -1583,-2119, -3270,-3846, 1069,-2739, 490,-1207, -798,-1114, -932,416, -2401,974, 221,1776, -4149,697, 3241,2098, -905,-333, 457,-3456, 5044,-26, 233,3491, -3678,796, 1518,-1047, 3753,-2297, -1830,-2343, -463,-1450, -767,-3541, 2048,184, -1890,1163, -2684,-301, 833,-251, 4158,4103, -8817,-4082, 4153,-1231, -1033,2293, -1394,-169, 3503,-2144, 5217,-2412, -588},
{-338, -3487,3087, -460,929, 934,-186, -797,2459, -3645,-2227, 648,-3324, 2911,1972, -3888,1093, -5445,2608, -360,144, -2566,-2118, 45,550, -8452,-3064, -1703,-1931, 703,2232, -2243,2414, -347,1990, -589,1633, 1986,-2017, -330,3755, -3741,-620, 4533,2192, 1080,2202, 896,-1241, -7450,-552, 187,1162, -2574,-1191, -1554,-6159, -10615,-2988, -2261,-8416, -966,-288, -1906,968, -6413,-3275, -695,1333, -7549,-1443, 11,-9234, -10786,-3916, -6786,-3548, -7004,145, -1397,276, -3292,-3621, -125,553, -818,-593, -603,855, 5648,280, -930,10949, -4527,374, 3479,2851, -1034,-1126, 962,514, -21,-68, 53,-236, -661,-1853, -702,2988, 2367,-312, -1229,4984, -343,-1486, -453,389, -4977,-1840, 23,-2792, 7982,-1070, -2551,6172, -6651,356, 1153,567, 65,74, -4578,2456, 932,264, -33,3758, 11947,3917, 2925,8646, -3135,2052, 4120,-679, 3366,-4686, 60,1453, -3308,1985, -1879,-7771, 4463,1447, -4529,-568, 1197,-1843, -3222,-7300, 9812,-9474, -2898,1550, -3095,6703, 5528,-3744, 6016,1288, -579,-1548, -1405,-5190, -1293,1334, 733,3560, -4801,3107, 10638,2874, -444,2658, 1807,2610, 4631,4123, 2151,-8838, 4056,836, 2216,143, -1340,-3442, 365,-2184, -670,-4550, -9730,-878, 553,-6915, 3272,1160, -2927,-3190, 7023,-298, -5902,142, 14683,-2091, -603,13519, -2471,-2591, 5476,-1881, 13978,1719, -1644,645, -1057,-981, 62,3104, -2973,2192, 1191,4764, 32767,2097, -5634,6113, 9571,1544, -667,2896, 149,1177, 4530,-4054, 962,-2182, 250,-2190, -4207,-503, 388,117, 1283,1679, -3460,-3793, -9963,240, -48,-3813, 1932,-2783, 195,567, -9049,-1486, 2595,-58, -4125,3765, -2753,-5560, -5880,-3893, 5245,563, -2462,860, 1028,-3206, 5788,14, -816,3434, -3267,1025, -1545,-1041, 6068,813, 3136,-2084, -376,1132, 615,-2968, -3468,-2206, -1515,-1372, 3152,-634, -2140,1734, -12247,5568, -5074,-90, 1293,-1214, -4307,-2907, -4833,-3014, 4883,-2057, -13993,581, -742,796, 19593,-607, 2778,362, 3916,2685, 780,1477, -1229,-3258, -2424,-1321, 10651,786, -537,-363, 8550,2589, 2436,-3049, 2861,437, 278,7545, -6004,-657, 731,681, 8052,-14, -2142,-778, -15875,1799, -5462,582, -2004,-1802, -647,2248, -2021,-3985, 534,3139, -6781,2096, -1541,-2523, 16974,-1404, 513,-162, -837,1970, 547,2160, -1065,-3878, -5995,1069, 11655,1848, -2735,-233, 3908,669, -1089,-1422, 1015,-2017, -124,2658, -4043,-2216, -1403,-4, 1283,-1924, -1608,-2371, -17900,2779, -4117,194, -2238,-522, 2362,-686, -2115,-3798, 220,3373, -10026,2260, -983,-4663, 5605,-4933, -4260,2829, 1637,-653, 347,825, -876,-6731, -2777,5205, 1938,290, -1867,135, -6036,-38, 2888,396, 485,-556, 2422,621, -7850,-760, -1398,1974, 976,1180, 1492,-1227, 3091,-3129, -8256,-333, -1071,-1006, -3016,60, 7986,1138, 1617,5295, -326,-7579, 1556,-194, 4530,345, -8710,58, -576,827, -1374,-760, 3650,316, 533,-6262, 1447,-4747, -1002,-2253, 9680,383, -8362,-612, -1774,570, -3871,-4596, 6182,1969, -1657,-10075, 579,-7928, -378,-982, -1266,2823, -7556,437, -4678,-162, -3196,-4301, -964,-638, -5185,-510, 1580,-7916, -489,2933, -2793,-2080, 3805,60, -2105,-1446, 275,-1210, 4932,59, -610,6692, -2453,-206, 456,1623, -3412,-1374, 1451,802, -1802,569, -189,3608, 3938,-121, 1872,4814, 145,-1230, -17,1150, 519,315, 3585,-78, -2266,268, 336,2579, 7675,423, -20,2218, -2644,-13, 30,-1244, 2914,1124, -1556,-668, 647,-52, -1202,-368, -9251,118, -2086,-3612, 1482,-2020, 50,5260, -227,4555, 1276,2771, 861,1364, -1010,104, -2553,-999, -2209,1380, -3357,-2712, 2332,2700, -3846,3975, 3228,-2476, 1750,-5255, -258,-142, -2191,-464, -3312,-51, -6345,-2467, 735,-235, -1554,2710, 1096,-7149, 1492,-7131, 149,1294, 2856,-899, -1724,1670, -491,-1612, -1667,3024, -1159,2888, 1869,4539, 392,3715, -2746,-370, -4383,-1443, -2178,1768, -3944,-1973, 2560,4686, -5409,5030, 3982,-861, 2363,-4095, -1395,-2676, -4952,-1647, -2019,-1110, -7418,-4024, 1691,2707, -3012,3434, 3739,-5109, 2436,-4972, 57,-3458, -5335,-488, -668,-1194, -1892,-3817, -1079,2618, 1550,1533, 649,7208, -978,4569, -2505,1670, 1043,-553, -311,2486, -2460,-1239, 5046,1780, -1652,2263, 3143,2410, 2653,-2109, -2167,1862, 210,-1157, -466,821, -5638,-2865, 1751,3304, -1624,3775, 2489,-982, 1113,-3419, -1544,843, -3164,227, -577,178, -1934,-4678, -198,5532, -8331,3282, -106,-569, -6008,-226, 628,-1004, -3981,-2812, -234,1372, 61,2932, -628,3845, 7520,1529, -1342,-425, 585,-1219, -952,-498, 4626,1460, 869,-505, -2348,-984, 1599,-3036, 6377,-1147, -5475,-1046, -3188,2858, -676,-665, -1566,2410, -1925,-3708, 7922,-2517, 95,6294, -10544,2853, 271,-403, -4329,-2247, 266,1188, -4512,-2913, 1115,2465, -2585,1200, 749,-4505, 12576,-1985, -5613,117, 593,-207, -595,-794, 4696,1685, 1697,-1153, 2183,710, 897,-188, -1526,-708, -6620,-171, -4402,1330, -652,-1665, -2409,-226, -2906,-466, 2354,-2101, -1121,113, -7162,1251, -2780,520, -444,-1411, -493,4085, -975,-724, -357,3227, -6550,847, 1525,-10190, 575,-3217, -11434,223, -2656,81, -1394,-466, 548,-8, -1786,-1278, 1992,-399, 1064,1082, -5286,891, -3452,616, -886,378, 113,973, 1121,-1603, -841,2055, -4172,-617, 546,-132, 2123,-122, -1911,94, 1783,913, -511,566, 1100,2754, -630,1601, 2067,955, -1561,-4685, -5075,-1979, 1633,-431, -2458,762, -87,-578, -2536,-1388, -4971,-566, -4606,1352, -1859,1845, 2242,1992, -495,-231, 2040,476, 489,4457, 388,-2341, 2425,1875, 2068,1969, -2024,3617, 2859,1783, -1748,-152, 4026,434, -824,-352, -2190,2723, 4190,-1211, 3889,-702, 287,-7257, -8911,-5474, -291,-376, -3885,-810, -852,-8946, -9753,-1917, -8316,-10055, -7811,-2099, -1157,-288, 4487,-1704, 364,-255, -463,116, 773,-2534, -2973,-2213, -1516,-4518, 663,-1063, -1093,4468, 4937,2232, -4533,848, 3999,-198, -915,4513, 23,2886, 5208,824, 3711,-3641, 1621,-1222, -1922,294, -1364,1134, 1553,-626, 942,774, -230,14, 3172,1811, -1475,-2524, 2242,-816, 3125,-1319, -3575,1139, 1199,-989, -116,-2074, 2685,-1728, -741,2747, -216,-3486, 1825,2720, -8486,1586, 780,259, -2334,-645, -331,-2317, -203,-1137, 1391,-1263, -6663,-620, -447,-4408, 4684,-2979, -4902,102, -1162,231, -505,1412, 767,676, -1929,1032, 1969,491, 965,-3473, 2659,-2324, -7838,245, -1496,1294, 542,755, 144,467, -3298,1613, 3715,1915, 622,3990, -11128,2559, 340,-92, -2531,-1361, -1094,-3579, -1205,-2237, 1980,-1391, -7366,-626, -1086,980, 5842,908, -943,-495, 1023,-659, 517,3198, 814,915, 3547,664, 1666,1342, 244,-4830, 4237,-3851, -5294,423, -2848,1684, 1192,1648, -630,1234, -5147,1737, 5170,1986, 251,2159, -9001,1466, 2362,17, -1438,-604, -174,-2268, -784,-1924, 307,-104, -4627,443, -906,866, -1303,855, -1386,-225, -1287,-259, 1234,-1376, -824,-560, 402,10, -4768,2517, 222,-4066, 4430,-3383, -6608,152, -2184,1574, 1220,1132, 510,1016, -3513,2175, 3574,2353, 1003,-931, -573,-829, 488,-605, 633,-888, -124,-848, 1190,-2865, -947,93, -685,212, 2330,-544, -1263,-941, -172,-489, 773,-866, -376,-75, 1135,-2273, -393,-95, -72,107, 3874,-477, 327,-89, 14,-594, 1668,205, -442,864, 99,-1152, -171,280, -284,39, 4134,396, -823,513, 1098,-562, 1516,-684, -1637,34, 1099,-2279, 1648,406, -437,618, 1368,-77, -1156,712, 929,-1109, 1153,-63, -1331,384, 445,-955, 2580,458, -28,1067, 3531,-62, 2497,234, 1883,-521, 1597,1596, -1622,636, 1376,1179, 361,576, 352,1085, 3496,231, -565,751, 707,506, 2197,-3, -2046,140, -460,-2725, 1245,-921, 784,915, -157,-408, -1103,863, 800,572, 1490,220, -3608,-1337, -718,-962, 1596,-1525, -257,10, 550,-226, 609,110, 1016,178, 566,1573, -2869,-1862, 237,375, -695,-1090, -469,840, 589,-1532, -2341,-1201, 159,2346, 16,238, -4687,-3881, 795,10103, -3172,-294, 75,-4359, 2126,-3050, -1334,-232, -1747,-1321, 684,1410, -6410,-238, 2413,6183, -437,1949, 1380,-3847, -2097,1679, 628,1883, -2356,793, -1563,2759, -3715,-10, 1200,5124, -1117,658, -1394,-2584, -2183,-112, -1582,1233, -3021,1689, -691,62, -4024,926, 3075,5781, -3022,3287, 2151,-2147, -2200,1103, -861,948, -2751,-3247, 1055,1894, -7742,3917, 3508,-4349, 459,6024, 2460,-2556, -8410,3969, 5124,2439, -2162,-773, -1048,5781, -6553,6058, 2427,-8483, 334,4957, 2697,-2500, -8329,1555, 3079,-78, -876,1166, -1419,-970, -4452,-991, 282,908, 2944,3524, 515,-2582, -4019,310, 2535,808, -4485,-6897, 1053,4738, -4870,4351, -595,-13830, 2115,4742, 5316,-609, -7625,5114, 8618,2713, -6563,-4569, -2192,6668, -4466,4005, -2659,-17847, 4056,4901, 3465,-2281, -8621,-2674, 2157,-1797, -1205,37, -1424,611, -467,674, 1069,1117, -2359,1454, 3057,94, 798,-3561, 2214,-1335, -2644,460, -1895,351, 752,1333, -467,81, -1757,1268, 1600,792, -50,-472, 1397,565, -2554,1757, 493,140, 1179,1677, -334,-681, 783,972, 1033,414, -1121,-2692, 730,-707, -3799,-651, -252,-3, -923,1373, -755,837, 210,-53, 1925,158, 659,-5262, 1545,-3106, -5033,-240, -2244,-122, -566,1810, -1800,126, -3590,605, 1381,-109, 411,-2435, 1846,-704, -5059,293, -2285,-224, 220,1918, -913,-812, -2076,1491, 1847,120, -832,-555, 178,872, -1105,-523, 953,356, -468,841, 447,1317, 1885,-364, 947,260, 1211,-3960, 1689,-1948, -3142,80, -848,517, -46,1594, -678,329, -1353,692, 1002,557, 387,-3109, 2766,-2192, -3079,460, -1551,289, 98,1468, -1018,-207, -2994,1434, 1660,-406, -77,278, -538,2422, -3164,753, -1636,1849, -2165,-5192, 1874,1478, 4533,-2645, 490,-5777, -173,-1775, -488,891, -4728,1037, -3270,900, -3267,-7034, -254,1443, 1539,-4459, -4245,-6645, -286,198, 1389,36, -2915,1445, -1710,1043, -905,-3593, -166,1822, -6,-279, -1182,-5404, -714,-3818, -4644,-3454, 2672,-216, -2962,-1256, 1738,6230, 672,-1179, -3841,9199, 1377,2788, 1417,-4948, -3287,-5303, 2752,246, -3964,-1649, 1179,7768, 1274,-1425, -4047,10028, -1534,1922, 1450,-1574, -2139,-2420, 1936,-260, -3694,-1441, 2815,9157, 504,-251, -2392,8581, 1324,2566, 1026,177, 2001,2839, -1322,180, -633,541, -769,-406, -1096,176, 171,-1257, 2494,-945, 872,730, 1070,2822, -225,-67, -2395,396, -1860,-2268, -428,1078, -298,-1850, -658,-1930, 514,3914, 1152,3166, 1402,-424, -1876,-458, -1247,-1511, 137,592, -311,-2375, 330,-3702, 338,135, 2450,1249, -1111,1289, -1868,-528, -1757,1609, -920,461, 1315,2515, 2176,-1935, -440,1049, -3806,1333, -24,-127, -2058,631, -1589,1929, -2332,131, -54,4843, -1900,-1517, -259,1800, -4500,128, -182,-329, -2637,-304, -1987,2561, -889,346, -1482,5819, -2177,-1093, 251,759, -5035,14, 426,85, -1313,-125, -1075,2611, 539,146, -764,4866, -2148,-920, 232,419, -6496,-496, 255,-606, -2027,91, -1736,1021, -736,6, -1863,2482, -4427,-329, 251,-394, -3452,-1290, 984,-607, -1987,284, -1922,-716, -2398,648, -1898,-892, -3188,-521, 990,903, -4975,316, 737,471, -242,339, -1108,-1058, -2979,564, 217,-1376, -1950,16, 743,-468, -4038,-704, 3,1059, -1225,-224, -1511,-2080, -3810,734, -969,-2594, -2062,-292, 706,-462, -362,-1159, 1275,498, -1576,-167, -796,-2496, -2689,1528, -1119,-3320, -1551,-458, 1192,-3368, -1099,-188, -1310,8, -565,2214, 1250,-71, -1949,224, -2189,97, 2587,1639, -1020,-3085, -12510,-2708, -3944,-109, -3431,-329, 297,-4402, -3078,-451, -3896,836, -7493,593, -320,438, -2255,-650, -790,-209, -2115,-920, -542,-3380, 3092,-584, -2753,3990, -4893,404, -298,709, -3846,-1620, -1497,-1047, -92,1181, -1672,-3269, -4480,-737, 779,-5434, 1487,-1549, -2749,3744, -9913,81, -2150,-1589, -13,-1840, -1979,-4600, 1440,-2330, 3804,1062, -7566,-1996, -2164,-707, -944,1319, -1480,-1632, 2952,-1091, 287,3938, 5694,1248, 4669,7718, -2282,1207, 428,2603, -5429,1759, -2059,-1272, 1090,1060, -1482,-299, -5253,-1668, 2925,-2860, 376,-128, -721,3624, -11090,4878, -4908,-1375, 1319,-2001, -3312,-1512, -3592,-3395, 7990,-1354, -3819,-1026, -2124,-1805, -1882,3050, -3927,-613, 1101,-415, -4835,-1073, -2601,1392, 5104,-1866, -4530,549, -1813,-2373, -3894,-1000, 585,-422, -1875,-175, -256,-755, -884,-154, -2107,-123, -1920,331, -765,-2994, -5646,-1724, 178,150, -2090,-232, 88,-807, -1197,-375, -2109,-601, -3014,806, -902,-935, -2349,-359, 1487,547, -1090,-557, 348,496, -1068,-296, -1771,-554, -1363,509, -1183,-4495, -6935,-2274, -1667,-21, -2014,-1468, -548,-120, -2883,-422, -1581,1305, -2966,151, 609,-5718, -8412,-4041, -2220,-497, -2468,-1599, -218,-2679, -2611,-1050, -3542,-552, -5904,-149, -37,-3600, -2841,-3018, 652,-26, -1935,-716, 148,-1268, -864,355, -2437,1478, -4638,46, 1050,1015, 3399,1384, -659,1344, 855,45, -995,2739, 3340,1867, -491,3526, 1097,308, 1616,2427, 4430,1793, -533,991, 631,-51, -1654,2664, 4649,1187, 610,3303, 1250,347, 1258,3091, 5406,2324, 430,122, 874,-500, -1754,3202, 3309,1511, 1265,2873, 3019,156, 1266,-1169, -3447,-1039, -3149,1456, -2863,-1623, -1929,-1747, -5733,2804, -2120,383, -2187,-3330, 173,-1362, -9912,-861, -4639,1506, -680,-268, 1459,-2090, 414,3337, 5367,2366, -2491,675, -1463,-3975, -9757,73, -1559,1279, 4427,-1726, 3072,4738, 3762,1118, 6573,8161, -2761,1528, -1126,5689, 7433,1057, 3608,-3004, 967,-1939, -2551,2782, -3644,3211, -3879,-5531, 5939,-4405, 1153,3387, 9811,3453, 8058,-1825, -2196,122, 1763,7367, -5522,2375, -1862,1254, 13196,796, 819,2083, -2697,7956, -3508,189, 2468,-1068, 2174,14157, -3445,-2473, 7524,12483, 5915,3921, 669,3786, 3235,1973, 2129,-2261, -2737,-884, -352,-5899, -9005,487, -330,-8690, 4200,-1068, 972,838, 10961,425, 4952,-2281, -2139,1809, -1110,-1290, -12080,2327, -3730,-6938, 12553,-931, -55,8456, 4513,7409, -219,-2239, -1818,599, -763,734, -10522,-80, 5416,-4717, 5635,687, -2740}};
static BiasActivation<CONV_LAYER_2_PE, CONV_LAYER_2_ATILES, conv_layer_2_bias_dtype, conv_layer_2_acc_dtype, conv_layer_2_output_dtype, conv_layer_2_m0_dtype> conv_layer_2_activations = {
.m_bias = {
199650191,
244467423,
86084829,
-16163499,
267579444,
68347417,
160303833,
98645338,
152900406,
79902470,
181474460,
228644845,
91439010,
-124528881,
89085139,
32730714,
142648278,
-68354087,
111228789,
88550828,
119192375,
113372359,
109625181,
94018684,
-45915722,
17035047,
47397360,
48607122,
136969634,
257171168,
113781878,
-118430542},
.m0 = CONV_LAYER_2_M0,
.zero_point = CONV_LAYER_2_OUTPUT_ZERO_POINT,
.min_val = ACT_MIN_VALUE,
.max_val = ACT_MAX_VALUE};
static ap_int<CONV_LAYER_3_WEIGHT_BITS> conv_layer_3_weights[CONV_LAYER_3_PE][CONV_LAYER_3_WTILES][CONV_LAYER_3_SIMD] = {
{-11204, -16050, -310, -15158,-6603, 17421, 10453, -13330,5283, -3940, 7480, -15912,14199, 1475, -8558, -6451,5468, -3272, -5468, -12069,-2175, -6740, -5186, 13201,12929, 9965, 12053, 637,-13246, 6243, 1719, -8654,7501, -7870, 1406, 13023,-16322, 5965, -1989, -4768,-5475, 16968, 15577, 10322,12590, 14632, -16258, 16833,10325, 11889, -6475, 16412,11360, 1822, -908, -8351,-8443, 10080, 695, 14677,12640, 9013, 8232, -15094,13142, -13729, 5402, 10082,7964, -15425, -8366, 3767,-10588, -17094, -6407, 1428,-724, -9785, -2563, 3050,-6321, -4162, -12579, 7024,14384, -15418, 7272, -11617,13642, 9002, -14811, -15425,714, -5498, -5050, -9411,12047, 12070, -14681, 10892,11708, 7577, -9090, 10161,-9750, -13162, -15716, 13434,-3991, -15803, 6122, 15863,-7688, 9360, -14994, -2863,-14536, -7964, 17292, 10979,5581, 8870, 11014, 14805,-11279, 14220, -11829, 14246,-10328, 3300, 16675, 12792,15514, 689, 13698, 2517,10012, 12318, 4386, 1829,10007, 12809, -9733, 11033,-17215, -5705, -11674, -3904,-14036, -3521, 13215, -4612,13862, 16006, 8903, -1206,-9281, -15376, -1191, 11761,-2752, 5650, -8267, 7055,14432, -15775, -15421, -14359,560, -17973, -2430, -13533,12683, -9287, 5088, 2663,9813, 12245, 4562, 4171,14462, -15297, 13211, 8580,13738, 9920, 11634, 866,-3537, 6226, -14024, 9106,12429, 12269, 124, 18273,5376, 2082, -7016, -14967,2818, -16262, -4853, -11579,-14694, -14150, 6679, 11275,12396, -16176, 1754, 2837,6250, -15201, 7539, 15362,-2781, -2620, 2341, 808,6345, -9601, 13615, -12913,-57, 12133, -5708, 7628,13238, -11378, 12931, 4290,-8969, -15488, -4234, 15610,16488, -15329, 5931, -1798,-6665, -9349, -7219, -16715,-7893, -14439, -10400, -12044,-7479, 10986, 3369, 992,-15770, -8212, -6563, 17234,10451, -9332, -4167, -2299,-9049, 15252, 7928, -9196,-12756, -18127, -14729, -8028,14001, -2595, 3378, 16232,-1527, -10292, -4173, 10226,8063, 12490, 4220, -11664,18295, 13289, 3111, -13288,-4049, -13080, 8189, 6123,-14622, -7178, 4180, 6530,-14428, 13792, 13232, -8484,7020, -1875, -2239, 10884,-10465, -13815, -5623, -746,-2704, 11921, -16807, 10141,11983, -5022, -12945, -4959,7252, 9468, -107, 9666,-751, 6889, -1960, -9478,-11394, 8422, 6983, -7166,3715, 13295, 7459, -2179,-12989, 5527, -9973, -3923,-13488, 4342, 10927, -8483,4346, -12447, -15458, 8905,-2339, -1102, -8719, -1998,-16227, -9861, 12868, -6483,-5319, 15909, -2372, -6269,8652, -10776, -4642, 8687,12463, -9902, -4862, 10024,-11641, 153, 7624, 2855,-1028, -14261, -8166, -648,9661, -2802, 7423, -6840,5368, -13101, 5915, 11552,-9476, -12164, 9008, -12902,-7718, 16069, -8580, 13125,-9504, -13123, -12963, -1825,1160, 10223, 4368, -15021,-7912, 2106, -16086, 9635,-13365, -9600, 9360, 8755,4113, -1080, 7346, 2344,2742, -15517, 14241, -4139,-1700, -8901, 12117, -242,-12669, -3629, -15103, -7646,3114, 11581, -4212, -13135,-6057, 5935, -1080, 12709,-5452, -5718, 91, 14172,5120, -5059, -8352, -10715,-7959, -11500, -12554, 2434,4569, 3202, -1696, 15724,4627, 1501, 13743, -3643,-11643, 1728, -3268, 4749,2410, 6152, -12772, -14188,-8880, 1319, 3349, -11076,-4432, 11609, -14803, 14717,-5952, 5396, -4283, 964,-9974, -5830, 3306, 15540,-9351, -1535, 7686, -2739,-5582, -2751, -16, 12388,11336, 14957, 10290, -1790,-8340, 12257, -9339, 2188,14080, 3730, 12893, -2542,16101, -5106, -7850, 13305,-2208, 2670, -6, -14634,-11088, -11233, -9233, -6428,4936, -5066, 13236, -3106,5216, 14028, -17926, -3642,9360, 6193, 1015, 9310,6304, 1765, -6886, -12869,4912, -7093, 9055, 8829,-15164, 6543, 10604, -8114,4793, 1952, -1177, 13713,12212, 9587, 13263, 13815,5212, -4867, 5581, 4963,-3240, 1675, 182, -14488,-10245, 411, 383, 10517,-5009, -9168, -5284, 4349,15927, 9079, -916, -10191,-5354, 14170, -15885, 4342,-14169, -12190, 15559, 2372,14013, 11291, -3500, 7065,14658, -12428, -10917, -13797,3328, -2629, 1013, 7505,-13694, -3112, -15825, 8479,7766, 15789, 6409, -11282,-6985, 14870, 16571, -10030,-1079, -18299, -19200, -9473,-1956, 14214, 8526, -14110,17036, 11379, -15053, -17669,-5411, -7616, -9035, -10236,14831, -15736, 7434, -4415,-15322, 20815, 8116, 12078,-9686, 9306, -19217, -9086,5738, 2762, 4537, -12030,5319, 12870, -7670, -1503,-18065, 11617, 13930, 3155,-2416, 224, 4584, -20763,-14492, -14196, 3231, -2926,3783, -12154, 8872, -13608,-3874, -12130, 7956, 16379,941, 6414, -8032, 710,873, 11983, 7091, 10463,-2963, -10734, 15747, 19004,7437, 15805, -16881, -5591,15570, 15163, 7925, 13571,3486, -15848, -7175, 13531,-12690, -12806, 754, 6926,-3296, 6037, 7756, -21321,7546, -4848, -8487, 18789,-13540, -1262, -7212, 11433,-19361, -3865, 2810, -12821,-18177, 6416, 9918, 18260,-17038, 5603, 2883, -3802,6201, 19867, -10086, 20195,-6434, 12920, -79, -16175,8171, 12400, -14025, 13208,3251, -12004, -1331, 8610,7674, 4886, 3582, 17538,-17060, -19896, -712, 1108,3348, -5887, 13077, -4775,20191, 17588, 8824, -10996,-15214, -19935, 17927, -2205,19698, 1512, 19542, -10784,413, 8541, 9496, -4193,-14336, -10448, -20571, -3704,12577, 8605, 15832, -17308,12022, 3678, 1276, 10378,-4458, 15479, -4758, 1813,-246, 2471, -978, -13599,13179, 583, -19725, 4460,5675, 3617, 1369, 11224,-14056, 671, -1921, 1891,-12229, 6210, -5156, -7739,14722, 20423, 2925, 11628,-18538, 6972, -19284, 1273,14481, -837, -17044, -16228,-18857, 17051, 18696, 12617,12571, -15932, -4769, -4839,19704, 7438, -21696, 7432,-17601, 9280, -12168, 12049,15382, -9173, -7335, 1002,1294, 8003, 20076, 21177,-15691, -2489, 12164, -10413,-17590, 17358, -19280, 17239,-20352, 5425, -11570, -15986,17312, 4786, -6001, 3706,-15682, 4420, -16013, 8793,14682, 10679, 17785, -15870,-2827, -1823, -13681, -17603,20309, -1634, -18575, 10233,-2298, 17773, -22182, 17478,9145, 13156, -17977, -15802,-3962, 2577, -14484, -3087,-11023, -3540, -15334, -5332,-13819, 15381, 17677, 15101,-11490, 2368, -5985, -9716,10190, 3248, -11636, 4376,-4065, -28172, -12655, -7447,-9682, 10436, 29221, 23715,-9794, -12961, -27941, -18680,-26721, 15163, 3320, -20249,-7434, 19270, 16302, 25463,21392, 24901, -5656, -6581,19015, 12841, 2407, -23957,-672, -4087, 20395, -10255,17013, -2448, 4359, 17969,15105, 18233, 22767, 9323,-26946, -24620, 25065, 10943,-10042, 11347, 12843, -7196,-27887, -19502, 13050, 302,-9342, 19819, 22116, -18412,12602, 680, 16808, -14493,17359, -11099, -1104, 6084,1325, -27563, -544, 12938,-3732, 2276, -692, 12473,-6849, -17064, 22986, 23997,-3894, 20940, -13225, 492,1093, 7477, 28207, 14524,-26917, -15015, 9063, -24762,-22850, -12667, -22324, 4849,8790, -1570, 18050, 6612,9005, -4510, -15506, 26036,-10126, -23070, 20225, 22601,9169, -9687, 10247, 14762,-9927, -24322, -7192, -2952,-1742, 12278, 7146, 5221,-9875, 13994, -11317, -23745,-23956, 13491, -23367, 7079,6163, -2685, 14502, -6409,18670, -19210, -11271, 8218,-6221, -15529, -9806, 21861,5642, 23468, 5538, -21211,-19158, -9324, -11854, 19886,24469, -26842, -1835, -5912,-13563, -14332, 20799, 4553,21968, 17341, 3972, -21611,-18439, 19517, -5120, -15780,-15346, -14290, 7892, 27222,-9007, -15163, 24025, -23955,5415, 21421, 11688, 14372,21949, -2830, -1542, 2661,9445, 20568, 7129, 15709,9064, 17569, 8129, -10508,18641, 20604, 1838, 16801,3390, -17807, 16266, -844,-6931, 2636, -21032, 9906,27429, 24308, -11795, 9525,7924, 27927, 14560, -7868,7913, -10794, -7245, 14961,-10132, -10367, 3008, 6890,23986, 16736, -18033, -25231,2863, 15599, 15389, -22314,-9861, -227, 3338, 27102,13784, -28516, 20324, 17612,-28061, -23099, -8564, -11236,-7530, 3812, -2556, -1839,13468, -24616, 1408, -22426,-22298, -9854, -14810, -3241,-8442, -22433, 4543, 6812,25825, -9313, 14037, 2541,-5875, -13992, -10995, 5866,24814, -23149, 6012, -940,-13379, -21042, 7799, 1546,-14773, 3203, -18392, -25214,-21909, 1489, -14984, 15655,11834, 18342, 15329, 17189,14830, 24166, 9968, -20103,-11390, -11296, -8430, -22055,16342, 2369, 653, 16289,5516, 27980, 13524, 27901,8913, -16242, 24436, 19576,4977, -13293, 5517, -17978,7651, 12548, 10891, 10135,16462, -13308, -18931, -5384,-19655, 24676, -23017, 10623,32247, -13007, -6756, 17786,-2834, 28325, -18402, -22843,-23605, 5769, -30537, -12180,9162, -7932, -14542, -16343,-7148, 14612, 6316, 6926,21005, 24333, -10600, 2057,13136, 2842, -15347, -27657,-762, 16565, -18211, 10377,11003, 20025, -15436, 6881,-1522, -25415, -10164, -2067,29448, -2861, -25877, 915,-11757, -28747, 3836, 1226,26284, -1141, 21131, 14291,-22080, -11700, 6257, -7245,12609, -27558, 22007, -24280,-4529, -14735, 22957, -22653,-15866, -5568, 26251, 6644,6490, 13114, -18724, 9846,-23764, 4574, -26276, -25590,24498, -16354, 10738, 2365,9722, 22932, -25634, -454,-22565, -5163, 22142, -7284,-8337, 18915, 3161, 29342,-11362, -11056, -1548, -5609,26719, -7929, 3285, 13891,16194, 23104, 775, 28051,-28481, 22533, -32408, 4572,11358, -3199, -20423, 20770,29720, 8962, 2841, 21438,5032, 6174, -15477, -16038,20809, 8128, -7928, -17625,-5395, 13325, 7373, 10016,-3379, -14218, -16266, 22706,-24492, 25549, 8282, -1415,16595, 12316, 20986, -17693,-840, 17456, 16970, -15123,-18057, -6587, 9726, -5179,16299, 24719, 8277, -12990,12669, 23107, -17295, 3909,7771, 8877, -26187, 8123,794, 16545, -27318, 13884,-386, 17805, 12334, 26763,2111, -17303, 4110, -5330,9560, 4522, -16851, 18453,-22959, 14574, 3876, -17087,-29839, 28119, -7579, -16306,4654, -12632, 20258, -18497,24663, -10099, 14754, 12905,-7987, 5199, -20977, 14567,-19446, -24001, -24971, -15914,-7842, 12561, -24714, 30509,5262, 1409, -6583, 2728,10952, -15700, 27346, -24759,12935, 18101, -28010, -11725,17762, 15704, -10227, 22320,17180, -14532, 26763, -10111,-2370, 6643, -5385, 1853,-1574, -21862, 6690, 13497,1000, 13297, -27808, -803,25712, 18742, -16584, 14314,-8405, -27485, 20777, 18353,-4100, -10815, -141, 28127,26507, 18253, 7541, 12407,-10462, -23962, -19547, -6237,21260, -24976, 30021, 21419,-6579, 2488, 9568, -13169,6200, 11465, 8503, 11126,-6628, 8905, 5999, 4657,4807, -12605, -3944, -48,-10231, -5209, -7837, 2914,-8013, 3549, 11965, -2228,-1172, 9055, 1241, 5305,-8436, 9688, 1278, -5479,-3932, -6564, -9531, -11537,10937, -12491, 10644, 1017,211, -9264, 4778, -11590,9780, 1791, -9846, -11387,3873, 1434, -8927, 6492,5289, -7126, 11016, -2158,2733, -7986, -9937, 14398,8895, -1539, 3238, -12593,10912, -7217, -7691, -12199,6466, 11138, -3190, 6856,9806, 11813, 5389, -7915,1603, -8301, -7880, -10007,1773, 2133, -8644, 2492,-7256, 8513, -9580, 9561,-4522, 9944, 9300, -882,-2414, -10577, 9814, 8678,12826, -5375, 9394, -1378,12783, 5162, -10341, -12119,-8499, 9310, -7867, -4709,-4566, -8715, -2876, -4539,-6553, 10821, 8206, 8223,12781, -12200, -9785, -7329,10397, 3777, 5565, -9247,-10542, -8989, 526, -4037,-4730, -3403, 5630, -6983,-11562, -6148, 2180, 5989,-802, 12623, 8390, 4893,-6545, -1219, 2207, 6970,5538, -9732, 11051, 12343,12666, -1404, -12872, -2769,-11243, 6506, 3042, -4042,-9953, -1435, 3694, -9743,-4625, 1965, 4980, 12206,-9596, -9846, -4146, -7495,3596, 11954, -2809, 1952,2030, 3510, -5903, 6552,-5654, 5216, -3788, 7348,6886, 113, -11009, 6748,11104, 13088, -3488, -10293,-6140, 4369, 4693, -8893,-2915, -6759, -7235, 10899,-6205, -170, 11383, 10094,8151, 8076, 5330, -4816,8391, 4446, -182, 2518,12100, 2674, -6702, 8543,8739, 2219, -10296, -9153,-7776, -11174, 1116, -1991,9472, -5399, -5442, -1754,6543, 9398, -770, -1732,6758, -6699, -6137, -10397,-12724, -4005, 2806, -3146,-4024, 105, -4221, 12054,-8232, -5732, 22, -11951,-669, 3088, 6138, -2198,6033, -9631, -381, -4459,8930, -4683, 9751, 413,12697, -2932, 1258, -8902,7178, 9793, 1144, 11718,6378, 4149, 2769, -3067,13709, 9552, 11537, 7761,-4020, -12700, 11584, -10317,7647, 7354, -5332, 4592,10689, 2669, 1795, 7646,-9438, 14810, -5145, -9625,-13489, -16128, -993, 12598,14112, 9395, 13241, 12116,-15449, 14092, -1825, -9493,11760, 7928, 17241, 6927,-5474, 10558, 8387, -3845,-15264, 4322, 3227, -7833,-15294, -8401, -1811, 7033,-18291, -2287, -8692, 3598,4681, -6676, 13149, -9955,14826, 5845, 4858, 15807,11397, 4241, 13889, -16590,-16920, 2860, 3856, -11251,13106, 1286, -11295, -7912,11656, 564, 9060, 15928,15733, 6917, -15809, 7206,-7504, 14999, 4505, -14099,-2672, 7413, 9419, 9992,10077, 12878, -5465, -237,9040, -15386, -17590, 1223,-8987, 8094, 11817, 125,14875, 10221, -300, 9214,7026, -16315, 1918, 13479,-8634, -6049, -10276, 16743,-15457, 5241, 6122, -8226,6727, 1758, 9706, -6412,-4478, -19653, 64, -15504,-6084, 7116, 1119, -9391,7600, 10533, -4380, 9044,14205, 4300, -2939, 8261,-850, -8302, -11029, 4361,13240, 14097, -14155, -6856,9198, 10560, 8774, -5656,3307, 17123, 14246, -4547,1507, -15433, 12501, -16899,-14706, 9113, 17106, -15184,5729, 3844, -16217, 3093,-17092, -2762, -13896, 14281,8218, 10535, -5968, -15937,12569, -9250, -8214, -9868,-6641, -13267, 17838, -7161,-12367, 6423, 15094, 8669,-14464, -10825, -5321, -1922,-927, 4646, 5248, -2032,-1476, -2372, -8239, 5494,-13633, 16200, -11512, -9361,5248, -14115, 13703, -13507,-5090, -6997, -10565, 9756,-6353, -17002, 15455, -8724,-10621, -13151, 1653, 3658,-10673, 1813, -2449, 7815,-11637, -12838, 14431, -7551,-17851, 10184, 4632, -4865,-16749, -2025, 11473, -14579,7408, 2066, 12810, 11452,7712, 3169, -4492, 5910,76, 7313, -13847, -15114,9926, 12230, 12185, 18473,4450, -1042, 7000, 13410,8079, -17182, 7122, -751,-525, 5290, 8006, -16231,11428, -14132, 315, -13437,16900, 4163, -14697, -11094,9437, 8079, 17067, -2283,14966, -16666, -9004, 6104,15498, -5107, -8223, 13151,801, -1100, 18925, 13019,-6183, -14117, -15215, 35,15689, 9580, 5417, 12195,-9212, 674, -16521, -8726,7990, -2484, 18372, -6210,7920, -5161, -11666, 5890,3134, -13024, -3931, -6206,-12264, 7112, 8394, -3994,71, 1094, -2918, -2699,6223, -3643, -2756, 11323,483, 9708, 2171, -3851,13647, -6206, 9808, 6017,7577, -5551, -4848, 5414,12624, -10198, -653, -12166,-2924, -7164, 11451, 5170,3731, -7403, 1687, -1657,-12232, -11809, 2953, 11849,-8968, 12054, -2142, -8812,-5392, 2567, -46, 4058,8873, -10979, -2218, 1388,-12072, 10637, -6269, -7526,1492, 5063, 4917, 9915,12969, -11654, -4219, 9383,-6043, -2665, 1303, -4212,-1813, 5536, 2045, 2674,6610, 11207, 8755, -3825,-10863, 1509, 2300, -13569,-980, 9609, -11658, 9724,-2813, -11118, 3193, 9136,-3946, -3506, 7850, -10818,7974, -9156, 751, -7530,6744, -4776, -3869, -12602,3926, -237, -9189, 11668,-12606, 1899, 11775, 6202,-3758, -7410, 10479, -6745,1328, -5817, -5802, -5753,-5550, -5373, -4102, -7793,-3372, -12272, 11938, -2299,-10334, -5308, -6455, -5307,10339, -6249, -6277, -4234,3251, -1939, 10478, -6716,8688, 1432, 6635, 969,2125, -5512, -7115, 1724,-1642, 9894, 8914, -4164,-12628, 11874, 3300, -2401,3983, -4551, 6641, 7468,12626, -4983, -13824, -3873,6020, 5299, -1882, -11627,13726, -12423, -4504, -9137,-6102, 5347, 9540, -8848,632, 2050, 5808, -458,-11738, -2161, -3337, 10578,-7062, 4210, -12945, -2994,12327, 4418, -6605, 10865,-8001, 9560, -5781, -5944,-7489, -8623, 228, -2092,4583, -11910, 3548, -5984,5839, 3115, 5358, 6245,-4066, 591, -152, 7970,-11874, -2229, -2841, 3193,-4854, 153, -8241, 7537,1830, -2206, 1917, -5962,-9261, 2823, 5059, -9059,-7225, 10643, 13494, -6721,-9090, 1712, -7826, 9950,12642, 5580, 8123, -1292,-7368, -9814, 11589, -2789,13565, -426, -3350, -10597,-1000, -7186, 2827, 8240,10624, 6656, 8761, -1447,-358, 12344, 8485, -9918,4927, 9268, 10468, -13300,1917, 4924, -12292, -8898,10748, 191, 8176, 3135,5454, 7298, 6840, 7170,-3336, 4253, 12366, -10297,-6485, 1471, 8366, 12383,8282, 1696, 2327, -10318,-7531, -5634, 2152, -8851},
{12342, 4135, 176, 10157,-11892, -3557, -13673, -6394,5803, 2927, -9606, 7512,4670, -5272, -3754, 9223,-3129, -12378, 4571, 8624,-6308, 9701, -12826, 426,1052, 8915, -9405, 8916,11512, -12652, -3699, 5109,5768, 5773, 9018, -5007,-13267, 14627, 8209, 4817,-7602, -7978, -1423, 10491,4745, -9874, -12782, 1865,-2906, 12486, 8779, 4676,7667, 3468, 7555, 7543,10071, -10712, 1964, -975,-6799, -5, -11679, -12341,12946, -1122, 8699, -5505,3335, 10480, 11620, 1616,-14019, -7995, -1547, -1130,-897, 1953, -10280, 4818,-10413, 4369, -480, 9111,-9890, 5192, 7400, -4011,6674, -14462, 2193, 3159,2605, -4251, -11042, 5947,5453, -6791, -13260, 11682,-12360, -9803, -12672, -10291,11917, 4055, -11964, 11776,-9997, -11832, -7975, 7717,-11879, 627, -8259, -9177,3925, -6164, 8295, 799,-7157, 2064, 13858, 5381,4951, 9352, 7384, 2424,-6014, -6581, 5409, -1689,-10732, 4711, -11158, 11507,-8307, -7529, -9708, 140,-7814, 13926, -6709, -198,-9348, 3240, 2897, -10149,-6374, 10875, 2094, 7375,-10209, -3761, 5504, 7226,-10143, -8490, 5574, 8827,10938, 9619, 8374, -6339,-2735, -13948, 8446, -11037,-7012, 12919, -6067, 7980,2957, 2271, -14210, 7323,12953, 10037, -13514, -11670,2757, 13662, 5800, -14295,-8218, 11056, 12240, -5789,-10570, 2720, 6263, -5836,-9582, -5866, 8383, 8489,3428, 7406, 3579, 1434,-6109, -1879, 7211, 13278,2328, -2902, 3102, -7924,-10585, 8902, 1888, -10386,-12718, 7791, -10925, 2175,-12331, -7200, 8825, -3513,-6052, 8377, 3790, -7724,-7075, 1096, 4782, 12641,5944, 4856, 780, -8969,3656, 3236, 10793, -13032,11314, -11966, -9861, 4623,-12235, 8153, -2873, 9750,11870, 3014, -12299, 1362,-10875, 13919, 12957, 3321,6, 11728, 8145, 6223,3677, -1205, -3748, -12630,-3370, 8958, -11714, -566,-7469, 524, 9653, 12958,-8833, 11811, 12160, -3790,-11368, 3381, 7512, 10501,-7739, -6610, 309, 3524,6727, 3137, 3599, 12826,13098, -9127, -8670, 6875,-6720, -24110, -6998, 13078,-21370, 11381, 9551, 17631,-15340, -9349, 335, -6736,-18021, -2301, 13176, -1929,16965, 9215, -1256, -12026,-5462, 26372, 21899, 12956,2170, -12818, 10738, 8393,-17395, 9435, 21620, 12174,8151, -11143, 15911, 10605,-3438, -12724, 17215, -20643,17462, -15017, 4812, -12655,23020, -17074, -20443, -5966,10976, 15744, 13067, 11739,14599, -342, -20114, 16298,-2669, -842, -7419, 7371,-12831, 1110, -8255, -9460,-9205, 23103, 21299, -4969,-1443, -13863, -13902, -10970,-17731, -16873, 19712, -8385,14039, -955, -8105, -905,8091, 17649, 3788, -18942,7686, 15044, -1205, -17971,12397, 15700, 12648, 10935,1119, 22260, -1529, -11776,-21467, -13196, -14800, -5717,17911, -13892, 20267, 5606,-15297, -18519, 20143, 14211,-19540, 18706, -14212, 12377,6438, -7571, 17668, -9908,-3780, 4909, -1143, -19304,2766, 6749, -15597, -19434,18602, -8831, -22258, -9203,287, 18472, 6103, -23943,-1471, 12624, 15464, 22322,13548, 5215, 9042, -12824,-5799, -2462, -16758, -14238,-12845, 4805, 17330, 18524,671, -23059, 12698, -22488,22499, 13344, 2689, 4231,1044, 1956, 7627, 10385,-14836, -11885, -15108, 17714,-12982, 5971, 21762, -22293,10157, 20237, -20874, 7423,18645, -11490, 15991, 16219,10168, 14138, 19329, 9086,-7959, 21710, 9129, -4872,-4215, -14100, 11168, -13370,-8511, -4782, -10357, -3797,-17925, -12180, -19823, 15533,-6463, 22003, -4972, 13558,11848, -16901, -9296, 9846,-17303, -5527, 9086, 8914,16067, -22100, -13809, -12446,12687, 25288, 7549, 22325,19938, 22396, 9617, 2118,-15374, 17126, 23625, -19106,19759, 23288, -2300, -3850,-6353, 6643, 16684, 8027,23796, 8296, 8877, 11421,22852, 11417, 16167, -23282,-4244, -14130, 24087, -3240,-7099, 16114, -17622, -23495,-10730, 11092, 3419, 23576,-1663, 10018, -7929, -7455,-6728, -19360, 17152, -2435,-24405, -936, 17380, -17598,22627, -8786, -12465, -9497,8184, 4958, -22302, 11723,-9553, -1790, -23378, -2921,-10681, 8190, -21773, -8989,10582, 1922, -13362, 4846,-12038, 19577, 22341, -6956,4137, -6605, -5536, 9934,26658, -10175, 18405, -2085,-17417, -8278, 23738, 13337,-20913, -95, 8016, 15096,4951, 4996, -690, -17033,28472, 19951, 12204, 13553,-6804, -16027, -24674, 2044,11338, 5291, -14528, -25833,-24980, -2772, 24707, -9057,-18343, -3553, 6796, 5124,10310, -8460, -21648, -3739,19236, -5219, 25638, -3714,-21752, -9350, 13696, 5402,-19591, -24487, -10750, -23426,12265, -2201, 21698, -10249,13188, 16848, -20598, -15490,-17365, 23452, -22096, 1725,20431, -14694, -1056, -15999,-153, -4282, 29611, -24115,8363, -19382, 3987, 1698,-27046, 25265, -1070, -2178,-18485, -23110, -26107, -5329,-6714, 29349, -19559, 10326,-8794, -6602, -7723, -3003,-12593, 395, 21881, -3220,-20941, -27272, -19766, -25042,7302, 22840, -22366, 14783,10687, 27911, 6043, -15892,20563, -13235, -8948, 2813,19476, 9561, 25447, -28071,19439, 27938, 23458, -6505,9648, 980, -4034, -18006,-433, 8951, -25531, -2561,20382, 8841, -1828, 574,11726, 7824, 5289, 10391,7864, 18856, 18060, -10888,12084, -22861, -8149, 21692,18973, 4863, 19177, 3434,24083, -21107, 29141, 16133,5924, -23529, 28513, -5623,11638, -9621, 24230, 10466,-28343, 20219, -17060, -15723,-2656, -19643, -7030, -19552,8526, 480, 17812, 15151,-8492, 17833, -21134, -500,-21608, 12117, 22998, -25003,-14944, -23345, 5597, -21502,28506, -24466, -11606, 20819,-2238, 15372, 18725, 22946,-17270, 2233, -23936, 21177,-7109, 3762, -1168, -26751,2972, -18670, -11953, -10439,-22740, -3282, 1735, 3576,12234, 12384, 4255, -9311,2225, -13330, -22359, -20125,27900, -26576, 20740, -10907,-27362, -10014, -4552, 23865,-24389, 1295, -201, -28561,-25353, 2983, 22966, -24348,5029, 4507, -15278, -25384,-8277, -18590, -26141, -7047,-13784, -17956, -25080, -379,-5601, -25151, 14221, 28152,20708, 5217, -22214, 8409,-20055, -2521, -11150, 18344,-108, -481, 6351, 500,11923, -15981, -10216, -9635,10273, 27204, -11654, -22798,15832, -26414, -10989, 15433,1028, 8856, 28044, 23316,-23089, 19061, 688, 8541,9857, 23552, 3607, 6987,-961, -2562, 4552, -9191,10470, -12745, 6597, -6497,12832, 4306, -8436, -3791,15164, 11816, -12694, -7030,-3280, 2887, -6225, 2603,1177, 16056, -16587, -12878,8726, -13884, 3447, -1414,3546, -11829, 9461, 15543,11004, 6186, 2414, -7297,-10643, -1759, -2523, 2381,-2109, 5245, 16627, -5504,7198, -15608, 1224, -15852,-2866, -14699, 9885, -11837,1101, 7078, -5757, 3102,-16001, 6637, 14665, -5298,-6778, 2481, -9914, 16498,-2291, 14679, -13543, -14716,-9477, -1225, 12481, -12696,6779, -11514, 4862, -5375,2425, 7241, 13458, -2028,5320, 4878, -12341, 2068,-162, 13496, -3987, -8081,14049, -14139, 8609, 7872,9860, -13429, 7459, -7495,-4302, -4028, 357, -13681,13368, -7044, -4135, -8296,-7264, -15513, 10778, -7206,-5955, 12565, -13065, 13315,13666, -12876, 14154, -12831,-10066, 11514, -2148, -11949,4471, -6247, 5673, -9713,-11639, 12514, 10086, 15455,3298, 12399, 7509, 5277,-14960, 2398, 355, -4926,-23, 16011, 3634, -15561,-9349, 7119, 6830, 9168,10172, -3383, -916, -5279,-16507, 7181, 524, -16310,-16021, 10002, 2456, -16296,-13145, 15330, -3408, -3452,-10415, 7623, 6784, 2317,6658, -5494, 9620, -4679,1357, -16948, -2700, -13654,3674, -2764, 13010, 14355,13615, -7423, 2230, -12483,-6217, 2735, 3658, 2097,3891, 12872, -16147, 15721,6654, -13828, -11420, 13120,-9021, -13423, 10732, 803,12414, -14827, -14072, -7948,-2784, 4525, 7010, -16166,1252, 4384, 14376, 2054,-11243, -13846, -13806, 8652,16251, 13684, -8930, 2770,-15227, -3612, 12811, 12065,11992, -12788, 15302, 5808,5537, 4695, -9102, 2166,-9731, 6070, -9877, 11378,-10486, -9879, 14854, 16832,14425, -7453, 3596, -2066,-4697, -8016, 3722, 4065,-8232, 10950, 10852, 9472,-12781, -1098, 8518, 7632,-13998, -16340, 5777, -1389,4434, 1276, -16018, 5046,-3646, -11351, 11778, 5125,10087, -11076, 6788, 7129,-9600, -13290, -15188, 13625,-3997, 3236, 6538, 3169,4006, 5223, 4897, 10085,-16175, 2030, -11468, -14048,830, -13681, -13237, -8583,-5435, 7020, -991, 3000,11239, -9489, 2245, -8107,-10838, -15674, -11206, 8549,1816, 4391, 5977, -4116,7269, 586, -2485, -7685,7333, -554, 15795, 15836,-10657, 13490, 13194, -8217,17038, -2083, -8478, 2174,-4580, 4208, -8729, 174,15690, 17230, 10076, -14750,-1877, 9900, -2499, -9282,8257, 6396, 5339, 3616,13976, -9608, -4226, 2471,-12328, -2520, -6516, 8508,11171, -885, 4998, 12252,-13171, 473, 13064, 8644,-2234, 8193, 3284, 8931,-12625, 5601, -14244, 6708,18607, -4663, -7665, -13374,-4478, -13063, 12450, -12747,-15170, -18265, 11373, -698,-11108, -11603, 11505, -7409,-8616, 8266, -15597, 10438,17253, 5682, 12986, -8843,-14795, 15372, -16565, -7479,15804, 1471, 4921, 12442,-959, 3630, -10995, -15460,-2893, -15453, -837, 12349,-10963, 10239, 13392, 14233,2190, 9462, 8414, -15666,-16244, -766, -10440, 7866,-8826, 14750, -8410, -4267,-1251, -1872, 11849, -3511,3556, 10595, -13576, -8172,-15514, -14476, -16549, -1866,10386, 2202, 11852, -8818,-5425, -7641, 9586, -1858,-3420, -2452, -2654, 4328,13041, -7635, -6081, -15509,-5724, 8821, 12987, 4037,-2380, -4314, -15373, 14934,2339, -13758, 11668, 1032,17568, 17832, 18152, 11231,14412, 4497, -2405, 12732,1063, 6325, -1804, 1866,13977, -792, 14104, -5659,-7055, 5150, -14766, 11033,16467, -8610, -6542, 6000,-227, 3602, -9141, 12396,-12282, 5558, -12210, 8631,17865, -26, -13537, 8694,-12382, -15730, -4481, 17739,-15808, 15244, -7342, -433,-6349, -15859, -2773, 4827,6248, 17750, 198, -5750,-13426, -6088, -2132, -13729,-4116, 4402, 87, -9740,5447, 12277, 10170, -10247,17902, 3749, -5725, 12159,7152, -12668, -7346, -10564,-3670, 4887, 14033, 5223,11608, -4670, -8988, 879,2346, 14475, 4184, 10362,7221, 17854, 7846, -13081,8924, 13412, -2253, -2143,11807, -1458, 9819, 16834,11056, -115, 6227, 8059,-5548, 15705, 15426, -176,3735, 9542, 1191, 3427,-7820, 9977, 14494, -5241,155, -4382, -5258, -6874,-6227, -2789, 14623, 2376,-12386, 17719, -17151, 25721,14229, -25926, 18499, 14091,-1401, -9980, -7342, 6035,12838, -7882, -4235, 23909,-1843, 6279, 6603, 23135,6766, -21118, -11332, 14668,4641, 18559, -23733, 15261,-9239, -12457, 16404, -7618,-26499, -10310, 11075, 17350,13136, 16680, -10353, 18128,18602, -5508, -6849, -8322,-24966, 10877, -25274, 7617,10201, 12268, 25600, -16709,-14928, -23203, 26591, -22122,10925, -16846, 13930, 14574,-10352, 5848, -10137, 9926,-8558, -16831, 11498, -11669,-24388, 22293, -7344, -9342,-11314, -13723, 10638, 21213,12074, -14449, -9164, 26307,7739, -4491, -22425, -22394,22622, -16759, -24756, -4485,20375, 18809, -2899, -9595,-14046, -25867, -5158, 22763,-3667, 2602, 22675, 14541,19924, 19685, -6012, 20860,14492, 18561, -23525, -14281,-8936, -5131, 25591, -1979,-18995, -16438, -14380, -797,14571, -15800, -7513, 1618,-7024, -22749, -8324, -9224,-15729, -5966, -6482, 20113,-16241, 14477, 2331, 14487,13265, 10878, 13482, 22867,25777, 23923, -26164, -4916,-19563, 10499, 14436, 26617,22614, -20106, 5204, -12373,-10847, -13641, -10051, 16344,23779, 4617, 8116, 12132,-23067, -25071, -17324, -25192,-3344, 17027, 17987, 17634,24011, 8534, 13765, 23865,-11009, -7425, -11431, 347,2162, 19725, -20654, 25255,3636, -2083, 14728, 27409,-1432, -13028, 17181, -11501,10388, -19578, -19087, 26011,2594, 23533, 10984, -15961,4078, -8625, 13037, 10174,-18553, -24298, -13407, -19976,-7759, -11562, -22449, -6265,-4133, 4550, 25826, 19474,-16023, -868, -4188, -7452,-24478, 19458, 12763, -10313,1063, -11481, -2656, -15880,19557, 14902, 10641, 17905,-28708, 20292, 3257, -11934,-18652, -2786, -7858, 295,-25916, 13902, -24677, -19631,3826, -26362, -17832, -9373,6247, -10278, 18801, 1452,23089, -9741, 8554, -5199,20127, 4383, -2759, 12680,-9596, 14870, -16898, -4856,-19989, -3272, -1442, -9128,-16291, 2016, -26723, 19842,-17010, -10553, -17144, 16230,-25990, 16149, 9702, -12146,10348, -9053, -2011, 16822,-18617, 11029, 16891, -7423,4660, -2182, 408, -3258,-3270, 6899, -12391, 8721,-7237, 18592, 382, -21413,28342, 10401, -31834, -3572,-8025, -27629, 30371, 29174,10203, -22883, -8138, 15564,11497, 21192, 11401, -28152,-9660, -3870, 8090, 7487,29626, -29759, -24253, 26637,-9298, 19815, 16837, -16010,-6082, 22400, -29634, -4423,-24137, 25816, -29798, -744,-31779, -11855, -23200, -21687,15874, -2453, 4227, 7932,-20784, -3586, -30287, 11191,-13280, 10808, -17911, -3618,-25531, 6588, -2281, -20274,30717, 16399, 13465, 18022,7218, 21931, 13344, -24970,-10241, 25494, 15636, 11267,14650, 12629, -27308, -27101,31513, 4850, -28678, -29616,-6854, -3488, 7176, -1827,13353, 20183, -25492, -6349,-7562, -27957, -2008, 22597,5025, -6030, -5833, 1850,28017, -14746, 15639, -8439,-18751, 23075, 9918, 21116,27131, -20755, 2933, 18371,9301, 13671, 17272, 5962,18626, -29833, -17941, -20004,20781, 20746, -6014, -15090,-23835, -22433, 26994, 803,-8992, 11747, -7149, 25451,21965, 2893, 16355, -21961,-16309, 31298, 18808, 26077,-3383, 619, 21786, 10650,8055, -9222, -11536, -17309,17363, 11527, 28441, 10671,-2262, 10459, -18219, -24056,-20472, -28639, -19863, -18918,4717, -30164, 12780, -6034,-10493, 23315, -7923, 14622,-25593, 12782, 5311, 13148,-18797, 21094, -4691, 7886,-8207, 12413, -8606, 15290,-16198, -6929, 2986, -24488,13223, -22646, -2869, -13569,-24177, 17075, -22770, -5651,19431, -5741, 22127, -26983,9179, -28606, -20719, -7708,21700, 19603, -7214, -7387,-22729, 27592, 20774, 21065,26608, -18656, -3998, -12412,-22643, 3930, -3459, -22709,-21374, 31365, -16722, -24206,-11816, -8358, -6934, 20997,-3246, -13486, 267, 19547,-6471, -21843, -22420, -7089,9796, -27556, -12587, 20876,23654, 26669, 26298, -12600,-29208, 5055, 3690, 631,4936, 15113, -1589, 2598,-21071, 11926, -27833, -12915,-14302, 3078, 27967, 6847,-10426, 10876, -11504, -27128,19445, -20214, 16793, 8997,14506, 18099, -21464, 8823,5375, -9800, 22297, 32767,4027, 26540, -28923, -3050,29943, 7884, 16428, -2131,-10272, -8946, 29499, 393,10006, -23315, 25197, 484,4121, -24966, 12604, -9546,-14785, 4261, 13023, -12824,-743, 1626, 10097, -11407,11503, 6681, -8448, -15027,10285, 13085, 4719, -3624,-9356, 11739, -3369, 10272,13007, 6808, -5991, -8080,-11430, 6023, 895, -12020,5372, 14278, -7348, 10661,-8140, 385, 5445, 9063,-10577, -14711, -13013, -10437,14278, -6559, 3998, 1087,-13846, 4602, 3197, -1020,4927, -8753, -2382, 9602,-7348, 332, 4897, -10719,3086, -767, 3586, 1198,7994, -3887, -10989, -3902,-857, 992, 156, 5350,13259, -3202, -3319, 13017,824, 4729, -5881, -13529,-9714, -12745, -3277, 1640,6001, -4045, 7120, 12701,-5773, 6285, 4866, -8648,358, -5322, 6704, 5356,1004, 11508, -3301, -1050,-10459, 1293, -1242, 1895,-894, 10834, -14419, 6732,-10301, 9767, -2126, 8200,4655, 12368, 7081, 82,-8167, 13652, -12483, 1440,7480, 13382, 6444, -12906,-14408, 7539, -1124, -692,6639, -7280, -2818, 3852,-12683, 10914, -4095, 11874,-3684, 10731, 6334, 11378,3108, -4282, -5889, -14973,-4434, 1457, -9269, 740,2888, 10129, -11954, 361,9825, 3486, 7922, -6760,9294, 7388, 10002, 6418,-13598, 6165, 6849, 12829,4617, 2813, 9223, -5485,-7958, -691, 5008, 8752,1475, -9956, 6895, -5936,-1576, 7806, -9645, 12857,-9180, -11577, -12792, 2347,-1145, 10802, 14138, -5432,4920, 2711, -15209, -1192,-11086, -6262, -4264, -4074,9192, -9716, -14263, 4702,10382, 4842, -4269, -5382,-13570, -13312, -7271, -1102,-14152, -12430, -11698, 11849,4452, 15548, 10456, -9775,-900, 11169, -10380, -3901,2582, 5402, -12663, 6053,11604, 401, 11900, -6333,-4018, -14971, -11933, 9197,1169, -6730, -12518, 4069,-11053, -15039, -4776, -6547,-10569, -12370, -9361, 6797,-9797, -10999, 2493, -11554,13696, 1365, 15243, -6829,943, 9276, -8133, 6150,-908, 10751, -5961, -4686,625, 3444, 6980, -800,12960, -5166, -6565, -4422,7191, -8280, -12414, 2677,-15110, 7184, 8251, -8383,-3018, 15338, 1890, 2311,-9233, 3592, 1218, 11506,-13858, -4921, 6407, 10387,7402, 7007, -12777, 11762},
