#ifndef DNN_PARAMS_0_HPP_
#define DNN_PARAMS_0_HPP_

#include "dnn_config.hpp"

static ap_int<CONV_LAYER_0_WEIGHT_BITS> conv_layer_0_weights[CONV_LAYER_0_PE][CONV_LAYER_0_WTILES][CONV_LAYER_0_SIMD] = {
{14983, 15398,21891, 19834,6251, -12546,-8017, -10617,-9010, 14254,-15801, -8060,12916, -11797,-5900, 1261,-689, -7970,9951, -1080,-3812, 8968,12666, 20401,26145, 10239,16820, -5498,-11721, -3926,14439, 16578,11525, 13105,-15783, -24017,-7639, 23256,-13687, 2132,17403, 1818,-13241, 2105,-6645, -10951,19837, 11174,1549, 9606,-16556, -1857,-4911, -20062,584, 18087,-2702, -10394,7711, -4975,-10397, -16253,-3220, 19924,-13540, -13409,-9843, 11564,-6261, 103,-23152, 12794,7508, 16503,14834, 10501,-1602, 8777,1966, -13486,-11265, 12118,12183, -15442,16880, 4187,6597, -1351,3253, 14142,-18286, 11529,9469, -13747,-4447, -16769,20124, -741,-1577, 3033,-2608, -7854,8700, -9483,-16912, 4606,17720, -7977,-18556, 12439,-10919, 4054,4693, -9468,-551, -7282,13065, -13538,3154, -23890,4779, 11583,-16142, 16539,-14725, 872,6426, -1384,-13436, -7568,16534, 23610,-655, 509,8645, -14092,16183, -8439,-9188, -427,22392, 17742,-10611, -17636,-18258, 12576,2433, 18556,25979, -6272,-9399, 8438,-834, -5793,1739, -18648,12203, -15683,3560, 4368,14530, 2681,-233, -3821,2851, 1637,2510, -2266,3327, 2154,2919, 2267,-178, -5831,-803, -3499,4284, 3641,60, 3228,-239, -388,5255, -1887,-2455, 868,-1865, 4669,613, 4392,2394, 3336,-798, -1980,4419, 3840,-3199, -2806,-4601, 1508,-3567, -1233,2575, 4829,398, -3367,-614, -3158,-3237, 1151,-3650, -2394,-325, 5188,471, 44,1060, -5062,-4307, -3868,489, 4759,-4108, -818,-1897, 1999,-4665, 2350,3278, 235,511, -3169,-746, -1406,4628, -1056,1075, 249,-4166, 3763,-776, 390,3676, 3915,4363, -87,-2824, 3748,35, 2290,-2407, 3213,3844, -2502,4964, 4417,-78, -2348,1503, 3465,4348, -2672,1196, 895,4749, 370,1647, -1902,-692, -308,-4401, -3935,-1429, -2658,666, -600,-1482, 2056,-1415, 1137,885, 744,-2211, -4214,-1664, 2418,4198, 2833,-2261, -3151,-1354, -4442,2654, -1841,5543, 3340,-3780, 2023,1687, -5830,3253, -872,2948, 569,-2242, -106,-1726, -3359,2160, 4029,1491, 404,-1054, 4672,3312, 1957,-4845, 4132,3204, 2105,4013, 5401,2936, 2},
{-6793, 13194,-816, -3055,-14552, 21517,17954, -1934,-739, -10585,-10426, 1313,-10258, 17988,12211, -8639,-3480, -7390,11421, 13846,18313, 10890,3335, -14155,-4723, -18848,12583, 6335,9299, -7488,2528, -12691,10887, -16226,-12993, 17247,7202, 5117,-125, 3872,3717, 17671,21999, -19858,-14112, 11334,-13582, -17378,16412, 19997,2429, 12860,573, 17996,-10806, 9347,-21025, -740,5203, 13155,-15088, 10435,-2100, 17386,16239, 17457,-3113, 14486,-13563, 1820,16300, 3531,-15772, -21604,3583, -2957,21600, 7371,-236, -15489,-10929, -20461,6132, -16212,17374, 23210,-12674, 6877,-4707, -15077,-13416, 1766,-4835, -7485,-9127, 10534,12361, -13777,6156, -10538,7094, -17147,-1301, 61,11503, 4029,7867, -17436,17353, -14771,3998, -14438,17723, -4910,5238, 16031,9130, 15047,-5274, 10183,8093, 7062,6358, 18992,3326, 15572,15039, 16323,3737, -366,1445, -7410,5595, 9984,4753, -14511,-14435, -17520,20936, -4941,-11549, 18548,20459, -6536,13377, 1097,6594, -18597,19057, -9409,-10503, 2277,-13080, 14945,4009, -13929,23658, 3264,-10806, -11506,6491, 14755,649, 2057,-1530, -2826,-1381, 2437,-2880, -892,-650, -1005,-2914, 518,402, -2020,688, 1213,-730, -1744,-1756, 557,1790, -489,-3044, 1130,2043, -567,1409, 451,1070, 878,2235, -1399,-2175, -2263,-2551, -2090,1510, -2014,-1323, -104,759, -2296,1735, 1392,-1883, 100,-2773, 2307,5, 338,-1410, -1679,-1190, -2061,463, -2742,-2509, -2736,-2333, -484,-1929, 1495,-2648, -1033,2010, -856,-40, 2169,663, -2486,-1397, 625,1971, -986,2191, -1910,-1163, 191,-2231, -2473,2526, -1391,-2283, 3025,1969, -2004,1245, 2345,11, 2513,-64, 551,-2846, 1296,1152, 1792,-646, -770,-2453, 332,-1146, -1356,435, 1750,2651, 1604,713, 1604,1511, -966,-952, -430,-195, -1906,2279, -451,-1365, -1378,721, -1619,781, -47,-844, 1257,-1362, 1916,1848, 1994,1948, -2615,-393, -1359,2542, -2631,1406, 1419,-2727, 1466,1041, 2427,1631, 759,-393, -1481,-109, -1187,2002, -2620,-2458, 478,-2175, 1539,941, 2040,-1295, -2490,-349, 1344,601, 1252,-2817, -79},
{2462, 3120,4486, -11193,13969, -6982,-9568, 3372,9119, 7850,-12126, -161,11308, 1945,14762, -4420,5133, 12826,4252, -929,7060, 4500,9854, -1724,-9171, 360,-2714, 6324,3709, -3544,-3870, 520,-1721, -167,-11334, -3322,17, -397,-10777, -6304,-10612, -9235,-8155, -10629,228, -5517,4461, 10454,2934, -2716,15308, -2124,-7371, 8145,6597, 8075,12279, -6805,6608, 7039,2490, 10748,4833, -13572,11616, 8594,1994, -7754,-10068, -6430,357, -2065,9856, 5065,88, -12024,-5764, 13184,3527, -8939,-13246, 1680,2539, 11497,16046, 13382,13242, 12280,13036, 13462,-8089, -10449,9909, 13100,8294, -4331,13950, -2323,4414, 11051,-9366, 351,7310, 13191,6231, -12118,-10738, -9146,6226, 9618,2377, 3185,2201, -9250,-4835, -7811,-4319, 11719,-7470, -8988,3263, -4330,5350, -8941,-6524, -10301,-3580, -11923,10265, 1932,-5414, 8959,15084, 1497,1590, 7127,-13515, -7893,1261, 11470,12546, -6875,-6694, -8893,8607, 9783,-13297, 3957,-9085, -5974,14519, -6363,2695, 1863,1139, 10807,1331, -293,11399, 7678,8621, 10386,-744, -4701,2444, -3192,2791, 634,3130, -575,1635, -2378,4683, 2604,735, 3683,-4766, 29,679, -1208,-3801, -4353,2562, -1377,-2816, -2039,3263, -2813,326, -2798,2705, 3782,3047, -2303,1065, -1386,144, 4424,-122, 1617,4241, -426,1753, 2744,593, 1962,-4949, 2734,-359, 956,-772, -274,-2482, 1241,405, 1792,491, 3399,-2612, -4883,1770, -1438,-4282, 2900,-199, -945,-3716, -3113,-216, -2673,-5084, -5513,-3550, 1050,1735, -2480,-1069, -3893,-4945, 2283,-1927, 206,2084, -3101,-2787, -3173,3841, 3481,-4041, -5659,-3917, 5249,653, -1136,-4171, 421,-1766, -5554,-5369, -4997,-1825, 2949,2512, -2692,3580, 3232,-2216, -2153,-2161, -712,-2694, -1392,469, -5000,248, 1246,-5397, -17,-4650, -1364,-143, 4964,-1874, 2717,-668, -3128,-492, 2226,-4448, 1320,206, -5294,-216, -1080,-4458, 694,3820, 1862,3309, 5411,2959, 3170,2666, 530,537, -422,1139, -666,-149, -5105,-4162, 3584,-2537, -5439,-378, 4630,1648, 1608,4203, -4812,-2775, 3399,3346, -245},
{3305, -2650,431, -2635,-1343, -2028,-3279, -3602,3804, 1905,-576, -247,1872, -3936,-182, 1927,1447, 83,165, -2039,96, 244,-2431, -843,-1247, -263,1800, 2985,3334, -3504,2609, -942,907, 430,101, 1048,-380, -467,2728, 1603,883, 2747,3713, 648,-1182, 3303,-2318, -1505,-4414, 1575,2050, -610,-928, 1047,-4064, -1504,3312, -2274,-589, -3617,-2436, -1581,4150, 1176,3281, -3610,-3324, -3068,1427, 2675,832, 576,-3058, 1713,-2808, -3250,-2035, -3637,-3593, -2617,-1521, 1896,-1437, -1789,-4617, 1194,-1199, -4607,-2084, -3569,-805, -2998,-2670, 965,-4394, 885,601, -1354,-2094, 2056,-892, 2937,-2935, -3715,-2721, 2988,-2235, 2326,-4242, -1559,-1528, -1142,650, -2139,-2308, 2165,2635, -3247,-1851, 1061,986, -752,-2903, 385,3388, -981,-2314, 1731,-1671, -876,3034, 3733,-1188, -212,348, 3637,-2038, -1304,3040, -2783,2562, -2838,-1206, 3320,1665, 2012,-20, -3998,-1379, 258,2947, 3372,-2912, -3113,1543, -3210,1347, -4763,-1443, -3052,401, -3661,-924, 848,159, 682,-656, -740,505, -645,111, 628,-252, 886,-650, -486,-521, -559,-276, -669,-354, 702,-388, -1066,-924, 458,-991, -1004,349, -250,-907, -614,884, -121,483, -1079,-1051, 1494,-441, -1404,137, 249,328, 916,143, 1032,237, 876,-88, 159,786, -416,-372, 752,1117, 927,111, 834,1032, 433,272, -1077,36, 303,-362, -209,-1236, -737,-1028, -537,1118, 571,-926, -271,-978, -49,-700, -598,979, 358,157, -422,765, -288,-725, 191,1073, -944,578, -1422,231, 895,-660, 478,427, 874,1076, -595,-488, -812,565, -1167,-1012, 505,-388, -236,-978, 949,-809, -213,-1307, 864,-351, 62,-576, -219,-827, -559,-37, -380,-1064, -217,-1055, -821,173, 1175,-987, 887,583, -1036,-546, 730,874, -278,-120, -1457,-1041, -1319,-841, -609,-1043, 855,1223, 657,-1098, -185,1109, 129,-853, -557,360, 527,-816, 580,-165, -469,-1108, 855,-728, 784,-529, 148,-1039, -381},
{-3982, 1224,1972, -1687,-1954, -3687,-241, 3007,-4640, 2244,298, -1745,-4899, 536,4015, -209,-5406, 1645,-1143, 2415,-395, -1372,1204, -3813,2287, -2615,-3709, 4340,-3504, 3708,1966, 1944,4958, 3165,-4173, 4625,-478, 5143,3813, -2189,2347, -758,-3526, 4166,1895, 2155,-1701, -1880,4076, 704,3374, -2475,-4794, 4163,1370, -4088,-4372, -890,-5120, -4691,-154, 531,1095, -1029,-4638, -1808,108, 1494,-3868, -1519,-1246, 524,4539, 3563,614, -3106,-206, -5124,-536, 2416,-3258, 3390,-3890, 631,-528, 1449,4833, 1844,-4615, -176,-3184, 945,-4, 232,3757, -1422,1694, -4279,719, -1689,-1163, 2668,3282, -1092,-4271, -1891,1440, -875,2149, -5361,-2244, -2571,-4760, -4810,-5436, -5162,-3387, -3992,56, -3285,-1435, 5130,5435, 2018,2812, -297,-5679, 3016,-4670, -5708,-3987, 7,-3099, 2163,374, 1441,-1507, 5875,-4041, 572,4302, 4336,2332, 857,2759, 2956,938, -3016,4288, 994,-1514, 991,3620, -2597,2105, 626,4656, -4833,2522, 3376,-2008, 531,3421, -2118,2299, -4294,-4477, 4049,-890, 1354,3989, -3723,-4334, -330,4979, 5288,3577, -128,2378, -2151,-5458, -2692,-5065, 1852,-1214, -4614,1370, 3039,3214, 2987,3161, -1850,0, 1857,-3701, -4410,2668, 3118,3273, 1818,-4759, 1552,-4209, -4018,3487, 764,-1987, -1689,537, 916,-2657, -1892,-380, 1916,3949, -3400,-1498, -2565,-1053, -4865,2536, -3672,1832, -1626,4044, -2145,344, 1339,-930, 63,-1709, -1425,-3654, -1788,699, -4378,2457, -5128,-5039, 1309,-2200, 2247,1921, 2475,-1514, -3056,1230, -3285,4784, -4141,1118, 2484,-2576, 1555,-430, 3482,633, -183,-3317, 275,2228, -2236,-3199, 3473,-2591, 2903,-1643, -4892,-569, -3700,215, -1419,254, -4745,-4141, -2688,-5183, 275,2263, -4226,2561, 2775,-2774, -628,-3468, 160,4368, -3268,1310, -3192,-3698, 1764,1724, -2836,-4677, -3356,-462, 1862,-2316, 5129,138, 2422,3018, 907,-982, -739,1733, 1540,-3224, -2438,-1036, -2046,-396, -3393,-2761, 1968,-114, 88,2623, 2218,-670, 2514,3330, 4102},
{5080, 4777,6928, 2547,4866, 6029,5017, -1769,3715, -5909,2777, 372,1333, 2674,4453, 5179,-3268, -2953,-6303, -2244,-4417, -1059,6433, 6741,573, 2669,-5209, 5181,-6432, -6878,-6366, -1129,-2271, 6029,-1637, 2079,2202, -2751,-8034, -3202,-5031, 8114,3865, 1933,-829, -522,-4397, 6182,948, 3515,-8014, -5698,-211, -7182,-6505, 3833,6132, 6753,-8703, -5726,-4439, -4090,4487, 2937,8068, -4107,-4876, 8479,4598, -3889,-7317, -2891,4523, -234,436, 5403,3852, -5810,6394, 2064,4345, -4234,1338, -6970,-8902, 3487,-3048, -1014,-1226, 1458,5359, -6066,3536, 1513,6414, -6034,5827, -9290,-1634, -356,-5561, 436,3693, -4866,1468, -6519,-4479, 7639,3419, -1842,-4588, 3150,3124, -3759,-2974, 1115,-8608, 1108,-906, 1961,-6309, -3572,-5000, 6915,-6881, 8057,639, -6204,-1338, -6467,-6511, -5619,-2495, -7859,-3041, 5922,-3869, -4468,-7191, 3233,-7963, 837,-5533, 739,-7201, 3160,-4513, -6197,7138, 331,312, 2190,1826, 665,-4944, 2544,-2848, 5115,-3163, 106,-7779, -759,-4367, 7252,7716, -12402,4176, -3085,-168, 12571,-8386, -8610,7860, 17158,11035, -2102,2511, 10368,-5288, 14576,347, 2008,-7857, -749,-2384, -12045,9358, -7079,3062, -11206,-13728, 6778,-5741, -1140,-2026, -16643,13171, 12014,-11287, -14630,-5401, -13779,-5336, -17307,-9104, -6108,-15836, 12573,-3369, -1718,9761, -2993,-5879, 8109,4367, 12821,-4611, 4227,-10308, 1483,-8664, -16640,7565, -12700,-1304, 7171,12510, -2049,948, 1503,-7140, 7044,-10379, 17940,-11598, 12981,-9909, 1740,2075, -14509,10658, 141,9773, 611,-15558, 7418,-3710, -1793,-4959, 2744,-1367, 8296,9926, -5741,-1238, 12687,5716, -11581,-12505, 5672,10923, 5137,11670, -1411,-12479, 6104,-5470, -12898,6876, 13599,5927, -11962,-3720, -13788,-12797, 6462,9660, -9808,269, -10609,13871, 9800,-7810, 11746,-1068, -13187,13165, 6171,-12896, 7390,136, -3148,10833, -16603,11598, 2199,-13285, -4466,726, 165,10043, 11584,422, -12261,6223, -6787,-5079, 10904,9407, 4395,3591, -14787,-11774, -11913,-1408, -1684,3757, 13104,3606, 10031,-1402, 3511,9683, 8064},
{24896, -14071,9509, 19326,14894, -8058,21835, 25799,24108, -11853,8040, 31018,18536, -11870,3861, -4723,28547, 17229,-24059, 5576,-20578, -6485,-24571, 3770,-15796, 2454,-10338, 19105,-23741, 32767,-6155, -19638,20989, -18519,4699, -13225,645, 1483,16313, 14997,3696, 17065,-23612, -5313,-16815, -17767,11685, 6442,2062, -9532,-9518, -17267,2973, 19991,8321, -9328,3428, 24961,-20502, 2780,-13454, 21911,-5562, -25809,7799, -1796,-7681, -21775,-25085, -23968,-15509, -9472,9678, 10063,-17544, -27098,2699, -29394,2909, 3307,-26142, -8554,14207, 16551,10420, -21504,24339, 26639,-23755, 22839,16628, 2124,-4258, -28416,-8181, -8102,372, -29206,15370, -3536,-6526, 17790,-23879, 27901,3022, -26213,-24630, 25194,16841, -17161,-15232, 18858,-10208, 18463,-14782, 3922,-10881, -5088,24507, 8958,-9442, -28693,-12284, -9162,-86, -22581,-18025, -18344,-23333, -32285,5653, -30788,21704, -19081,-4434, -1433,154, 16642,-1232, -9680,-16709, -28561,13552, -25161,8595, 28155,-31904, 6830,-10266, 149,-9793, 26858,1537, -7023,19236, 20219,-14636, 32298,19602, -6126,-31058, 31294,-4532, -7838,4950, -4006,7415, 1349,-3209, 1462,5037, 7492,-4536, 9244,1692, 336,7622, 3702,2659, -266,3988, 3159,7796, 5680,3886, -8068,3185, 4160,-5872, 8116,4087, 1227,-168, -2966,-6414, 7061,-1240, 4880,4245, 4273,-4939, -4877,-3017, 6871,-8897, 5860,-7245, 5008,-7544, 1719,400, 1285,-5935, -9477,442, 1641,-4842, -2825,-7578, -4867,-3895, -6076,-370, -2449,8726, 54,-4687, 3824,245, 2416,4011, -4264,-613, -5034,-4355, -5251,-211, 707,-4131, -2605,-6124, -4095,5674, 8863,-4157, 7789,3863, 2231,-8860, -5747,-2445, -3851,7878, -7163,7507, -236,-5624, 6987,6757, -5238,1978, -2638,8538, 4646,-8822, 7292,7263, 473,486, -2378,-7563, -3905,8421, -2219,-869, -5902,-7175, -3419,-5952, -7212,-115, -6557,4714, 6056,-7329, -9369,-1147, 2653,-1934, 2904,-2498, -1047,5679, -8291,4855, 8657,-8219, 1789,690, 9572,-3504, 1494,-4420, 360,-6638, 6143,2314, 7224,4281, 4851,-6284, -2889,-2675, -6630,7392, -5262,486, 10658,8037, -5602,-3299, 7927,-5601, 872},
{7562, 5950,-929, -580,-2123, -7301,8037, 2105,987, -9811,-574, 7112,-2230, 1014,10896, -6414,7370, 5447,-862, -6496,-4936, 4084,1697, 9851,-7681, 7288,4419, -3747,-5178, 2817,8727, -2585,5847, 2723,8457, 5864,-5708, 2500,-843, 1196,-3711, 7967,-3747, -9994,123, 8085,-757, -3137,5816, 10157,-2100, -5039,5142, 79,1713, -1535,-5435, 6709,-7641, -1686,656, 830,-6618, 4569,5857, 9523,8892, 2690,3397, -4803,4741, 4143,5802, 6437,-3248, 6178,1447, 1958,-2011, -6368,-11071, -2472,1451, -406,11357, -1655,-5113, 5724,2688, 65,-3834, -2315,-6082, 7077,1796, -4681,-7708, 3953,-4077, 1698,1512, 462,6963, -4142,4509, 6146,-930, 10423,-812, -1936,875, -10865,4140, 9585,-1101, 1446,-3713, 3530,1968, -4453,4236, 297,-6255, -6259,1187, 3177,-3406, 6431,-2759, -2373,7508, 9019,-1393, 6109,-3154, 6838,-7039, 5063,10654, 10300,9445, 5637,5611, -575,6323, -10088,6193, 6439,-6582, 10307,-5392, -6679,4327, 369,2618, -6045,8152, 6916,-2626, 1667,-3609, -5063,-2143, 870,-1052, -3004,5320, 4622,-490, 5236,1188, -3581,4318, -871,4536, -4135,5038, -4614,5955, -2804,-413, 2976,3471, 518,-4578, -2582,103, 563,558, 1764,-2102, -3455,-4326, -808,1121, -1871,-2799, -4274,537, 4210,3270, -3912,5784, 2549,4575, 5464,-881, 1774,1663, -2267,-878, 2401,4400, -3006,3819, 4250,5283, 2249,-2294, 1297,2736, -1621,12, -3956,4740, -2226,-3678, 1800,3042, 2560,-4074, -66,3127, 1581,2140, 77,-1905, 4197,-2124, 2765,-1291, 4632,492, -3492,-3118, 2774,-3038, -536,-3230, -3324,5402, -3077,476, 3308,6352, -2766,-324, 4793,4070, -2424,3184, 2874,994, 906,-1048, -1986,-2680, 4102,2913, 1093,2063, -3855,5597, 5430,1436, 2862,1340, 2209,-2408, 2065,4946, 4396,-2604, 4158,941, 1893,5506, 3896,4748, -5507,-1625, -3750,4065, -5175,-5857, -463,3327, -4550,-5799, -364,-234, 1054,-2747, -3463,-5151, -3693,4465, -809,-2991, -2,-4555, -3047,-986, 4570,-2554, -5116,3734, -5328,-895, 2778,-3724, 6020,-3518, 4425},
{1560, 925,-1217, 823,88, -176,-946, -1602,1160, -2255,-1398, -1660,477, -2345,2335, -2115,838, 715,-1409, -2189,-276, -2622,1892, -2381,1729, 885,-1340, 1980,-1342, 1994,-2146, 545,2309, 733,-431, 1744,-919, -2476,-2980, 1812,-2090, 1581,822, -2802,-2210, 2476,-1804, -1593,1003, -2301,-468, -1147,517, 1893,1964, 1771,-1013, -2590,-2112, 2201,-2516, 761,-412, 654,38, 558,1352, 1028,-1951, -3104,-2625, 529,-1341, 770,1827, -1097,1684, 115,772, -1215,-1559, -2245,2142, -919,1515, -1986,2598, 536,2238, -2388,44, -2124,212, 1955,592, 1665,-62, 448,-1918, -1307,1784, -560,-2063, -1769,1823, -953,90, -1323,927, -2568,-278, 1042,647, 1522,-1547, 1339,1766, -830,-599, -1640,718, 1203,-392, -1440,-2056, 414,1780, 92,-3011, -2789,-2792, -3074,-1101, 1891,441, -514,-2872, -1993,1727, -1283,-235, 1889,1300, -146,-200, -335,571, 166,-2464, 2215,-2340, -2987,867, -1509,-2087, -2126,-1186, -2091,147, -2491,-462, 1880,2788, -5672,-5056, -1212,-426, -1579,-2685, 4116,-4588, -2849,-3934, 187,2822, -1931,1368, -3861,-5948, -4919,-5284, -5146,-753, 4258,-6503, -1769,-5373, 1038,4705, -174,5904, -1261,-1469, 1501,3616, 3092,-36, 582,-3407, -3485,-4444, -3226,-4234, -3275,-2649, 1622,4711, -784,3793, -1332,3664, 2196,-6123, -5869,4381, -1349,330, -1844,-1475, 1328,-129, 4280,2540, 5112,-1485, -425,-3296, -1131,4000, -5082,273, 2254,4799, 2286,3044, -1302,150, -3415,-6997, -4670,-2877, 4284,-2035, -5585,4512, -2432,-4054, 1734,3687, 3297,-3736, 1542,-3652, 1168,-2912, -6470,460, -6490,1087, -9,4926, 915,-888, 6218,-3072, -1876,-5544, 570,1977, -880,1218, -3969,-1714, -2310,3286, 3586,-341, 843,-476, 4604,3645, 6245,-2602, 1275,-5944, -4562,-5424, -3034,-2547, -3362,3946, -2577,3556, -4218,-6429, 2887,2343, 3575,5412, -3851,1921, 861,4672, 3154,2376, 1534,2133, -4506,1418, -4349,1609, -2451,-3396, -2157,-1433, -3131,-1638, -4779,-3347, 5103,-3579, 3606,-896, 2815},
{-481, 2785,2511, -82,916, -509,-1439, 1296,-560, 729,286, -3077,1767, -2919,-2243, 1638,-1396, -778,2752, 2973,2973, 469,-688, -1869,1108, -478,2015, -236,-2380, 997,1810, -503,3, 379,114, -1730,2493, 1285,504, 1139,1785, 18,1149, 2837,1445, -1496,1790, 1079,-2385, -908,2149, -1865,1731, 812,1710, 2145,-1312, 924,1300, -2388,1894, -801,618, 515,-2417, -2835,-1712, -2020,-2009, -786,1207, -1138,2140, 948,2356, 336,-711, -2465,-850, -575,307, -2328,-385, -531,800, -2791,1896, 2311,-2183, -1981,-2118, -545,1584, 207,911, 1643,-1617, -482,-95, 1760,336, 1109,-2669, 1583,-144, 1567,-882, -2988,-645, 878,-2557, 269,2161, 155,-976, -2261,2136, -2549,-508, -2666,-1595, -1186,-2748, 2522,-735, -2094,-1072, 13,-1765, -358,658, -147,-987, 2370,-882, -2422,-1106, 64,-938, -2986,824, -1553,264, 1817,459, 2736,-276, 552,1239, -476,-1414, -351,68, -1231,1955, -549,673, -49,2117, -2509,-2796, -2161,3942, -423,3441, 4681,-1925, -3609,3113, 1931,620, 649,-1703, -5356,1502, -2286,-2739, -412,3223, -867,967, 4414,4627, -3802,4525, 1950,-330, 311,3667, 34,4013, 3629,6233, 4344,2289, 4965,-2504, 2003,39, -1495,-376, 4126,5839, 196,5454, -4639,1812, -4141,2831, 4263,-2245, 347,-1648, 3368,249, -172,-3615, -1508,844, 2933,-223, -2230,30, 850,-2536, 1502,-901, 2923,-2055, 6138,3535, -966,5457, 4069,-4161, -3186,-4622, 4920,2860, 31,4662, 323,-2779, -2448,-1958, -3465,-3448, 2925,1036, -2696,-3045, -3765,-340, 3983,904, 696,-4108, 5191,1926, -2198,-2830, 2650,3502, 4327,1660, -83,2039, -3220,-62, -3222,2106, -1100,441, 3310,4584, 1004,-3838, 1696,1633, 2643,3303, 416,-3477, 3286,-1026, -2747,-1251, 1995,3233, -5596,162, -4551,2192, 5121,-3666, 4262,-3429, 903,1490, -5078,3784, -3384,-2727, -3403,1542, 1408,3289, 1192,346, 3126,-2378, -430,-1256, -5288,1484, -4987,2359, 3186,2503, 3744,5539, 2438,3286, 3137},
{2341, -2149,2156, -1752,-2798, 1905,354, -2244,1816, 2745,-2080, 1597,1298, 2739,-1074, 1554,1950, -1021,1949, -2254,-1401, -648,2114, 2290,91, -2549,1479, -1098,-2375, 1864,2395, 2400,2988, 2700,1687, 1638,-1065, 1788,-714, -522,2528, -1826,-1636, -1353,1144, -471,1892, -1263,1009, -1497,1790, -1674,-302, 1992,-2311, 758,-433, -542,2399, -951,2008, -1403,742, 1861,-1893, -3,1495, 2578,1265, 2396,-1380, -2149,-2709, -2231,2494, 646,177, 965,1726, 2308,904, -2533,-1845, 2824,1494, 105,-2162, -108,142, 274,-2069, -1728,-430, -2593,-437, -2626,206, -2487,1377, -2411,2550, 414,720, 970,-205, -1729,1594, 369,-2018, 1187,-299, -1714,2524, -2547,1285, 2534,1515, -1897,1948, 2633,1885, 1195,-827, 1122,-1508, -2616,267, -141,-1036, 808,724, -310,1440, -2601,789, -2550,-1872, 35,-2086, -2175,-1512, -2276,-2291, 244,-2475, -2111,1560, 861,-2527, -2535,613, -1152,1048, -1410,1685, -909,2275, 511,727, -2585,1425, 614,2317, 2629,-482, 635,3811, -3483,-2372, 3817,1401, -2803,3770, -3352,-1051, -2989,-3464, -981,-2958, -1706,-1434, 1167,-2226, -2136,-1770, 3359,-1593, 2715,-3695, 403,-2015, 2023,-3084, 2837,1971, -3127,-2344, 684,-2245, 1959,-1993, -858,-2708, 3008,2553, 1112,-1170, -802,1543, 2138,3750, 2398,591, 1661,-808, -1231,2276, 2822,-3152, -3958,3797, 3935,2252, 1213,-3195, 567,1562, -2866,-3270, 2299,672, 29,583, 3081,-625, 2647,-1692, 654,2462, 675,141, 4096,2729, 918,-1307, 883,-1385, 935,1754, 503,-1702, 1044,2216, -870,-995, 3331,1736, -139,3214, -4383,-3631, -1166,-4052, 2513,-682, -1626,-1162, 260,-3645, 2311,2340, 2762,-1966, 1926,-1457, -3340,-187, -3207,2058, -1753,-3273, -4340,2979, -3417,-3149, -3083,3020, -1140,-1637, -2072,-1548, -1125,3370, -3667,2261, -1174,-2560, 2337,2304, -2327,-1837, -531,675, 4375,-3112, -3033,-1555, 3318,-3528, -1894,-3162, 0,-2314, 273,3764, -2753,-3138, 2611,299, -3382,-3707, 3325,2018, -862},
{-1474, -20125,-17973, -20151,11299, -15691,-10319, -23459,-6025, -10467,-10673, -12617,-2794, 15505,-4966, 3524,11846, 20073,-21410, -25114,-6726, -4593,1727, 9970,-14320, -16854,-5245, 9003,19771, 20292,12840, 14034,-3720, 23399,-15068, 17976,-12183, 9934,1924, 6256,-206, -8035,-9719, -19637,-24682, -6176,-2901, 12508,26520, -6548,-2933, 266,13733, 4324,9159, 4314,7368, 5184,-1257, -9582,-18010, -17769,592, 11361,13241, 5046,22813, 8821,27031, 5242,-11634, 23742,-9081, 3726,-13831, 8670,-6401, -9333,3839, -14155,-10758, -12884,6, 12661,26590, -13633,-14128, -5131,-14972, 24530,-21037, -15449,-25298, -14156,-8762, -5428,-11892, -6585,10682, -20220,10134, -1975,1309, -4737,11732, 7462,-5632, 11301,13377, 2651,-25925, -10059,-12943, 6576,-18572, -4556,-27224, 4786,13021, 11750,2107, -12087,20472, 21544,1666, 6985,17991, -21464,421, 6451,19751, 7688,14750, -23663,-2227, -855,8127, -7457,24688, 22474,553, -17252,2257, -1662,-23418, 7723,-1216, -2562,-19721, 12116,3874, -11267,-9931, -9778,-14436, -3613,6301, -2089,21418, 5697,-2190, 4925,492, -2004,-2474, -2752,2878, -1613,2480, -1543,499, -1694,-1724, 416,1981, -2719,-103, -3003,-2131, -1028,-2440, -1001,-134, 1641,-2367, -961,-1554, 1840,79, -2356,-2990, -2123,609, 2603,-1921, -318,2464, -2712,-2207, -2302,1112, 348,-140, -2331,-1333, -134,-2989, 1470,-3342, -1784,-2988, -1951,-2951, -3138,-3392, 1123,2485, -2010,-1449, -1342,2290, 135,-1488, -2231,2056, 1414,1913, -2324,-3089, 773,-1791, -1102,-665, -1801,-741, 778,-971, -92,-1815, -2609,-2067, 123,-238, -6,-825, 1232,319, -826,1085, -1749,2419, -1569,2184, -1846,2233, -2746,-2809, 1537,2320, -2297,2616, 970,991, -2091,1648, -958,1145, -3270,-894, 1270,-2302, 2014,1276, -1032,2063, -2076,-1425, 2568,-1075, -1937,1469, 3249,1534, -982,2849, 1357,2265, 1459,3060, 1968,-233, 3144,-641, 1623,999, 1148,-1591, -1124,-1504, -338,1673, 2865,-2682, 2227,359, 1708,-2016, -1245,-2302, 1116,2624, -2082,2804, -495,-2265, -2719,2342, 1252,-1440, -1285,-579, 1045,94, 1581},
{-5275, 2297,-1688, 5208,4633, -7566,-5324, -3100,-6042, 4506,-3166, 6202,3372, 460,-2419, 7063,1761, 231,3938, 1400,-1232, 3837,-5484, -240,277, 4006,3252, 5463,4843, -5463,678, 2494,2962, -3369,153, -2086,-1320, 4967,5104, -7665,1692, 4838,-7122, -5712,-2655, -6270,5687, -3136,6943, 4981,6642, -4337,2978, 1113,237, -6149,437, -6215,-1201, -4175,5592, -3147,-6566, -2424,5589, 4898,3519, 4303,-4178, 2019,4372, 7714,1446, 2875,-2073, 5336,-5318, -4199,-6691, -5389,-230, -6145,5568, 896,3573, -1546,-4601, -4033,2561, 1483,290, 1999,-3144, -879,4287, 3978,-4216, 4287,3074, -7145,1541, -1674,6852, 148,-5089, 797,-1243, -1692,5557, -6364,-894, -2368,5611, -880,2261, -6229,-4575, -1432,4085, 7011,-337, 6419,3839, -1696,2770, 5717,-6343, -100,-788, 2171,3273, 4212,3451, -6798,-2272, -1841,435, 6663,-5127, -6472,-7068, 1789,7367, 7767,3415, 4967,4804, 5313,-1566, 1149,-7190, -3154,-1461, -5854,6093, 2062,-129, 5403,-171, -1457,-5485, 7351,-1300, 197,1361, 2143,3218, 1518,-1963, -3855,1963, 2824,-2846, -2656,-3578, -3593,196, -3707,-598, -4731,-735, 4967,4415, 3806,2490, -1309,2184, -3037,2135, 2030,-3580, -889,1444, -1801,-495, 4971,4709, 4214,-4447, -4468,-1578, 4345,-4927, -3415,-105, 798,-4350, -3459,-3001, -4712,980, 1308,-2972, -2364,-1979, 4390,1768, -3813,-3869, -1320,-2021, 633,-3811, 2968,-4337, 3155,-1087, 133,-4398, -2314,-3820, -2577,-4579, 1900,3421, -4242,-1977, 3144,-4005, -1975,-3381, -4061,4346, -2408,2955, -1549,-677, -3552,3381, 4309,1166, 1751,2901, -3356,-4323, -2575,-2700, -1983,1484, 1094,-727, -512,-4408, 1806,-3707, 1953,42, 4337,-2188, 3417,-828, 218,-1248, 823,-2510, 1534,-4583, -86,2131, 284,859, 4124,2502, 390,2045, -2536,4136, 1457,-1885, -1068,-2426, 4372,-864, -436,2734, 4605,4559, 3993,-4004, -1293,1939, 2008,1437, 353,3799, -3075,1511, -2341,-762, -4109,-2970, -2193,-1068, 3375,-1628, 3754,-4106, -653,156, 1299,1694, 2374,-5131, -4098},
{7719, 18812,7330, -10106,6228, 16619,11610, 11752,7174, -9045,-3478, 10698,-8808, 13481,-1257, 10848,8246, -5083,15754, 4116,-771, 12824,-4456, -306,10500, 14808,-4229, 12092,15414, 503,-2667, -8049,7090, -12573,12729, -10924,-11997, -7050,18312, 36,-9233, 12304,13693, -638,-13369, 14233,-9028, 3795,15883, 10465,4023, 13861,2504, -13419,10513, 10960,-3765, 14614,17175, 1624,4313, -11053,-9429, 4559,2401, -11228,11438, -1904,-9282, 6619,-11355, -1611,2689, 12201,-11564, 13772,-806, 3671,8810, 4236,6391, 12415,-11294, -8831,3702, 5628,-4169, -5708,16240, 10047,7364, 7183,-305, -869,15552, -4985,7582, -4230,-15729, 15072,-12495, -3274,1887, 8613,-8024, 12012,10321, 4349,-2302, -6135,-9163, 16295,18302, 1846,17532, -4720,14753, -2360,-13184, -3676,-13127, 17660,11792, -9847,-7473, -5189,-13562, 11732,18906, 18725,-6478, -437,17760, 13890,16221, -13947,-3879, -17887,-9629, 4362,-11303, 15424,3728, 8307,11175, -5607,-1166, 13686,-8055, -4842,-11697, 6782,12576, 12510,-5608, 6093,12232, -8263,18928, -873,9482, -814,-706, 527,-3145, 3988,-2628, 7667,-4084, 5637,5328, -513,-6007, -466,-1499, -1081,4942, -2861,-6818, -7169,-5335, 4712,4519, -1663,340, 4440,1237, -6226,5833, 1801,4553, -3647,4067, -4874,1018, 6883,-2797, 3681,2030, 5144,-3579, -2363,-712, 5538,-4403, 5193,482, -3691,1315, -2665,-784, 4211,-3226, 123,-3348, -1730,4820, 3321,1845, -77,6204, -3819,2381, 7132,-3376, 103,-691, -5064,-332, 5198,737, -5911,7053, -763,7625, 4249,5707, 6894,2806, -2835,2919, -2154,-643, -3012,-4433, -3026,-2444, -1499,-1723, 2794,-3774, 6396,3042, -4080,-371, 1644,-515, -5675,-3073, -4695,-2294, 978,-5534, 2061,-3859, 543,4056, 4753,-1041, 2464,3045, 326,837, -2247,-60, 5361,1453, -2325,5422, 569,677, -1255,3501, -5664,3167, 2164,-515, -6882,1226, -2441,3629, -380,7562, -5934,3551, -725,3864, -2598,7748, -6043,5061, 2056,623, 1791,3627, -570,7712, -5801,2610, -862,-4, -4571,3535, -2220,-1654, 1065,-1961, 3464,4651, -1606,-395, 2847,3226, -218},
{525, 2111,7397, 4182,-7000, -1481,7527, -6364,-2394, -7656,43, 2940,6808, 259,3549, 221,-6304, -3486,-3874, -2522,-2160, 4546,-6211, -725,4701, 907,2413, -5725,-7379, -5653,6174, 7584,-7286, 3251,-5728, 4483,8954, 1087,7490, 7122,4046, -278,-7431, 2568,-3789, 1940,-5363, 7206,-1033, 6484,86, 4054,-5212, 4599,-5463, 8833,-7252, -6276,-3671, -8077,5197, 5343,2491, -7904,3360, -1341,6812, 464,5841, 688,7410, 3219,-4549, 1418,7882, 2102,-567, 3569,6389, -993,6386, 3994,4194, 3801,-7885, 5953,-5471, 8607,6650, -1856,3192, 4379,5755, -1895,-306, 66,-5102, 8760,2752, 6057,3737, -2030,4859, 3249,-3367, 7110,934, 3383,7702, 3889,1077, -4793,-3559, -4983,-940, -6109,-6317, -45,-5078, 8183,382, 374,-3427, -1153,29, 2569,7626, -4800,-4102, -8098,4072, -2124,-4628, 5995,-2921, 4137,5239, 7594,3072, 3449,-13, 6453,7068, -6334,3958, 7387,-3237, 856,1841, -1400,-1369, 7034,6272, -4685,2885, 6393,-1198, 3174,-4287, 7348,191, 6182,3875, -2977,-229, -563,-122, 2084,3091, 3344,2588, -3002,-3145, 3107,-1548, 1009,-2152, 3608,2930, 3101,3269, 2203,2449, -37,-1989, 2246,2209, -1431,-586, 740,-547, -3454,-3032, 2286,-1009, -2334,-2987, -169,-2275, -1170,4199, -2557,-3008, -64,3622, -2104,927, 1544,-1594, -1275,417, -2927,-4184, -2454,-3040, -3459,2356, 112,-1287, -2856,-2553, 505,2570, 2249,1722, 39,-1958, 1187,2902, -1868,-669, 3153,2209, 2515,1388, -220,492, -2811,-120, 3219,1960, -1443,-2313, -1146,-143, 1289,-2305, -1968,-2776, 3304,-839, 229,3815, -1242,2574, 3637,4142, -2164,-2818, -2261,-1193, -2697,-3185, -3601,2939, 765,-2724, 301,2851, -1114,-349, 969,-2384, 1473,3357, -1660,1265, 2692,-749, -3128,3647, -254,1794, -1817,1217, 2476,-3375, 641,3197, 1580,1616, -61,-300, 293,-2403, -74,-2528, 2407,3519, -2915,970, 2581,2680, 3335,-2365, -4185,-897, 3617,-594, 4157,4049, -274,-2354, -375,1912, 1792,-2739, 2293,-3377, 2001,-2866, 2924,988, -1085},
{-3600, -3148,3190, 4782,2518, -4214,4422, 4847,-625, 5466,-1273, 4823,4304, -2713,-4950, -1461,2089, 946,1158, 5519,-4720, 6047,-5438, 4627,-144, 5938,2245, -1217,5097, -5078,5902, -1991,-6122, -3350,-1913, 1010,-255, -2795,-2987, 1482,-811, 1269,4347, 4330,-3669, -4598,-3978, 3934,1017, 4567,2895, 1140,1812, -3731,3159, 2973,4765, 6166,4836, 5425,5185, -1242,5530, -2393,5480, 5140,3928, -5266,-715, -1223,664, -2168,4981, 1145,-4659, 3841,3875, 3460,4434, 1831,-272, 168,-172, 4491,-898, 2988,-1363, -1438,-4933, 2345,-2324, -2280,-976, 5699,-2815, -4912,1722, -5991,-2261, -4558,-860, 4866,-869, 5272,-5149, -3769,5496, 3581,3713, 1660,3433, 4885,1262, 60,3612, 5682,4026, -4566,2434, -4374,1764, 5901,3232, -2518,2336, -33,-1931, -3527,1820, -5136,-2754, 4186,3087, -5764,-4094, -390,-2281, 5262,-1582, -84,829, -5840,98, -4289,-6177, 586,-3117, 693,184, -1899,-5391, -6145,-1598, 2220,-3928, 4477,347, -3769,1670, 3503,5135, -1397,-2987, -11443,11033, 8798,12927, 6699,10298, 13530,11998, -14659,-11606, 4531,11702, -5791,-10723, -6517,3409, -18194,12970, 8357,2774, -11993,730, -2091,8080, 11557,2504, -3304,5753, 8857,-495, -5437,4258, 7966,-10494, 8181,8644, 10669,-478, 5794,-5910, 17716,-5528, -1180,-9172, 8591,3950, 3621,-5446, -15265,-8088, -2196,-16316, -18507,12438, 12286,-11897, -6650,-2800, 10254,-8462, -12375,15290, 8990,9076, -18152,-8053, -3011,11981, -5420,7897, -5543,2308, 4125,14537, 2795,-10997, 14084,10176, 7792,-9051, -7613,6076, 11208,4553, -14503,3139, 11226,77, -3290,-2494, -4975,7005, -11915,8739, 4458,-5308, -10747,9686, -11978,-13922, 10789,-10921, 981,-7907, 3538,8242, -17740,5481, -5761,12784, 14621,13552, -6262,12858, -5282,2007, -5644,13915, -5761,13261, 13312,11547, -13700,-12690, 10878,-1926, -5546,-5856, 7894,628, -6176,10857, 15280,-8123, -2605,4308, 1861,10392, -1493,2665, 1531,2456, -6301,15134, -3852,7868, 1765,272, 6079,3512, -3794,14738, 9128,9250, -668,-7857, 9112,2395, -8854,-12471, 5040}};
static BiasActivation<CONV_LAYER_0_PE, CONV_LAYER_0_ATILES, conv_layer_0_bias_dtype, conv_layer_0_acc_dtype, conv_layer_0_output_dtype, conv_layer_0_m0_dtype> conv_layer_0_activations = {
.m_bias = {
-193343844,
-202582327,
-169994344,
205681627,
-205370716,
-195065665,
-202959813,
206374595,
202676969,
200864844,
191455250,
-134519963,
149894618,
-192592047,
-190589351,
202404059,
202513809,
-200732145,
204378414,
-204629606,
206700956,
202249575,
-22168807,
202971158,
-198475891,
199481521,
-105877220,
201556731,
167160112,
200311704,
194383659,
-158610628},
.m0 = CONV_LAYER_0_M0,
.zero_point = CONV_LAYER_0_OUTPUT_ZERO_POINT,
.min_val = ACT_MIN_VALUE,
.max_val = ACT_MAX_VALUE};
static ap_int<CONV_LAYER_1_WEIGHT_BITS> conv_layer_1_weights[CONV_LAYER_1_PE][CONV_LAYER_1_WTILES][CONV_LAYER_1_SIMD] = {
{-26993, 23055, 25560, -9089, 6935, 29347, -27437, -7495,-13229, 1847, -16122, -4603, 12948, -28268, 30047, 11550,4947, -195, 2936, -21535, 14540, -10615, -1476, 15816,-20129, 4, 2854, 30523, 5686, -2193, -24022, 9581,-28574, -17679, -26987, 5678, -24134, -11577, 9235, 16414,1044, -21357, -18287, -8068, -9272, -26430, -27864, -19608,-21246, -28596, 2328, -13109, 12037, 19396, -31354, -19413,571, 19401, 16730, 19431, 27276, 11204, 6367, -27387,1953, 4509, -9071, -2785, -28591, -5108, -15296, -17557,-2871, 4745, 7436, 6887, 19899, 16451, 16891, 16360,-28546, -18437, 24470, -6892, -23156, -10881, 4758, 146,-17951, -2438, 2649, 4806, -22637, 30279, -26695, 22867,-2282, 14282, -30142, -25961, 7951, 1020, 8836, 8123,26576, -24721, -10957, 17003, -24408, 25626, -4818, 3137,13885, 20172, -832, 28970, -23368, 16760, -17257, -12193,-30266, 16173, -12778, -27148, -13462, 11756, -2832, -24943,-9569, 11169, 13897, 5655, -6796, -8739, -7599, -25211,20545, 12813, 1367, 12458, 24921, -14511, -19160, -9030,29420, 14407, -29859, -6330, -21989, -10849, -13543, -2104,-3116, 16629, 28237, 18330, 28347, -22647, 9036, -4040,1431, -15348, -16336, 18756, -26507, 8970, -21601, -18207,-2625, -5521, -18236, -24621, 26864, 14063, -16034, 2088,-17366, 26633, -21108, -2300, 11444, 26738, 24974, 9484,-4294, -20827, -22044, 9165, -20756, -6237, 13477, -6160,-29318, -26715, -29925, 9506, -29608, 13471, 383, 12860,-12229, 3749, 2021, 22013, 7391, 12017, 11131, 582,-25356, 29573, -23974, -1185, -7602, -21141, 2314, 18479,18698, 6144, -17009, -17773, 28137, 23887, -13802, -8402,-28358, -7721, 6346, -601, 14633, 17172, -23164, 20640,655, -29110, -24126, 9363, 9071, 32767, -6098, -5942,9418, 7440, -5145, 9242, 12280, 12150, 2049, 25994,6730, -30391, -13952, -10281, -3962, -4038, 23056, -11534,-25872, -22409, 1197, -30258, 15404, -28912, -13382, -18057,-8818, 7020, -2435, 21279, 22034, 8962, -6217, 7990,18504, 3248, 4074, 1559, 22823, -11625, 10250, -9720,1077, 2430, -2073, -2676, 13595, -13457, 24318, 26902,-10658, -6569, 10734, -5700, -1259, -4352, -7336, 7859,-1198, -10352, 10991, -7384, 976, -6878, 11031, -10331,-10849, 5543, -4855, -2755, -6925, -5097, -1037, -2290,1477, -5146, -9195, 6819, 11796, -8455, -3785, -6127,-11212, -9069, 3843, 10495, 10373, 12197, 4780, 4645,-2909, 4801, 2501, 3199, -719, -10228, 6594, -8286,-9519, -6126, 8733, 10217, -8945, 4678, 7372, -9573,4427, 1792, -2704, 6739, 1341, -8368, -9708, -4673,1579, -9024, -11183, 10730, 6545, 6118, -6776, 7194,-2557, -1470, -8137, -626, 2619, 2911, 8026, -9858,-4437, -7176, 212, 7454, 5147, -827, -2666, -11040,-979, -8038, 9066, -8029, 2166, -10655, 2359, 9768,3910, 49, -2626, 1598, 4835, 745, 9123, 44,4872, 5513, -2352, -7444, 6434, -10618, 1373, 7623,-286, 5139, -430, -11305, -11204, -1177, 12311, -1159,1940, -4196, -9276, -9364, -8000, -5783, 8540, 3090,9276, 409, 7362, 1082, 7504, -7111, -5595, -1279,-887, 6270, -3768, 2222, 10150, 8566, 5230, -6909,-10913, 578, -9715, 5990, 7697, -10336, 6485, 11343,8221, -1348, 12265, -9907, 1521, -9853, -10774, -5360,-3553, 9182, 3791, 8751, -1403, -3779, -11332, -1635,4095, -10363, 11116, 769, -2734, -10737, 3111, -4843,-7088, 7736, 8273, 9622, -9530, -11647, -9707, -6398,8607, -7519, -7681, -2282, -3753, -9662, -1469, -8615,10531, -10191, -1938, 9243, -11364, -7996, 2090, -3588,-6495, -8386, -4793, -2132, 7946, 3820, 9562, -4735,-4630, 8270, -1117, -3586, 4931, 3777, -5342, -1387,-3359, -9195, -3604, -9986, 6356, 2944, 10242, 2211,8025, -441, -1219, 8533, -9448, 3863, -7876, -9190,6639, -8625, 11457, 6197, 4864, -10792, -2821, 5647,1740, -10129, -5383, 983, 8497, -6051, -5831, -5599,4921, -814, -6694, -11506, -2150, 10469, 6444, 828,-8569, -7548, 11236, -9348, -10668, 6582, 2600, -10295,7130, 9474, 3636, -6938, 595, 2145, -5259, -3077,2407, 6624, 7896, -6146, 9858, -11797, -10317, -9800,-2576, 9559, 5750, -8727, 305, -4448, 10253, -9638,-8497, -21124, -3842, 12183, -10148, -10402, 10323, -4126,-15212, 6581, -18206, 14873, -11357, -11690, -16349, -1100,-14827, 22507, -10581, -1491, -14840, 5606, 3901, -16334,-11140, 14476, 4945, 13311, -16611, -5382, 10668, 14627,-3361, 7455, -20660, 10736, 15361, 16894, 14298, -10805,-2559, -22585, 13713, -18744, -9826, 17306, -10963, 11485,1766, 2894, -24580, 11248, 21306, 16993, -25465, -16569,2175, 19396, 10795, -22131, -12708, 18505, 19970, -5876,11543, -15246, 14610, -20800, -15963, -9815, 15886, 14185,6565, 10795, 5861, -1262, -10961, -7024, 11305, 21225,-1297, -6350, 3406, -11635, -18071, 13853, -1836, -17881,-23754, 8212, -17091, 3121, -20690, -11336, 12948, -2342,-16588, -11831, -10209, 19227, -11914, 1728, 9981, 21013,10315, 5740, 48, -15617, 6651, 5479, 17527, -23205,16309, -19988, -15961, 5153, -22099, 15091, -5909, 14460,18157, 3126, -19430, 1243, -17978, 21667, 21473, 10135,-3897, -18493, 8685, 6154, 3865, -1410, -4351, -20408,-5090, 13426, -19881, -1551, -11711, -2527, 14767, 19333,-16627, 18078, 17995, -8505, -20086, 7167, 8082, 17243,-15438, -11751, 1124, 5548, 11005, 4354, 5147, 22949,11522, 2061, -16066, 17662, 6855, 3987, 17072, -19222,-7987, -21771, -11328, 8650, 4552, -18521, 13429, 6532,-12301, -4994, 14005, -6421, -19432, 6395, 10813, -10621,10607, -18936, 379, 1998, 15955, -18923, 15532, 19216,14219, 10690, -22855, 8745, 10183, 15572, -9301, -20993,21148, 12419, 6167, -11064, -11459, -4078, 15279, 7542,-16097, -20263, 2296, -7364, 19991, 12618, 7485, 10486,3887, 14329, 11297, 14835, -16399, 2411, -31, -8621,-6635, -6338, -15175, 18404, -1528, 14451, -9146, 5489,15676, 17657, 1845, -19709, -12047, -6648, -4859, -2084,2046, -15660, 5228, -18589, 6228, -3411, 13136, -17205,6128, 13687, -7189, 10120, -22441, 2366, 5989, 7259,17882, -16767, 14818, 6920, -11905, -19750, 21964, -21492,-17544, -20917, -18229, 20074, 7718, -22721, 17767, -18757,-23267, -12165, 12725, -19300, 1693, -17325, -18087, 6088,-13239, 14071, 1613, -12085, 3558, 20558, 9545, 10407,3520, 9971, 10188, -4937, -680, 4653, -24582, -1140,18800, 8789, -3152, -1892, 11183, 4505, 2422, 8524,3784, 13167, 12820, -7517, 10434, -20193, -9336, 20238,15828, 2365, 15531, 3572, 21254, -18553, 21507, 8015,-13356, 1833, -2727, 2305, 10996, -9576, 14373, 8845,-20660, 17856, -16232, -14972, -438, -18888, -8601, -15080,4772, -830, 11452, 12883, -5351, 12284, -20077, 865,-16826, 8765, 19809, -19383, -9873, -19679, 2858, -18273,-17987, 10589, -13753, 11395, 3790, 13677, 16645, 16083,-10547, 3074, -18182, 17765, -4666, 4071, -2893, -18441,3711, -14381, -11574, -9886, -19550, -4662, -676, 4522,9538, 9490, 5245, -9092, 3081, -11097, -17256, -18069,18561, 13355, 19109, -17591, -17283, -6436, 540, 19963,-16739, 1539, 264, -22891, -20036, 3402, 19756, -17444,3745, 5364, -13663, -20582, -7228, -15195, -23822, -3602,-10920, -14169, -19024, -425, -3077, -20290, 13259, 23752,-11024, 3903, -7319, -10336, -11759, -1144, -6039, 13566,3024, 252, 4685, -1659, 10827, -14327, -8300, -4583,8287, 23950, -11650, -19146, 11883, -22602, -12019, 15456,1350, 7785, 22962, 19150, -16765, 15091, 376, 6658,25033, 9790, 10288, 2330, -6162, -2109, 9016, 19858,-9476, 15489, -2658, -16203, -6173, 16014, 11730, -17023,-2526, 6491, 9988, 3843, 4730, -3341, -16595, 22502,14155, 10461, 10891, -5538, -12568, -21266, 1260, 8361,-10247, 9237, 17179, -22259, -2722, 21149, -6575, -16621,-3458, 4858, 3506, 4852, -6576, -20571, -2970, 15185,-7089, 19814, -4577, -17357, -6572, 7286, 2696, -16579,-21364, -8235, -19664, 9486, -2444, 18495, -8848, 9739,8701, 9343, -23468, -14199, 17866, -18496, -406, 15366,-13042, -1515, -12688, -2841, -5351, 20187, -20601, 6658,-18585, 2634, -1095, -21737, 20343, -4030, -4993, -15134,-20355, -20533, -5235, -5222, 23089, -14919, 7350, -4991,16460, -14757, 10625, -11862, -782, 18538, -1331, -15784,-20109, -16049, -19470, 4917, 19318, -20552, 11117, 8861,20861, 4071, -14549, 19538, -9549, -10400, 1474, 18576,6377, 20037, -20871, 19232, 23266, 18587, -4784, 8195},
{17283, 19094, -9945, 16475, 822, 2683, -5152, -20202,-810, 18319, 5566, -232, 10044, -13520, -11227, -16465,4620, 5800, -5560, 5598, -8063, 6545, -20497, 13700,-7659, 6249, -6586, 15506, -14009, -11340, -6223, -6504,13067, -11787, -20337, -16627, -11720, 8300, -17315, -4700,-624, 10614, 1701, 16390, 4830, -4014, -15978, 19015,-6076, -6068, -10347, -9450, -14950, 1679, -15268, 4246,-6983, 16396, 3547, 4132, 17644, 7127, 1230, -12734,1561, 6101, 5963, 2710, -880, -16802, 13542, 13837,7787, -14096, -912, -9945, 7739, -4370, 13257, 715,16486, 16156, -1734, -19784, 2412, 1201, -19234, -5224,-2624, -12299, 13549, -11553, -7406, 5511, 6001, 1237,-8052, 1362, 13606, 15152, 8952, -13909, 14627, -18452,5127, 16400, 7825, -18983, 3161, -1693, 17104, -7769,-1201, 718, -18432, 3994, -17676, -3435, 686, -421,3224, -9139, -5356, -10110, -14497, -16066, -13764, 21161,-13090, -18833, 15001, 9303, -10989, -14623, -8888, 14318,-17178, -11585, 8843, 4533, 19260, -13058, -744, 11928,7538, 12874, -19594, -13713, 577, 15866, -331, -6283,9798, 6944, 6994, -10325, 13778, 6045, 15513, -5668,17393, -16848, 1856, -16169, 4713, -8788, 16352, -17492,-15677, -6129, -14569, -16595, -5195, -4122, -442, -13795,-10320, 16046, 7265, 5719, 14419, -7812, 7844, 5821,-5017, -11416, -7019, -19515, 333, 11668, -2391, 12801,-8672, 2283, -3813, -1592, 9876, -20107, 5059, 13995,-10000, 18536, 13153, -21561, 15802, 17356, -5599, -1423,5682, -11611, -4379, 17812, 7073, -16577, -8462, 15979,2788, 19409, -9526, 12270, 5818, 5841, 15274, -7038,-17367, 8613, -4086, 4556, 950, -9956, -6233, -10905,5723, 14988, -8159, -5077, -12948, -9521, 12685, 12839,13597, 13101, -111, -15821, -7724, -11995, -8111, 12565,3880, -12630, -2036, -558, -10445, 15669, -7491, 5864,-11008, 6369, -17420, 16829, 8087, -11776, 4776, 6560,2573, 2195, -13563, -13544, -9260, 15234, -3197, -775,15406, -4731, 17003, -15582, 16518, 7228, -16089, -5491,10707, 182, -6419, -11649, 5126, -20069, 17386, 4336,-3840, 3951, 1217, -5790, -2, -1728, -2228, 3482,-7775, -9901, -7660, 423, 2385, 7713, 10451, 6760,9908, -6219, 6085, 5183, 4750, -4162, 5320, 1299,7876, -8280, 9464, -9202, -3527, 8467, -177, 8084,6348, -8331, 1435, -5870, -4001, -3362, 689, -3104,2016, -2664, 7071, 10106, 316, 750, 6483, -5668,4457, 3489, 2504, 8450, -4611, 7051, -8731, -74,-9501, -1625, -2940, -6446, 4081, -246, 8978, 7706,1871, 421, -5858, 8684, 2561, 1514, 3664, 1716,-4608, -3458, 6756, -1990, -5186, 9923, 9433, -937,1687, -6962, 9611, -1554, 1862, -7295, -8783, -9790,7710, 2739, -2166, 5584, -2707, -1627, -3706, -7583,339, 1158, -454, -1307, 3049, 1793, 996, -5508,8549, -5038, 5081, 4220, -7131, 5890, -4046, -7604,-5036, 8586, -8803, -7878, 3101, 5682, -6214, -8330,-5719, 2122, 3302, 2553, 5831, -2095, 9215, 243,-3327, -5444, 4352, -1978, 8166, -1220, 7778, -10568,2869, 1408, 8206, 2371, 8883, -1655, 9436, 4138,1925, 1072, 3252, 2086, -8301, -3645, -3438, -2339,-4566, -3606, -8547, 2691, 8636, -1275, 9973, 10603,-8730, -7885, 8086, -3501, 519, 793, 6886, -3644,-1593, -3589, 9936, 8741, -5557, -6385, 3429, -7358,7745, 6588, 4078, 3707, -3054, 951, 8883, 2197,5244, -5404, 3666, 747, -6778, -3506, -9983, -5798,7519, 132, 7538, 8161, -3461, -6467, -1338, -1540,-706, 2683, 2957, 985, -8011, 9229, 1074, 1918,-5731, -2034, 4972, 8628, -7957, 6404, -10489, -6175,6644, 4557, -1239, 9465, -8287, 5582, -619, 7496,-967, -3241, 1827, -2860, 905, 10755, 3210, -2855,3583, 4374, -4216, 7612, -4813, 7900, 4663, -1095,-2922, -3746, 6222, -2766, -3738, 10087, -10636, -7928,-1077, -158, 9671, 6682, -1171, -2779, -5250, 3071,3437, -5956, -7538, -1966, 9431, -10132, -6158, -1013,-601, -1458, -3416, 1861, -4242, 8411, 2637, 1348,-4963, -4648, 9658, 9748, 6960, 4758, -299, -7034,-1166, -4823, 4012, 7745, 7980, -7484, 4370, 1053,-15024, -12452, 10802, 15839, 15175, 16540, 8140, 16047,-20823, -1041, -7150, -11160, -12190, 3847, -2935, 19704,-13256, -13518, -19842, 18136, 7218, 11761, 2197, -16021,-17227, -6609, -14306, -4169, -8079, 20287, -16406, 13723,-15590, 7227, 10859, -10128, 17714, -14972, -12084, -8288,-8255, 17573, 1130, -20943, -13456, 15876, -395, -444,-17240, 2227, -15952, -316, 8449, -21855, 16997, 19675,-25094, 13629, 23712, -19380, -9525, -19700, 12150, 12736,-7189, 15261, 7404, -13128, -8232, 1061, -6597, -10922,-5257, -19002, -16558, 21965, -9831, 23980, -13197, -18959,21887, 11179, 409, 23995, 472, -2734, -5168, -19149,5053, -4197, 18277, -19653, -12632, 2130, 6384, -9562,1274, 20547, 15438, 10020, -17887, -7717, -1826, -15267,-15500, -162, 22362, -19411, 13331, 8973, -13427, 10334,19151, 1608, 7211, 6894, -16231, 20286, 2168, 23167,-20312, 1229, 5715, -12997, 829, 11662, 12644, -3051,23406, -13491, -13580, 10967, -14042, -7058, 10653, -7117,-20166, -779, -5042, 17416, -8838, -10881, -21125, 15188,11891, -10776, -25098, -21092, 8866, 16668, -9671, -10089,1086, 24100, -18466, -4412, 18118, -24699, 21266, -24014,-17163, -3105, 7390, 3395, -1339, 10576, 18530, -11228,16550, 2042, 17361, -21433, -11454, -501, 18952, 7926,17102, 12238, 18818, -13319, 7210, -5035, -8374, 11227,-7332, -7981, -6710, 2175, -12165, -10865, 23324, -12473,3813, -16258, -20244, -9713, -1429, -16115, 15690, 21278,-5458, -20079, -8334, 5460, 4105, 5664, 3706, -22725,-2121, 21887, -5435, 13080, -10042, 3985, 5867, -18980,5451, 11833, -7328, 8578, -4112, -17767, 10055, 13054,-4040, -16400, 10291, 1954, -7555, 1424, 5566, 1502,16388, 9996, -23620, 3211, -13333, 6416, 11858, -3948,-13309, -13253, 11701, -22993, 1308, -11259, -4591, -4659,2039, 20170, -5330, -3617, -14397, 21317, 7129, -12429,17758, 16617, 6586, 3229, 18221, -10484, -12622, 531,21238, -2806, 12909, -25176, 17892, -11125, 10769, -6348,2049, 1898, 8390, 6938, -15236, -18562, -2432, 18241,14842, -6211, 13675, 5617, 21999, -22183, -19076, 4613,3148, -25239, 22611, -3853, -21549, 11381, -22071, -12659,1092, -18323, 3604, -11557, 21100, 5420, -20148, -20984,8388, 4886, -6865, -22087, 18325, -2092, -20595, 4678,-7862, 17493, 22522, -6006, 13205, 664, 663, 15142,22567, -25140, -10671, 16999, -12074, 20127, -22403, -19848,-2564, -3512, 16363, 10711, 13319, 9378, -11434, 7349,11641, 3003, 18058, 4157, -2016, 18965, -4842, 22389,16008, 10326, -10058, 6283, 3287, -6144, 13157, -8677,20568, -24622, 16870, -12366, -16721, -6800, -2147, -13663,18174, -20283, -15252, -17959, 16878, -28016, 16532, 16031,-7102, 21032, -11521, -18186, 24314, 13732, -3759, -11803,1941, 2201, 3985, -9054, 8117, 18159, -741, 14718,15458, 1748, -20102, 4466, -22017, -21791, -5767, 12294,14469, -130, -8136, -17178, 13759, -25876, -3908, 11725,-12599, -14445, -6278, 13853, 1593, 19141, 10472, 4728,18195, 8434, -17913, 11825, 14063, 22339, 19492, -7021,6408, 17075, 1757, 2296, -21633, -22587, 24285, -21226,-3850, 20094, 9188, -5474, -20895, -20018, -20344, 7540,18802, -9135, -8720, -15494, -20056, -22200, 7064, 3828,-11722, 19058, -15097, -11329, 17528, 19047, 15810, -13698,1920, -14335, -22415, -12863, -15418, 4304, -13635, 964,-19694, 564, -7951, 12237, -9547, 19249, 1533, -8184,-15361, 3353, -3310, -3056, -10693, 5992, 14649, 14917,1978, -10752, 18060, 13875, 16045, -21525, 10972, 16758,11729, -19675, -13694, -10868, 12256, 4580, 63, -20012,-17578, -9122, -10831, 3254, -20792, -24030, 25210, -11964,20690, -19538, -13679, -501, -15397, 12316, 21946, 3803,20964, 22937, -7663, 19426, 1141, -15814, 22341, -13051,-7245, -8878, -5818, 8037, -19411, 8531, -6180, -21517,-11880, 9366, -12653, -18105, 8477, -26589, -16435, 23760,-4488, 10191, -17118, 20018, -12631, -24267, 23333, -18800,13171, -10196, 20777, -9636, 19074, -19131, 11307, -14739,-2543, -5351, -15513, 4150, -5436, -5087, -6304, 4297,8589, -1153, 5412, -22281, -7860, -3995, -13706, 14034,3246, -10195, 10904, -7804, -2714, -16221, -13797, -6974,-19265, -18454, -3101, -5763, -13424, 20717, -11152, 19934},
{4519, 5894, 3557, -16512, 8582, -12028, 12179, 16570,1206, -2147, -11242, -11542, -6136, -16417, 3419, 15061,-13241, -2327, -13627, -10628, -10515, -12729, 10872, -434,-2183, 12575, 6570, 6407, -14297, -6537, -2940, 17388,-5162, 10174, -2144, -15076, 8537, -7401, 10809, -11614,15193, 5308, -3903, 2250, 9266, 7161, -15940, -8173,-10735, 2019, 7087, -11595, -1043, 13160, 3815, -5032,-8327, -12770, -14307, 3063, -11270, -6784, -8468, 2575,-9858, 1874, 10412, 2524, 12702, 9284, 15054, 10674,14218, -11644, -13549, 16725, 17817, -8037, 10451, 6708,10375, -7993, -18178, 8941, -5590, -4740, -17556, 14398,5159, -14294, 6006, -153, -13427, 8760, 3244, -11278,-9758, -12678, -1152, 9121, 11556, 8957, 13103, 18160,-8425, -13101, -11357, -5918, -16428, 2115, 12954, 13280,2105, 2245, 6268, -12103, 2327, -13176, -8785, -9679,-7678, -9926, -878, -16051, -4527, -13597, 16615, 21469,18292, -15424, -6055, -7498, -4474, -1677, 18416, 10550,-7373, -7275, -16308, 251, 14897, 16059, -14553, 14240,9826, 2706, 9482, 15996, -15663, -5402, 1772, 9517,-14953, -10227, -10532, -16087, 4182, 5506, -8407, -1179,-6674, 6588, -14036, -11316, 9069, 1258, -5416, -16638,-14490, -4975, -18173, 4992, -10052, -12969, 13857, 2028,-6168, 6920, -17223, -18066, 9761, 10699, 13210, 5268,-5998, -11281, -5156, 15024, -16486, 10926, 6099, 13601,-11165, 5240, 4528, -9561, -13612, 5059, -8725, -16560,-933, 1659, 7643, -18075, -5171, -7256, -5932, -8427,12077, -11675, 9332, 1829, 11499, -15811, 5818, 11098,17048, -14540, 486, -8482, -14484, -399, -3631, 14476,16011, 10873, -14738, 2356, 418, 8497, 15121, -639,-10116, -5826, 15466, -1739, 15114, 11200, -12273, -6062,-1338, 15576, -6387, -7368, -6059, -13573, -9481, 8449,-13895, 17031, 8819, -16478, -10235, -8015, -2245, -8186,-863, 15137, 15573, 1362, 6130, 12217, 11756, -10128,8268, -2159, 2029, 1985, -15215, -9798, -7921, 3211,11640, 4202, -7682, -5455, 13962, -7733, -2631, -3218,5042, 16497, -191, -7301, -11223, -111, 15704, 5872,2521, -14099, -16717, -12651, 8289, -9396, 4082, 12309,5968, -5039, 254, -1071, 2916, -10329, 12808, 12049,6341, -10733, -11588, 11599, -14554, 5808, 12293, -14264,14935, -12039, -9291, -12130, -3366, -10611, -16347, -3005,-9353, 4758, 7310, -13720, 5763, -15372, -10760, -12846,-9282, -4922, -11574, 3173, 11156, 3006, -566, 8695,12217, 16577, 13567, 3276, 9664, -10293, -5834, 9870,16760, -12965, -13428, 11944, -17758, 7517, -16260, -12642,-4570, -11362, 16148, -13848, 6058, -1698, -13300, 6128,17734, 2192, 3, 3154, 12353, -2027, 15458, 4903,-5938, 9442, -11993, 8749, 7015, -13318, -14408, -14360,8790, -1142, 1185, -6951, 3838, -6503, -7532, 7306,-9514, 2997, 9476, 2852, -13912, -485, 14247, -8125,3779, 2782, 677, 18006, 18211, -8040, -6068, -5229,7647, -6271, -1259, -9897, -10951, 16296, -6273, 14490,3436, 10355, -14755, 16802, 7268, 12760, -10295, -199,6103, -7049, 16820, -8432, 11211, 3112, 6365, -14566,14747, 15131, 1890, 18478, -9496, -11626, 3723, -992,-16777, -5584, 7832, -10520, 8927, -6594, 3146, 14121,8327, -4721, 15899, 13117, -6747, 6288, 8132, -3923,-3001, -15185, -1969, -11577, 13606, 10680, -1432, -4709,3041, 10451, 7848, 3834, 13631, -10087, 4232, -11000,-10720, -1986, 6223, -1991, -7560, 7568, 10003, 14288,4570, 17009, 8428, -10397, 12066, 4409, -3396, -5557,1795, -17938, 12184, -3694, -9295, -4510, 7013, 4138,7196, -1943, 9700, -11096, 11257, -16669, 6545, -11346,-7248, -14532, -16583, -7195, 9518, 1442, -343, 14077,3432, 9595, -2358, 17381, -6602, -2638, -14873, 903,-4977, 257, -5974, -4982, 5823, -12273, -4720, 2944,-5511, -12392, -4301, -8691, -16151, -10219, 14713, -3668,12828, 11282, 1026, 11891, -12448, 298, 1913, 16454,4629, 8081, 12514, -8867, 3425, 13385, 15320, 5914,-6488, 14456, 13744, 7137, -11757, -3883, -15019, 13841,1909, 10651, 14350, 5908, 11395, 18371, -13192, 3622,-4466, -12605, 2663, -3427, -1344, -6787, 12835, -5080,5236, -117, -16913, -289, -9850, 18001, -10237, 2949,1565, -6650, -2515, -10822, -11661, 7173, 10058, 10109,-10347, 9567, -11395, -12757, -2752, -12695, -4630, 1787,-3070, 12315, 9427, -1355, -6892, -4041, 10539, -921,-7785, -4736, -12250, -7841, 10670, 1601, -8520, -7359,-6628, -13079, 375, -6357, 3352, 5249, -12050, 4371,4399, 5854, -9110, -3023, 2316, -2973, -3750, 9579,-4947, -12706, 4292, 7051, 4900, 10951, 5869, -766,-3605, 11253, -12544, 3801, -10348, -12844, -10120, -10136,-11120, -10159, 12410, 7132, -7196, -12512, 4196, -7490,-1586, -1215, 5936, -5118, -8321, -1024, -9084, 1453,3376, 7979, -10804, -656, -8308, 10548, -4919, -10057,10132, 8808, 11217, -1895, -4451, 9020, -6123, 5761,12400, -10070, 131, -5713, 2635, 10939, 11002, 68,-353, 11215, -8025, -12465, 6258, 2268, -7209, -1393,-12369, -1870, -9081, -8147, -7526, 6218, -2656, -1993,-4609, 11383, 7584, 11415, 4596, -7726, -12574, -949,5672, -1472, 10513, 4984, -10175, 2641, 153, -9696,9173, -4760, 12796, -4270, -1137, -5546, 6025, 4226,1255, 1309, 10643, 2346, -9032, 10009, 1702, 8822,7220, 5328, -7484, -5106, -9299, 8874, 15, 3656,2458, -10619, -4569, -3243, 9914, -4869, 3358, -1544,-8364, -775, 5962, -3252, -2223, -10250, -1195, 122,5925, 9325, -11605, -8158, -4652, 7426, -12003, 869,-12422, -7193, 4846, -8895, 5297, -12011, 11959, 630,-4959, 4861, -4480, 116, -5236, 8398, -3331, 5235,-11985, 7859, -11032, 11919, 9087, 4583, -6409, 1033,-5998, 11398, 6185, -2590, -5800, 1801, -5340, 6346,10245, 3972, 1522, -319, 6104, 9527, 12649, -10357,3978, -5157, -4965, 639, -2543, 10437, -10742, -4498,1301, 7646, -9797, 9099, 5944, 3669, -5081, 839,-6960, -12347, 8058, -9696, -10868, 9533, -1356, 12633,-10099, 7039, -187, -10093, 957, -10367, -5344, 10483,10202, -2662, 9548, 4912, -3237, 1003, 8635, 1211,8333, -9678, 9775, -5027, 344, 3321, 12469, 4918,-6373, 3433, -5218, 8962, -8749, -11784, 6721, -511,577, 9419, -2604, -3580, -4137, -2050, 7797, 1622,3731, 1577, 2938, 3441, 2450, 4539, 5271, -6201,-751, -3010, 1758, 3445, 5614, 1009, -893, 1945,2041, -7648, -682, -5699, -2727, -6086, 5456, 3986,-2809, 8077, 7169, 832, -7907, 572, -6234, 5635,5783, -4511, 6227, 3067, 6364, -7894, 7398, 5855,1224, 1738, 3741, 3143, -1581, 2019, 6576, 217,3925, 2176, 610, 4642, 3816, -62, 5263, 5460,6758, 5168, -3544, -2260, -638, 2570, -3764, -3061,-7324, 6770, 4674, -1164, -7010, -7356, -1571, 2759,6930, 7213, 7981, -4977, 8834, -5809, 6605, 4923,5269, -6710, 1372, -6799, 5885, 680, -4614, 3747,-4952, 7044, -6785, -6528, 3063, -6557, 3180, 4475,-7159, -1336, 1496, 4733, -7502, 7776, 2641, 6744,-6140, -8519, 3681, 8354, -4230, -4506, -1989, -2803,7287, -7112, -5736, -5860, -1560, -4816, -1899, 6304,6626, 4130, 2110, -57, 6583, 7875, 7840, -5355,769, -2279, 3388, 4117, 7171, -6704, 7211, -2154,-5878, 4057, 3313, -2779, 3140, -1787, 4185, 1505,7067, -6369, 5891, -3471, -3137, 3298, -7136, -2069,3618, 2077, -7178, 3814, -1669, 1850, -4345, -2082,-1530, 5831, -422, -1569, -7415, -2029, -2697, 6227,-3450, -7241, 1462, -6567, -425, -3239, 7226, -1225,-2051, 2907, 5429, -294, -2792, -5037, -6001, 1234,1805, -7495, 5150, -6209, 4773, -5193, 6838, -7679,-4956, -5665, -3379, 2633, 2300, -5252, 3068, 6952,-984, -7653, -5697, -6134, 8815, 7468, 7165, -5487,2834, -6559, -4457, -5771, -1519, 8339, -2101, -3953,-2767, 4401, 4518, 7490, 4764, 7634, 6935, -4002,-1221, 343, 5465, 2240, 6356, -2887, 686, -580,-2257, 4257, -2345, -1876, 4066, 3604, -3134, -1287,4576, -4585, 1806, -7873, 7443, 4109, -7162, 1610,7791, 2796, -5265, 2918, -4835, -6363, 262, 2593,6007, 4732, -6550, -1393, 4860, -1636, -7821, 6196,-4829, -605, 7360, 8371, 3092, -8122, -6960, -1659,8822, -680, -1553, -3232, -7359, 1590, -5308, 6880,1844, -6540, -4278, -5817, 2959, -7867, 6442, 3015},
{6998, -8346, -10522, -11732, 1108, -1688, -6734, 13051,11773, 3227, 3521, -10164, 2070, 7447, 8405, 11955,8853, 5400, -5808, 7214, 7472, -3704, -13304, 6858,-6640, -931, -3506, -5963, 7401, -3741, 2394, -2952,270, 12339, 4134, 9749, -5248, 13069, -6541, 8053,4062, 850, -10612, 13262, -5614, -9192, 12134, -10281,11077, 213, -963, 7563, 2178, 8346, -6724, -7787,-13289, 10394, -8135, 404, -5803, -6739, -10707, -7668,8924, 10358, 10565, 5357, 3216, -6953, 10966, 8674,1000, -9256, 2891, 6505, -3287, 5055, -10100, 5735,-8186, 3111, 2443, -1227, -3200, 3191, -3179, 2742,-11545, 1194, -6503, 5238, 7147, -11707, 5193, -11135,-4852, -645, 3128, -11309, -11569, 5692, 9870, 9284,1034, 1965, 998, 8103, 1695, -10306, 8912, -10106,3690, 12017, -6010, -8703, -4814, 470, -6290, -2458,-7027, 8788, 11206, -6471, 7498, -11792, -1625, 3913,-2476, 5190, 11239, -3274, 2084, 5546, -6020, 9282,-8823, -1447, 2118, -701, 5949, -10486, -3343, 13085,10326, -4118, 3821, -8945, -9408, -8525, 10869, -5287,2792, 7897, -560, -4292, -708, -10607, 11441, 4140,2998, 6011, -11806, 9079, 10630, -6924, -882, 6325,-9023, 11536, -1956, -12812, 8318, -2200, -1285, -11044,5508, 8800, -114, -2841, -3861, 2383, -9690, 3729,2364, 338, 6565, 8453, -630, 1864, -2106, -3487,-2057, -9516, 4132, -1339, 6691, -10048, -11926, -5586,-5189, -3300, -6736, -10446, 6105, -3198, 9489, -6838,12108, 4782, -5491, 1381, 6589, 3701, 868, -6315,6273, 8051, 8494, 1886, -10922, -6127, -10464, -4551,-6150, -3391, -6367, 8904, 1312, -1837, -10553, -9773,-9347, -4437, 4897, -6022, 9997, 7432, -10448, -3944,3512, -6184, -8562, 6979, 1709, -9914, -3717, 11992,-4761, -12441, 12635, -11263, 1749, 1866, 2158, 6637,-1068, -7162, 7438, 2743, 6927, 6763, 8619, 12599,-9959, 5456, 4690, -4326, 6031, -996, 3070, 1206,10355, 4079, -4328, 12011, -7199, 9366, 6134, -12331,-6881, -5626, -7282, -7735, 4431, -4412, -10112, 667,-27, 201, -6353, -3691, -4663, -1065, 5038, 3137,-1523, 5057, -3533, -1859, -1428, -3205, 5236, -399,-3340, 2262, 3204, -911, 1627, 5268, -3821, -4857,-2512, -6625, 1927, 4874, -6849, 5776, 5765, -5856,1580, -6866, 1493, 5701, -5957, -3701, -108, 5372,-3248, -491, 7064, -4809, -7262, -4377, 4051, 2435,-7241, -2745, -4501, 17, -4219, -6521, -7772, 4947,2297, 4394, 2318, -6807, -6090, -3532, 4817, -66,-3818, 5300, 229, -1328, 4856, -4753, -4338, 5490,-5101, 3006, 204, -6164, -6404, -2415, -7108, -1666,-5979, 4301, 598, -2808, -1130, 4191, -514, -522,-7048, 3762, 1239, -4697, -4582, 1893, 5032, -471,-2520, 456, -7542, -5958, 7024, -1816, 1490, 6003,2225, -840, 6489, -1151, -6615, -2289, 5769, 1213,-7756, -1339, 2300, 4001, 1346, -4372, -5628, -1046,-3330, 4666, 4222, 6191, -4373, 5698, -1894, -5114,1987, -2168, 4598, 618, -5564, 3970, 5086, 80,-1931, -4616, -4060, -3573, 572, -108, -1298, 5646,1434, -710, 2242, 3620, -3977, 873, -6011, -6252,-5612, 4650, 5591, 134, -1885, -1785, -1979, 5259,-3969, 2312, 1221, -5283, -366, 3593, 1839, 5630,4765, 599, 5049, 5224, 4844, 6352, -2713, 1238,-6330, -4978, -1767, -6715, 4805, 6240, 1697, -6580,-6824, -1453, 4153, 6700, 5486, -6347, 2068, -711,-597, -400, -6218, 6111, -901, -1168, 6016, -7883,6401, -3259, -4027, 4561, 62, -5320, 2336, -3198,-5158, -6306, 628, -3789, -5768, -6451, -4440, -5859,-5066, -4557, 1784, 1269, -757, -595, -613, -8032,-3627, -3458, -4465, 1819, 2564, 5810, 1927, -3989,1441, -5418, 564, 3976, -7717, 1729, 3147, -4056,-4484, 4909, -6645, 1759, -286, -5356, -5836, 856,2597, 3504, -128, -3248, -536, 5140, -4142, 2557,-6787, -3352, -6846, -349, 3632, -3591, 4702, 1592,-1985, -6274, 5693, -5743, -4966, -4547, -6872, 632,-5658, 485, -6384, 2916, -2955, 4500, -1084, 6216,-280, 2925, 4358, -3427, -483, 4694, 4543, 138,-814, 182, -2832, -4062, 548, 3946, -1959, -5172,-2669, 1710, -597, 4332, -2221, -1219, -326, 4411,1886, -2442, -2839, -4656, -4389, -4009, -4378, -7,777, 1243, -1101, 4665, 1330, -117, 4281, -2446,4647, -3290, -6163, -5552, 1560, 2108, -5002, -5614,-3513, -15, 396, -4062, -2145, 3695, -5221, 4825,-2035, 1630, -2105, -104, -4936, -2334, 1557, 4581,-4274, -604, 2477, -1513, -2231, -1412, -434, 5082,-2673, -3116, 3886, -3901, -3278, 4608, -3366, 939,4571, 1252, 4896, 506, 5441, -765, -2512, 4404,-370, 809, 157, -5634, -3752, -3133, -3150, -2922,1239, -2273, 4666, -949, 1646, 4774, -5642, 172,-326, -2817, 2727, -4540, 2559, 863, -2735, -4051,976, -2223, 3462, 3509, -5528, 1939, 3727, -3322,1586, 478, 237, 4638, 4172, 4371, 4459, 4837,1238, -2011, 1968, 1868, -1138, 492, 468, -5215,-2721, 2550, -4905, 2558, -602, -2861, -2221, 1620,5324, 3347, -566, -3341, -1937, 4162, -5160, 1707,-4848, -3753, 5463, 1176, 5571, 3443, -1348, 2380,4797, -4565, -3873, -4382, 1463, -517, 871, 1898,1359, -3983, -987, -5840, -2332, 1813, 2558, -5511,5039, 5365, -2509, 2809, -244, -781, 4718, -2902,-4433, -1402, 409, -93, 4695, -4810, 3449, 4750,-1621, -5075, -790, 3239, 4138, -427, 3653, -1139,-878, -3589, -1311, -4355, 2589, 2481, -3237, 1224,4963, 2603, -500, -3973, 1138, -4499, -1324, -5061,1239, 4086, -2926, 2000, -4533, -4166, 2324, -674,-401, -3486, -287, -5192, -3146, 4067, -2312, -2421,-4581, 1525, -5648, 2949, -4124, -1970, 2737, 3970,-3291, -2121, 3999, -3932, -994, 3076, 1453, -181,-5416, -2804, -195, 4077, -945, 3325, -3218, 2361,-4855, 1356, 4627, -2689, -3806, 2845, -4520, -3315,1348, -1129, 3564, -3610, -4006, -4501, -1218, -221,4015, 2490, -4668, -4159, -131, -5564, 3938, -4164,-3303, 3869, 3030, 959, 186, 2972, 43, 668,-5610, 4393, -1442, -229, -2858, 4914, -244, -4570,356, -5760, -4439, 1814, 1883, 177, 2423, -1423,4723, -3533, -2410, 1842, -1302, -3998, -2263, 5581,1439, 6216, 1728, -4381, -4444, -1548, -2214, 4948,5122, -6360, -348, -1187, -2969, -3191, 5047, 1039,-657, -5707, -2054, -1480, -3412, 5537, -998, -3742,-2892, -1895, 2314, 6180, -1940, -4559, 5740, -4880,1717, 5963, 2795, 3993, 5119, -559, -760, 1304,1785, 3626, 2312, 4353, 2931, 4551, 3151, -2289,-623, -6787, 3411, 773, 968, -3393, 3848, -74,-859, 1879, -5652, 2340, 6036, 4133, -1850, 3005,1811, 7093, 3389, -599, 2969, -4038, -2776, 3999,-1769, -3067, 1219, 2605, 6213, 4730, -3245, -4685,424, -1251, 608, 3521, -1949, -526, -634, 6009,3297, -5640, 3760, 2798, -6620, -6688, -2170, -2593,-2337, 1132, 228, 88, 3121, -5973, 50, -4855,-5066, -2455, -3421, -420, -2419, -5272, 684, 904,3735, 4593, 964, -1175, -931, -2660, -3586, 1207,6155, -4046, 1094, -258, -2901, -6143, 1318, 542,-2977, 1395, -4935, -5194, -4846, 10, -3767, 4335,2438, 3980, 3679, 4842, 3891, 5808, 2776, -5177,4710, -2288, 331, 800, 1503, -3454, 42, -1424,-5349, -3264, -1575, -2147, 1778, 5375, 6296, -2087,-2731, -6110, -3856, -5860, 3719, 408, -4684, -1259,3863, 3032, 6239, 5474, 5993, -1397, -881, 3786,142, -3562, -4681, -121, -281, 3605, -2778, 3719,65, 883, 3985, 1978, 3125, 5036, 2552, -6303,-5748, 6040, 3139, -2332, 2703, 2938, -1145, -6306,-4026, 2565, 266, -1905, 4391, 5000, -3685, 2536,2023, -3849, -902, 3635, -1827, -749, 1619, -45,-5123, -133, 3396, -235, 916, -692, 2293, -1267,-3563, 6040, 5422, -608, 4787, -2539, 128, 1015,1597, 5578, 4027, -5381, -2975, 2612, -4806, -4753,-3758, 2326, -3405, 1659, 594, 3609, 1562, 1129,52, -3779, 6415, -2184, -5569, 4633, 5584, 2466,-2022, 2518, 3703, -2158, -5077, -3076, -212, -125,2979, 799, 1445, -2044, 3132, -1667, -4738, -6231},
{14458, -4146, 9497, 4728, 14217, -13790, 2168, -4513,12201, -8205, 3282, 10306, -7827, 5403, -10866, 6062,-5648, 17187, -8597, -12479, -3371, 4162, -4399, 11702,10154, 8262, -454, -14942, 866, -15863, 18945, -2767,-4475, -5990, -16852, 13298, 7888, 7245, -3321, -4718,-11767, -1490, -15837, 15912, 14296, -14015, -7931, 7909,-1749, 666, -18045, 5164, -429, -19353, -13257, -18285,-10915, -16836, 14840, 12672, 15838, 9151, 12241, -18489,17242, -3329, -4357, -14031, 9693, 5675, 5986, -982,-6853, -10646, -16411, -11999, 1361, -17651, 17545, -12547,11452, 9916, 16247, 9345, -6722, -14814, -4574, 8885,-2482, 9078, -16793, -12507, -7185, 13020, -7960, -9992,-9262, -4183, -15287, 13967, -9868, -9172, -11945, 4532,-15094, 14772, -7541, -22029, 12686, -21009, 7864, 14430,12938, -1834, 12980, -3656, -16906, -16911, 15663, 7365,-15618, 8576, -6736, 10547, 9901, -13756, -16845, 10216,-17333, 454, 16493, 1983, -18657, -1357, 7664, 16898,-18241, 787, -8611, 17215, -13431, 14725, 10229, 19430,7797, 13114, 8760, -5739, 13689, 4229, -4841, -7580,-3975, 18176, -7010, 18589, -11177, 1616, -8119, -15411,-9538, 11118, -11706, 11021, -17336, 14293, 16876, -2115,-7459, -3978, 18335, -21088, 13468, -529, -2616, -15798,-17368, -14111, -17942, -3523, -6033, -14901, -753, -15396,2233, -7597, 7423, -6093, 8811, -10304, 3224, 7028,-10378, 13115, -4229, -18267, -12485, -6207, 2092, 8158,15347, -7549, -7226, 10060, 6718, -556, 2682, -967,5268, 13850, 19375, 3115, 19495, 7213, -16793, -5999,-13357, -16622, 12840, 3940, -12383, 18867, 12765, -17729,-18242, -5660, 6205, -13837, 17501, -1919, -15382, -4075,10247, -10131, 6921, -17102, 9687, 17511, -13326, -8657,16660, -12296, -9503, 6037, 7841, 12909, 9191, -2670,8043, -15435, 365, -15656, -7385, 14285, 19104, -16704,7340, -8257, 14091, -7935, 3507, 14184, -12679, 14080,12171, 11765, 2386, 2932, 16231, 3583, -11970, -12905,17451, 3294, 16286, -4999, 5941, -8035, -1634, 17856,-13464, -3706, 5948, 6769, 17704, -13494, -1881, 8060,-4190, -7969, -8982, -7260, -2934, 8353, 418, -3204,6641, 14347, -6675, 5301, -6650, -3611, -53, 14650,-12650, 1833, 14898, -9022, -1725, -5311, 12418, -964,-605, 11206, 9568, 2067, -9679, -666, -3529, 4223,-1650, 15487, -12822, -2456, -12926, 2552, -8759, 8948,-2369, 10286, -12980, 12589, -11766, 3039, -1989, -14354,814, -10043, 3877, 970, -15067, -3058, -5486, -2538,-3673, 3670, 13782, 13963, 3915, 11956, -3767, -14129,8493, 1904, -1100, 10926, 6971, 8038, -13228, 3424,2394, -8692, -7725, 7328, 12737, 12075, 2243, 1500,14759, 2943, 11274, -11318, 2802, 8311, -11180, -2949,4596, -8488, 9826, -14244, 3095, 14427, -8317, -16002,10548, 14466, 1665, -8995, -5801, -12142, -2038, 166,2625, 12401, 4880, 326, 7914, 8928, -2002, 3175,-12544, 6225, -2130, -1036, 4184, 10810, -10111, 3154,-14311, 12023, -12083, -8406, 5024, 6527, 7861, 10272,-15488, -5726, -14249, -11039, -360, 1375, -9680, -236,-1249, -8744, -6966, 13829, -12112, -7627, -12203, -10177,-12861, -9433, 1943, -5928, -6904, 5031, -5840, 10723,-13219, -11820, 8194, -11397, 10201, -3880, 12752, -14436,13462, -284, 3161, -12060, -1822, -10179, 10439, -5842,10399, 4240, -1894, 2340, -8904, 14847, 8537, -5242,-5649, -7559, -13105, -3074, 5688, -5886, 10413, -1165,-12384, 12375, -4917, -8865, -10209, -476, -8397, 936,5463, 1718, 11983, -14356, -4715, -6030, 1112, 7468,-2424, 5126, 10502, -4493, 8805, -4529, -4438, -3735,5392, 867, -13387, 13652, -1646, -2647, 6315, 3886,-12626, -2813, 8699, 11501, -2950, -5380, -1395, 1518,-6176, 15206, 4526, -15028, 6136, -8308, 5851, 570,-10116, 6210, -10056, 7360, -2137, 2320, -11727, -14062,8555, 1076, 1602, 1641, -7684, -10824, 1198, 9114,3454, 13482, 1002, 6749, -7126, 5613, -4055, 2934,-11533, -6568, 5822, -4531, -2774, 6382, 12576, 13241,9599, 6451, 13336, 12425, 4319, -2209, 3191, -10636,11005, 4719, -554, -2501, -7548, -925, 3507, -15630,8406, 2702, -13031, -11389, 1129, -5700, 3002, 6023,-6912, 480, -1731, 1862, 1340, 6481, 1433, -8986,193, 5138, 6656, 5737, 4180, 1422, 3883, -4596,-2222, 15, -6070, -4310, -4261, 1603, 6557, 7260,-169, -8848, 5627, -7491, 8228, 5629, 2090, 186,6201, 8656, 6415, -2708, -4809, -4716, -5437, 6397,-3904, 2406, 8805, -8954, 3089, 7450, -6876, 2673,6420, -3567, 5950, 6229, 4500, 4728, 7196, 3625,-3527, 7733, 3890, -1358, -1577, -4582, 4868, -5728,5256, 4106, 599, 6829, -6152, -4958, -7659, 6218,-2074, 7597, -1487, 3197, 3954, -6057, -3355, 3519,-7506, -2773, 3315, 4601, 5869, -8284, -5650, -4990,3914, 8754, 2926, 8407, 7031, 8452, 3257, -917,-6289, 11, 144, 6001, 8464, 8081, -1110, -1536,-1510, 2851, 6867, 2058, 8565, 2488, 3698, 4556,8460, 4775, 5444, -7408, -878, -5735, 8245, -726,-3120, 5596, -5660, -8032, -3967, 4777, 1966, 7474,-7522, -1035, -8474, 3836, -1564, -7362, 6010, -1067,-8079, -65, 7043, -6823, 7994, -1885, -3824, -3089,2064, 2464, -8274, 4812, -2411, -1103, -9039, -808,-4863, 2847, -7468, -2969, 3927, 1439, -4633, 226,3724, -1234, -4725, -1971, -8253, -2545, 4915, -7688,3739, 4847, 6507, -6564, -3746, -309, -2972, -6865,-1987, 5348, 5, 6052, 3910, -1539, -4492, -2069,8390, 8244, 5022, 763, -4738, 4380, 3293, -7700,7665, -1338, -3505, 3419, -4009, 5898, 4442, -1008,-5112, 6704, -7404, 7185, -5203, 1385, -4300, 8527,-5650, -6967, -1663, 3895, 6255, 5458, 3653, 5278,-290, -7194, 6103, -819, -209, -1418, 3075, -3753,7651, -4486, 6137, -3390, 8623, 7825, -244, -254,-5867, -4778, -3782, -7388, -6802, 6477, -2805, 4947,-606, -2613, 299, 2852, 6990, 1253, -7848, 2801,5708, -38, -6952, 4514, 5723, 5147, 4199, 780,-1979, -8080, -3973, -8186, -5037, -5852, -571, 6737,-6335, 7829, 1348, -6484, -7014, 6525, 4905, -8150,6101, -5021, 6264, 1746, -2453, 5763, -4796, -2190,1852, 324, -7369, 361, 2265, -5439, -7147, 7229,8045, 6925, 1765, -6936, 2123, 6339, 3744, 3910,-7805, 1389, -29, -996, 1845, 7612, 1339, -8734,-4613, 3896, 4595, 5766, 6415, -1140, -345, -2684,-8363, 4594, 570, -8602, -8845, 5558, 896, -8488,7294, 8262, 1257, 5814, -5593, 3283, 3494, 2336,4377, -3254, 5606, -1830, 2360, -8388, -1724, -7824,2241, -1967, 8138, 8242, 8628, -3754, 1776, -6860,-2403, 2355, 2181, 1577, 2057, 7290, -9113, 9376,2307, 5798, 5664, -6288, -3908, -7923, 5184, 1133,7699, -8393, -7869, -4840, 224, 2780, 3489, -8525,1319, 2502, 9123, 2267, -6888, -7624, -7098, 4851,9237, 8141, -4499, 1329, -8792, -1716, 6999, 6169,9413, -2082, 4870, 1456, 3865, 2060, -5121, 1884,-4658, 3431, -5022, 7601, -4299, -5996, 7740, 9485,8458, -3847, 2548, -777, -3121, -4251, 2019, 2500,-4331, 6793, 6394, 5192, -7279, -321, 4287, 5642,-2782, -2757, -2317, -6586, 3555, -59, -9284, 3234,-1459, -6492, 7406, 3408, 6883, -5230, 3346, 3919,-5008, -7518, -7438, 7546, -2598, 1497, 3986, 1677,2763, 3976, 2980, 5284, -9228, 1390, -6567, -6836,5299, 1342, -8041, 88, -505, 2057, -5762, 6269,-7469, 3727, -3212, 7354, 3400, -4788, -2693, 8785,7385, -6375, -1951, -1624, 1873, -2998, 1585, 920,9292, -7983, -6620, 4751, -7585, 2716, -336, 2351,712, 6285, -4718, 5813, 4202, 1375, -3261, -5140,-1458, -565, 2113, 539, 3176, 8791, -3549, 3975,-7845, 1498, -8036, -1373, -8054, 7209, -7190, 1226,4409, -1904, 2069, -8445, 4032, 8582, -2669, -1335,-2800, -6370, 1807, -1407, 8682, -7703, -8076, -4333,-1023, 7990, -6471, 4149, -5227, 2868, -2913, 1062,4315, 7999, -345, 3052, 3036, -5870, 1160, 246,7774, -816, -4515, 8238, -7762, 5445, 4508, 8008,6338, -6952, 2025, -1608, -2157, 266, -6416, 8497,-4105, -2495, -4107, -3693, -8235, 5689, -3256, -3350,7272, -6780, 9278, 8591, -6729, 8421, -7285, -5467,6998, -81, -5752, 3433, -3075, 3543, -4903, -4088},
{-2194, 6939, -5552, 3609, -7485, -396, 4919, 6781,-6604, -5497, 8101, 61, -4923, 5262, 8424, -7542,-3615, -42, 1054, -5479, -3675, -2287, 7063, 268,9116, 6969, -8234, -8244, -7082, 3484, -7484, 1563,-979, 5066, 4598, 7437, -7935, -7949, 7993, -2530,3648, 778, 6649, -3785, 2090, 4080, 4624, -7928,8544, -2364, 3541, -2086, -2982, 3456, -2284, -1549,2516, -7349, 7626, -5920, -2433, 5998, -5395, -82,-8628, 2841, -369, -1771, 6827, 2350, -884, -2732,-2259, -5356, -409, 6217, 6741, 762, 4904, -1743,1539, 3046, -4377, 521, 3977, 8007, 8007, 2070,8212, -7279, -1345, -5087, 4543, 894, -1845, 5411,1300, -1042, -1478, 572, 6713, 7148, 912, 2668,6566, 5668, 1500, 3507, -5493, 2245, -5211, -2212,4179, -2363, 2460, -8143, -1546, 5558, 2677, -3294,7909, -5962, -7466, -846, 8, 3762, -7064, -1426,-2334, -6514, -6529, -7342, 2144, -8084, 3238, 1769,-5948, -6114, -6021, -2927, -2755, 5113, 5401, -5888,203, 3723, 4705, 59, -4871, 6199, -5302, -7018,975, -7466, -7124, -198, -3308, 3685, -1167, 1936,7235, 7124, 8474, 2310, 5729, 7062, 6236, -59,272, 2672, 4038, -1168, -1247, 2021, -1358, 7677,6849, -7766, 829, 6473, 769, 5554, -3525, 7516,4552, -8083, 6488, 4879, 6789, 3749, 1072, 5691,-1280, -8370, 7836, -2815, -5466, 4981, 753, 8260,-2266, 298, -2712, -2501, 7752, 3866, 5293, -5340,4093, -3237, 1725, 486, 3043, 8911, 8858, 7062,6085, 647, 5753, 6410, 3733, 1379, -7357, 7054,-3911, 6137, 936, -950, 2599, 2907, 4898, 3582,-7687, -8676, -756, -2256, 2798, 7223, -6923, 6849,-5151, -6191, -4324, -2690, 3055, 2944, -6663, -8814,3825, -7860, 2720, -816, 5892, 3529, 3537, -2454,-5964, -7198, 2508, 3366, -8316, 595, -203, -525,1200, -3952, 2291, 2994, 2438, -3790, -416, 85,-4135, -3202, 3768, -3619, 5611, -6284, 7928, 460,-1690, -2009, 3901, -6915, -601, -2151, 7670, 2407,-985, -946, 1062, -253, 5559, -3171, -6550, 4763,6844, 6275, 1793, 947, -6860, -5687, -2090, -7149,6341, -4353, 6384, -1557, -5556, -949, -938, 6802,-506, 1001, 1184, 2073, -977, 6291, 6656, -4736,989, 4961, 517, -2617, -5266, -7187, -5213, -2860,4938, -4579, 7161, 374, 1737, -3574, 3284, 1672,-3535, -7017, 4348, -1464, 877, 2551, -5753, 2835,3921, 4958, -727, -1586, -4436, -1524, -3342, 575,-6335, -7997, 4385, -893, -3386, -3512, -7092, 3309,-861, 4409, -5800, -5304, -4349, -519, 332, 6852,-3269, -1964, -1363, 6, 4204, 4648, 244, -3177,6940, 1959, 6869, -955, 2107, -5241, -14, 2509,-573, 3139, 179, 161, 154, -6509, 2745, -6534,7069, -2565, 2900, 1521, 931, -5452, -262, -95,859, -3535, 7198, 787, 4262, 3427, -737, -6046,4830, 3156, 2023, 7247, 1886, -1128, 2143, -1777,-2833, 5564, 516, 4883, -3597, 927, -3230, 27,3810, -2741, -4589, -5863, 2036, 1711, 2838, -1570,3729, -6350, 5735, -4282, -535, 1604, -2200, 7177,4840, 58, -2754, 5198, -5495, -2825, -5970, -4408,-1422, -7424, 2436, -6468, -3695, -5954, -1193, -4880,-4905, 391, -2495, -4402, 5455, 5692, 5188, 3,2978, -1471, 2234, -4103, -1981, -3992, -5828, -5321,-1475, 7499, 3413, 4873, -2658, -1063, -1074, 8000,4718, 2390, -2709, -4760, -4250, 5167, 716, -3400,5723, -2942, 6841, 1656, 2100, 5132, 1138, 5562,-772, 1677, -1789, -6518, -2428, 6569, 5113, 4582,4453, 993, -6623, -6452, 4466, 5443, -7239, -4227,-1535, -2452, 6636, -6344, 3446, -6027, -5579, 4742,-5564, -1759, -7220, 6139, 2062, -5863, -2760, 6688,4855, -467, 4937, 521, -5213, 7217, -2533, -2420,-220, -4416, -353, 5258, 1573, -3602, 1138, 6889,6392, 3195, 5061, 7132, -5195, -5913, 4762, 7298,6368, 6078, -4525, -459, 7282, -8225, 1444, 5284,-4875, 6470, 7857, -768, 3492, -5376, -3909, 843,5565, 6654, 3133, -6466, -216, -5034, 6131, -1551,-866, 1061, 6165, 7329, -1742, 12455, 1203, 14560,8316, 3165, 3223, -3330, -4673, -16473, 3663, -10543,14666, 1122, -14634, 5675, 3639, -92, -3980, -1401,2058, 9491, -1834, 12339, -3244, -13313, 13660, -15855,-7829, -3134, -6003, -2587, -13039, -9323, -767, 6302,9179, -3719, 1123, 6617, 4213, -13576, 13715, -5460,2003, 2505, 4336, -6654, -4883, 14396, 9983, -10292,1240, -9869, -7007, 6207, 12440, 13154, 11684, -11477,-12521, 9242, 16013, -12470, -5147, -14048, 12950, 7927,2096, -15354, 8584, 12466, -8849, -4278, 1007, 4280,14865, -11731, 9767, 9489, -1410, 5034, 10842, -34,1600, -12431, -15361, -9979, -12191, -7124, 4391, 7425,-2612, 5119, -4076, -4110, -2719, -7705, 13598, 8934,-9695, -3634, 15405, -7610, 2061, 1283, -7970, 5868,5247, -1389, 8014, -2023, -11419, -10966, 10271, 15303,-3765, -2839, 9764, 14218, -14096, -414, -3321, 14433,-10199, 11860, 15966, -4190, 4216, -14326, -14167, -10040,-4608, 2908, -115, -11623, -1227, -6546, 12951, -6303,-9911, 5543, 15892, -11552, 3347, -304, -7251, 15015,-8562, -5202, -7922, 11217, 8680, 8307, -9883, -1610,4489, 13125, 9348, 5617, 14137, -16300, -2143, 15536,11156, -12565, 15097, -1601, 9722, 873, -9890, -956,12187, -16248, -4572, 14620, 5084, 9902, -9777, -14676,4323, 13583, -13729, -6837, -8498, 5745, -3113, 4380,-229, -5687, -5124, -3298, -13884, 4115, -3414, -13491,-11770, -5428, 4080, -4369, 864, 3694, -264, 13223,9597, -15540, -3528, -3786, -1515, 2478, 5612, -1449,310, 10040, 4633, -9396, -891, 12255, -7741, 3270,13654, -1028, -6908, 10133, 9594, -5297, 12181, -7032,-12169, -14287, 3204, 5980, 5830, 8693, -261, 9816,-14508, 5986, 7845, 3293, -13334, -13654, -14876, -3900,10928, -5511, 11854, -3222, 11904, 16208, 542, -9939,-7776, -15535, -4552, -11320, -13119, 10747, -2101, 11618,13088, -4704, 13336, -6242, -12266, -4346, -8461, 4677,-3505, -2002, 2180, -11181, -837, 4579, -7440, -15814,417, 2756, -7709, 8754, -13581, 8119, 3054, -11615,-10275, 13353, -899, -2109, -1153, -9751, 11116, -1963,12655, 15746, -3242, 7435, 2242, 3179, 506, -1521,-2719, -10578, -5730, 3292, 14876, 10228, -5146, 1618,16157, 12455, 1290, -320, -2806, 6341, -11900, 2608,6011, -13103, -10778, 14599, -9886, -8444, 15718, -12783,5160, 13114, 7361, -11336, -1674, -12696, -15035, 1551,481, 15511, -3705, 13003, 14095, -12209, -18005, 10771,-4249, 6456, -13026, -13877, 15396, 9054, 5925, 9874,11884, -11793, 15313, 3822, 2543, -2787, 4062, 398,1144, -4862, -5321, -13401, -14733, 7931, -11356, 2704,-1052, -9630, -14778, 8218, -2185, -3705, 8515, 370,-10673, 3042, 14913, 16122, -553, -12795, 2277, 8533,-11917, -14392, 7531, -1127, 13004, 6471, -7496, -112,4697, -4625, -8018, -12497, -16373, -1688, 1470, -14660,12882, -4320, -12008, -12798, -7633, -11200, -10570, -15405,-10959, 9665, -5664, -3780, 13149, 9305, 3263, -8518,1083, -11897, -12349, -6665, -14525, 6546, 6416, -13610,1127, -5349, 4131, -7836, 7730, 12203, -15962, 8304,-11848, 12675, 2846, -3250, -13020, -11969, 12787, 10690,6340, 15395, -8538, -11158, 14940, -16533, 3770, -8704,-8538, 10273, 14110, -11048, -13679, 2976, -8060, -13872,10844, -7201, -9197, -4079, 5773, -12839, 10858, 8499,-2029, -11461, 6299, 2704, 14100, 13885, -4177, -11292,-5670, 7832, 12991, -10293, -8365, 13826, 8192, 14412,2941, -8646, 16385, 6332, -16563, 2664, -11612, 9378,10932, 887, -9259, 6715, 3086, -5849, 12801, -5542,13983, -5707, -14041, -6542, -13348, -9349, -876, 14995,5142, -342, -14840, 7733, -1695, 5661, 4077, -16026,-11924, 5587, -7380, -7163, 3186, 4056, -802, -12305,7012, 13538, -13202, -2441, 17367, 14488, 8319, -15694,5355, 3698, -4954, 2066, 4850, -12262, -12666, -15481,-8615, -8281, -2150, 14470, -12168, 11575, 11581, 5620,12118, 9263, 13133, 866, -11356, 13012, -2824, 739,676, 149, 15061, 5784, 11946, 1864, -14148, -4394,6886, -10809, -6186, 1851, 3463, -11765, -8406, 10559,17317, 3925, 13951, -10400, -5078, 7696, -3523, -222},
{-5568, 3157, -1751, 3320, 3080, 2037, 1556, -1482,-1303, 2530, 2549, 4092, -2011, -1315, -6012, -2375,3602, 5140, -3898, 134, 3842, -1798, -3454, -3785,3554, 2175, 3670, 1205, 2994, -5584, -1249, -1953,-4371, -1935, 2138, 3361, 5861, -4171, 4059, -1651,3287, -47, -793, 5868, -3685, 1682, -1931, -4944,-5256, -6013, 362, -3279, -293, -1812, 2932, -2483,2220, 5922, 659, -119, -3929, 2924, 1783, 309,-6756, -3330, -3953, -6002, 2412, -3212, -5086, 2599,5312, -5214, -3091, -3485, 5365, -7069, 303, 4256,-3506, 2207, 966, 4333, -5693, -1654, 4965, 530,-3575, -5724, 1317, 4264, 2633, -4324, -4217, 6454,2166, -6140, -1656, 347, 5098, -5913, -5666, -5221,1775, 1416, -3357, -6524, 3268, -3863, -1289, -731,1590, -2718, -5516, -3460, -3450, -3392, -5067, -4858,2288, 503, -4310, -5486, -778, -2790, -4985, -936,-4724, 3709, -2193, -1178, 1980, -271, -6245, -314,1441, 3085, -3072, 1213, 4316, -7511, -2737, -956,-4024, -4304, -1733, 4529, -1351, -4529, 1992, -4421,5410, -664, -6400, -2735, 3989, -2640, -1216, 1979,-5754, 2488, 4051, -717, 6188, 395, -6254, 5673,4364, -3275, -2788, -4760, -2799, -4864, 944, 2947,-3500, -4563, 3655, 1428, -3926, -3504, -1492, -4630,-1791, -6076, 2446, -3782, -1855, -2149, -1602, 4591,5001, 5491, -5595, -2473, 1868, 2401, 211, 4490,2038, 3827, -4188, 4884, 5433, -2464, 5900, -3491,-6716, 5293, 2808, -1808, -5549, 3272, -1766, -3172,4065, -6179, -4171, 5373, 3446, 897, 4415, 1613,-5501, 188, 2276, -4528, 926, 2271, -1029, -3857,-5803, -959, 2973, -5507, 1071, -2263, 1638, -3850,2684, -6491, -1262, 6340, -4021, 2409, -3748, -6469,-6611, -6471, 5549, -642, 4259, -2903, -4857, 2688,4480, 5733, 3507, -2630, 3383, -3695, 86, 5457,-2795, -3969, -5750, 2569, -5238, 262, 3065, -5438,947, -3794, -5322, -5751, 939, 2967, 2095, -888,5526, 4675, 5517, 3122, -1915, 765, -3194, -4523,-29850, 888, -3863, 9350, 14088, -14334, -11861, -15370,8981, 3601, 4783, 4430, 23307, 19548, -10243, -4261,-1150, 27314, 1597, -17530, 25532, -20255, 2503, 7067,-16689, -1506, -15906, 13418, 6895, -911, 25812, 11842,7420, -1835, 21340, -22907, 16556, 25713, 23372, 25408,-21894, 14356, -11750, -14887, -17402, -579, -11797, 580,26736, -13384, 15002, 23998, -5000, 16221, 23135, -24430,26452, -27653, 6363, 2681, 12334, -27880, 867, -4218,-21121, -16973, -2292, 4387, -21034, 26123, -18042, -20292,-21515, -20061, 1057, 2834, 21906, -13046, -16747, -27263,23726, 21061, 17283, 17886, 26461, -13809, 4157, -18757,20525, -23785, 5514, -13712, 20094, -18066, -18063, 8351,-26035, -24088, 14856, -13148, -6274, -24507, 16065, -8199,-6941, 1960, 16324, 21252, -4422, -9397, -11331, 11726,-20023, -6111, 13523, 8637, 3073, 2415, 29394, -27890,19654, -18554, 4718, -22525, -24895, 3137, -25087, -5132,-19791, 23044, 20858, 5719, 8275, -23669, -18526, 3805,4629, -21402, -11928, -20131, -21475, -25017, 27116, -18447,1571, -27354, -10576, 18626, 164, 4521, 15234, -12958,-19519, -16501, 16020, -219, -8980, 3713, -21859, -5486,-21310, -25346, -17626, 8571, 22723, -18180, 14614, -25298,-6269, -7322, -13057, 17553, 16582, -9032, 23556, 21884,-14759, -15777, -1150, 21239, -5360, 28009, 14583, -9965,21040, -18288, -22738, 20521, -15892, 12704, 18435, -9979,9159, -23402, -13737, 12994, 24864, 23993, 17378, -3694,13812, 4966, -26143, -12744, -12147, -21845, -10472, -2958,-14107, -1207, 28120, 16522, 11141, 27561, -22133, -16876,-18623, 11734, 13233, -21749, 1283, 14786, -21984, -20671,2562, 2191, 3200, -17877, 11493, -20740, 17364, -6135,15538, -26582, -21953, 18242, -21519, -17479, 20359, 23716,-7319, -6626, 19002, -23791, -6794, -15612, 15348, -23040,21952, -26509, -13841, -24436, 20298, -7540, -15281, 18688,-27872, -821, -19754, 631, -16821, 9468, 5412, 23085,-6686, -18867, 22940, -23531, -5064, 13711, 23714, 15765,-8096, 21789, 7380, 15103, 19286, -4645, 27713, 11700,4911, 14105, -15805, 18486, 22095, -17934, 12572, 15329,-22683, 2198, -8712, 9649, -171, -7464, 17717, 11428,9145, -9335, 6854, -21560, -16043, -15832, 22384, 12413,14927, 15495, 2024, -16058, -6105, 12253, 15941, -9900,-5786, -20304, 21802, -2295, 24445, 13949, 17166, -13780,4305, 1194, 14235, -15631, 12736, -3025, 19649, -20375,13444, -9578, -15694, 17376, 18766, -23463, 395, 861,-16866, -19747, 15786, 11016, 3966, 22580, -21841, -5560,20113, 11850, -9592, -24000, 19713, -17260, 12783, -9092,-27478, 17531, 26068, 3760, 13935, 16435, -22944, 2731,-2053, 23367, 11762, -11373, 19101, 16394, -24069, -3333,-9970, 5963, -2872, -19417, -12118, 5166, 22810, -18121,22028, 10352, 24807, -12934, -20338, -24636, -12678, -16097,-25331, -6696, -12736, -483, 18954, 17025, 13986, 1342,-605, 23268, -20150, -3629, -7915, -7876, -2804, -7581,-24669, -22709, 1542, 7892, -20556, 16609, -13397, 23515,-9014, 5462, -8378, -2574, -23999, 21899, 6569, -21693,1039, -17726, -19349, 8282, 473, 2001, 15809, 17955,5616, -1233, -25706, -9724, -23508, 6297, -17837, -17825,17512, 8559, 13552, 9785, -2106, 18664, -18632, 16950,-18589, 1382, 21199, -19823, 14617, 20620, 1920, 13461,-22403, -2371, -23429, -5247, -10590, -19855, 6404, 2091,15871, -1768, -17588, -3730, 19123, -16916, -13958, -13531,-6928, 11698, 4477, 2402, 17608, -20876, 824, 14491,20276, 19583, 14829, 21950, 7911, -11097, 22121, -11762,-7501, 11682, -6007, 19103, -9835, -20045, 307, 11891,-7201, -14122, -23454, -684, 8236, -11306, 15132, -12228,10703, 21569, 12674, 6507, 13046, -3756, -3404, -14624,-15515, 2727, 9687, -665, -13541, -9285, -24515, -3357,-22614, 15582, -10033, -10360, -10398, 8191, 25020, 16562,-22252, 10882, 1389, 23562, -3560, -17153, 8507, 7411,25332, 11935, 3578, 7440, -1445, -12887, -15803, 15306,24006, 4607, -4861, -24993, 24036, -20379, -21335, -16325,4724, 17081, 17655, 4314, -1450, -16991, -14275, -3268,18031, -14515, 1333, 14786, 19431, 21061, 9152, 14746,-9065, -18110, -5106, -4719, -1294, 25273, 7243, 6226,-5434, 7634, -6792, -6664, -23471, 4894, 10313, 10374,2442, 7443, 4359, -5019, 2695, -10129, -9370, -10396,-2963, 3386, 3392, 1322, 1134, 9525, 1042, -3199,-8744, -7521, 1227, -7175, -1478, 10980, -8390, 3365,-10184, -7957, 9026, 5351, 10165, -3885, -6767, 11060,-3668, -6634, -1778, -10275, -5982, 7481, -2000, -1540,11252, -6662, 8297, -4908, 6235, -4769, 6020, 7264,-6012, 8220, -7762, -9501, 9644, -315, -3875, -1558,498, -3064, 1444, 4579, 4922, -5608, 3890, 4135,3324, 171, -5466, -11063, -6911, 3999, 4499, -9608,-1510, -5172, -5350, 9845, -5765, 5394, 1099, -2650,-2619, -5892, 3958, -2918, -8165, -75, -425, 8218,8238, -10225, -7208, 7668, -2799, -4112, -3242, 3206,-6129, 3643, 4534, -9362, 2852, 6138, 2319, 5885,5106, 681, -4238, 4803, 1734, -3907, 6494, -9229,5057, -5807, -3724, -5095, 9461, 8235, -295, 3806,-8092, -10469, -8343, 4648, 6005, 265, 2586, 2536,-5236, -10127, 4516, 9607, -10469, 8692, -1599, 264,-10027, 1696, -3585, 4146, -11055, 5962, 1570, 8390,-7381, 477, 6506, 8921, -1206, -8749, -9838, 13,-5509, -4933, 5421, 9022, -7669, 9361, 7945, 10212,2864, -2451, -40, -7599, -4490, -2772, 8601, 10393,-6950, 709, -1037, -5222, -7446, 9551, 1345, 7010,6715, 4173, 6283, -1409, 1984, 2107, 5476, 7656,1776, -3135, 7200, 1803, 6741, -4763, -2116, -9070,3928, 9106, 10315, -9588, -8746, -7360, -2786, 1690,8223, -9578, 10331, -5572, 1951, 10944, 7592, 353,6929, -8911, -2985, 11164, -3266, -4074, 10733, -4602,-7738, 4603, 8708, -6072, 7544, -5989, 9443, 7434,-8740, 9427, 803, -1518, -5579, 9005, -4841, 5770,-8608, -5431, 10454, -1715, 3121, -8687, -4616, -1626,-9315, -1924, 5700, 2517, 1621, -6394, -2341, 11998,-2507, 6670, -5706, 4627, -5838, 5863, -761, -9981,2620, 10818, 8071, -9296, 5228, 9456, 7205, 10800,-8097, 1926, -9319, -6333, 9262, 7282, 2536, -1901,-1023, 7800, 2643, 3130, 9428, 8640, 11083, 8040,2307, 10432, -10068, -9740, -9865, 6324, -1451, 4299},
{-7268, -11866, 6934, 9430, -13924, -19571, 3450, -2337,12074, -10251, -471, 12361, 6820, -15232, 19302, -283,6691, 2635, -7439, -5552, -2568, 6679, 7620, 1183,-10689, -10289, 360, -7297, -18647, 14582, -16279, 15770,11726, -835, 8312, 5772, 13689, -17220, 6007, 16274,-3738, -2616, 18054, -4738, -9522, -19835, 12037, -12945,5041, -6852, 9629, 2371, -14246, 16444, -14002, -14514,-3620, -19714, -12886, 11805, 19260, -15541, -13388, -19066,10412, -3802, -696, 10314, -1698, -9154, -410, -2142,-2149, 9315, -2741, -12288, 13906, 964, 4149, 3578,-9946, -6023, -8241, -13929, -3928, -8254, 927, -2256,-1495, -16496, 1373, 7038, -14538, -461, 7132, -4180,-18166, 9218, 8204, 6808, -9279, 6805, -13585, -11009,5772, 16294, 11371, 382, -18173, -3801, 7512, 3269,-11416, 877, -15715, -12138, -8919, 19632, 9543, 9024,-12747, -8698, 7383, -1889, 14040, -8079, -6827, -1244,13763, -19374, -1147, 785, -4640, 3952, 13160, -15884,11859, 3404, -6965, 7219, -15727, -3824, -3615, 846,531, 2306, 4925, 336, -8757, 15614, -14665, -18199,-1669, 276, 12844, 17313, -11184, 1004, 15822, -9092,527, 2690, 19625, 11198, -11283, -2396, -2119, -14669,11639, -2733, 9032, -5229, 4685, -10134, -13000, -7446,-12587, -7155, -7950, 7139, 11315, 17804, 15305, -12699,-14762, -12478, -16880, 7970, 5197, 17888, 758, -23537,12548, -14352, 18339, 265, -19516, -20822, 9849, 5905,-8227, -14949, 2128, -6681, 11489, 592, -18516, -6791,12271, 19393, -13737, 8818, -14558, 2911, 721, -3585,-6670, 17463, 11774, 9215, -19791, 7972, -5817, -4449,-14820, 1534, 9909, 14060, 8087, -15809, 4040, 16786,-9774, 2939, 3388, 15483, -7008, 10557, -4735, 1613,10118, 13921, 16520, -14181, -12341, 5527, -1921, -14565,10772, -5138, 4666, 14641, 13466, -10139, -2350, 5348,-15568, -19190, 13869, 5871, 16983, -16977, -15481, 15305,7213, 12175, 16986, 4378, -18740, -4085, -3336, 3731,-6378, -12465, -17953, 3473, 13853, 18496, 15922, 8652,5240, -5383, 1498, -18, 11680, -6988, -1566, -15649,-1355, -4867, -3323, -930, -3977, -29, 4574, 3267,3715, -302, 3228, 635, 2495, 3443, 642, -372,2344, 2803, -2398, 2739, -5075, -1861, -2661, -1009,-3181, -814, 2967, -1734, 2887, 3840, 1761, -338,571, -2432, 239, -1120, -1930, 643, -3231, 1965,2757, -5569, -5373, -3615, 1206, -4172, -1423, -4751,4021, -3691, 1357, -645, 1983, 3149, 1568, 116,4228, -4705, 2989, 1372, 2651, 1572, 2186, 936,2798, 3444, -3839, -2915, 3055, 3316, 207, 4798,1547, 619, -2404, -3015, 1686, -3294, -1571, -2417,-4159, -4055, 2503, 3438, 3360, -3928, 572, 1041,1772, -4494, 2155, 4128, -864, -768, -260, 914,178, -2094, 879, 602, -126, 3347, -1446, 2031,4162, -2945, 3695, 1401, -2160, -3808, -1174, 4455,3796, -4039, 1469, 15, -1406, -2332, -2344, -4150,-1960, -4098, -2272, -2921, -2289, 3484, 647, 1307,-2574, -701, 4168, -1796, 2597, -2982, -877, -945,-2679, 3554, 1466, -2093, -2410, -3731, -4212, -2041,3335, -954, 1035, 3736, -487, -3323, -962, 2242,3012, 3600, 1039, -3719, 4538, 3718, 26, -3558,1900, 2770, 2516, -3138, -3431, 743, -3990, -1616,5270, 3681, -2844, 1186, -873, 1722, -3731, 4578,8, -1580, -1081, 1985, -757, -1010, -2632, 363,-1792, -1137, 4054, 3917, 3061, 3665, 463, -4312,-695, 1602, 1295, 1916, -1587, 1319, 2248, -3996,1807, -52, -1028, -1690, 5155, 4090, 3694, 4380,3886, -4037, 4228, 2925, 3573, -1277, 4381, 3214,-482, -576, -1967, -2169, 2741, 198, 3778, 2140,-2987, -3590, 556, 3863, -3470, 1850, 1701, 2888,-4214, -1803, 1141, -3795, -4563, -1873, 548, 237,-3106, -638, -80, -1895, -985, -3344, 1645, 4056,-5513, 2152, -3305, 3757, 2322, -4281, -4611, -401,-3943, 1428, -1453, 2377, 4267, -3406, 2302, 3758,2940, -1743, 3657, -2758, -3710, -3565, 4540, -483,-4969, 2636, 4665, -968, 3463, -3574, -360, -3076,-2769, 4735, 3987, 2486, 3092, 3463, 5096, -2288,6517, 3028, 655, 2273, 1178, -5188, -1118, 1695,3214, 1933, 1636, 6110, -7984, -6861, -558, -120,181, -2183, 4748, -2411, 7755, 6375, 3534, -4636,-8016, -9064, 8019, -1460, 7599, 993, 8132, -4989,7637, 5649, -4743, -6835, -6631, -4438, -9621, -3169,5415, 3713, 7145, -7883, 4805, 1548, 401, 4022,-2301, 6647, -1753, 357, -893, 143, -399, -5821,4800, -477, -8251, 1438, 1890, 1939, 363, 4009,343, 2316, 2290, -6652, -5553, 1866, -3086, -4487,5654, 7939, 848, 3848, -7687, 2808, -8627, -1067,5710, -1090, -6904, -8094, -8386, 6691, 7797, 4708,4749, -8092, -2350, -2699, 7493, 2892, -8991, 2503,-3571, -3947, -9957, -675, 6369, -3425, -2443, -1102,231, 3201, 8760, 7874, -7947, -1234, 6268, -4949,-8899, 7750, -8308, 7056, -7958, 1925, -6029, -6931,6932, 298, -1899, 1819, -6391, 2449, -6751, 3851,-4834, -8009, -9120, 4650, -1271, -308, -4441, -8301,8810, -453, -7022, 3910, -1665, 7024, -8211, 6877,3082, 5935, -7919, -6748, -953, 1415, -6539, -1183,-4961, -3518, -6021, -1825, -5540, 7237, 8395, 6718,-6581, -8264, -9536, 2555, 6558, 2361, -5330, -3482,5885, 6700, -4548, 965, -7985, -7103, -4261, -992,5410, 3546, -7450, 6826, 4751, -6344, -8143, -2347,-3843, -4159, -4763, 6080, -6541, 3777, -1539, -5907,-4599, -6830, -3057, -4712, 3876, -7918, -2531, 979,1558, 1838, -5336, 2320, 3084, -2729, -151, -7894,4220, 5852, -570, -1060, 145, -582, -8618, -6241,-5388, -235, -1215, 1717, -4735, 3236, -5196, 269,-6417, -1228, -3402, -503, 2422, -2629, 1904, -22,5725, 3206, 4343, -429, -6529, 7279, 7732, 3138,4871, -6553, -3558, 6500, 6916, 3225, 5436, 1702,-7262, -4596, 5776, -4908, -4869, 539, 3681, 1188,5681, -6897, 269, 3464, -2491, -4260, 7731, -6827,-829, -3316, 4297, -8446, -3262, 2044, -6195, -8099,1267, 3948, 6967, -8724, 1857, 976, -1529, 2000,7354, -4903, 7705, -3072, 5406, 186, -6815, 4085,8481, -7850, 7047, -5773, 5200, 8311, 591, 11317,-9250, 7445, -8535, -778, 1628, -425, -5847, 6053,9342, 3203, -31, 6278, 1010, 3173, -4853, -5274,4324, 1647, -2306, -5323, -1730, 4594, 3700, 2179,-3892, 7899, -2104, 6124, -7967, 8945, 3049, 1501,5480, 4118, 8227, -7258, -2367, 5780, 6324, -5495,-5593, -1741, 2478, -2569, 5040, 8589, 2560, -4338,1721, 6719, -5284, 1664, 2552, 3267, -7164, 1485,6882, 6243, 890, 4537, -585, 5434, 4441, 10954,516, -5565, 2779, -3299, 388, 2489, -4337, 4721,-8945, 4227, 738, -5848, -9246, 10259, -3614, -5625,-1273, -4693, 6405, -4616, 7623, -3209, 5154, 3942,-4954, -4271, 2158, 4302, -6326, -7975, -8157, -3110,-2530, 4063, -6455, 7320, -548, 1444, -2067, -44,3446, -5350, 8338, -8560, 4188, 6795, -9129, -4034,3923, 4014, -2999, 8188, 5344, -4466, 9681, -4868,-8250, 1112, 10236, 2627, -325, -7409, 2484, 6400,401, 4261, -7957, -2397, 6155, 7050, -5385, 3677,-2718, -9010, 6207, 5124, -953, -4309, -217, 8875,7270, 4699, 2819, 4703, -3643, -7297, -5331, -2524,-7137, 2074, 3716, 5731, 1116, -8, 5381, 3360,9424, 5499, 8621, 2185, -7062, 8716, 5313, 978,-5735, 2161, -6537, 2125, 4532, 3660, 3324, 5238,-6435, -6065, -1927, -6223, 7946, -7742, 3633, 8860,3106, 7524, 6841, -593, 9310, -5958, -6605, -5699,2194, -8621, -4499, 983, -4093, -4492, -6170, -2505,5181, 2366, 1376, 6621, 7979, -1986, 279, 4006,-974, -4917, -9125, -103, 5813, -5346, 3395, 2189,-7866, -3281, 4485, -392, -7963, -3353, -6, 11475,-607, -7422, -216, -5393, -10932, 1573, -256, 8441,390, 7505, 3508, -7585, -3329, 1896, -2535, 3576,-9946, 7676, -7875, -1400, -4324, 8221, -7131, -6125,-7905, 8498, 7757, 1427, 4911, -6312, 3492, -6155,1435, -6779, -8467, 6994, -7349, 3835, 236, 2751,6591, -8030, -657, -7676, -1302, 8206, -2970, -3158,4323, 1576, 9332, -3682, -3667, 399, -1810, 7091}};
static BiasActivation<CONV_LAYER_1_PE, CONV_LAYER_1_ATILES, conv_layer_1_bias_dtype, conv_layer_1_acc_dtype, conv_layer_1_output_dtype, conv_layer_1_m0_dtype> conv_layer_1_activations = {
.m_bias = {
691474478,
267901579,
168048972,
211710379,
125728123,
-150955687,
151468794,
321268591,
291491491,
-177712015,
134703072,
-153777739,
-50616649,
272748884,
143873837,
-46672854,
67761351,
204105707,
-198897721,
-120330736,
-164770120,
-82844574,
-10830362,
36273693,
265030181,
322059916,
-92340714,
-135389827,
241378546,
-79392007,
257962935,
-166995611},
.m0 = CONV_LAYER_1_M0,
.zero_point = CONV_LAYER_1_OUTPUT_ZERO_POINT,
.min_val = ACT_MIN_VALUE,
.max_val = ACT_MAX_VALUE};
static ap_int<CONV_LAYER_2_WEIGHT_BITS> conv_layer_2_weights[CONV_LAYER_2_PE][CONV_LAYER_2_WTILES][CONV_LAYER_2_SIMD] = {
