#ifndef DNN_PARAMS_0_HPP_
#define DNN_PARAMS_0_HPP_

#include "dnn_config.hpp"

static ap_int<CONV_LAYER_0_WEIGHT_BITS> conv_layer_0_weights[CONV_LAYER_0_PE][CONV_LAYER_0_WTILES][CONV_LAYER_0_SIMD] = {
{9018, 9120,13987, 12113,-3226, -20369,-16600, -14351,-11226, 13142,-13724, 1407,9076, -10466,-7922, -2567,2118, 1925,4766, -5087,-8231, 2829,2524, 8566,13335, 3991,11321, -4735,-11190, 4980,9795, 14277,7283, 7517,-11611, -12132,-10798, 15863,-17058, -3351,6571, -7506,-20965, -3331,-9150, -8605,17159, 18237,-1239, 8439,-16966, -5666,-2525, -8580,-3288, 11696,-7195, -13980,-1772, -13534,-18386, -19023,-6120, 19440,-10600, -3269,-11135, 9896,-8235, -3512,-17302, 19933,2924, 10513,8300, 4458,-9687, -1302,-7428, -16366,-13052, 11520,10545, -5084,11624, 3478,2977, -5072,5055, 21001,-19821, 5908,3378, -16902,-12238, -23437,8371, -5530,-4660, 3534,-3017, 1634,5484, -8165,-17259, -128,17162, 1847,-20078, 6647,-14499, -1561,-4489, -17557,-9900, -11367,8122, -10776,3017, -12280,1870, 10060,-16738, 10858,-9764, 9699,1869, -5186,-16456, -11429,6030, 11499,-9811, -4332,4364, -11368,14193, 1129,-10405, -379,16851, 11554,-6830, -6516,-19910, 6700,-2880, 11090,14191, -14426,-17446, 2322,-3938, -4705,872, -7660,8388, -13393,709, -367,14534, 11269,1959, 1012,-2218, 858,-348, -864,-2032, -2797,1633, -4044,-2751, -3001,296, -4007,3056, -3469,859, 567,-1927, -3051,-121, -3594,2938, -3317,2968, 1655,-1999, 2505,-2508, 1864,-3748, 74,2831, 705,-1362, 1557,-1037, -3340,-4043, 3245,-2796, 2957,1881, -3746,-3292, 3606,-2854, -3126,822, -3853,-1006, -2177,134, 2171,2767, 2481,-1721, -4104,-3438, 2856,-4278, 951,-741, 612,-313, 846,3242, 1491,-2998, -4671,-4020, 710,-1698, 1519,3144, -1224,2780, 694,1711, -1424,-2309, -3560,3042, -1948,2838, -3195,3801, 711,2916, -4158,404, -2830,729, 3395,1192, 3134,551, 1102,-2859, -1995,2653, -1106,-2770, -2675,2812, -1678,-447, -2275,1048, -4218,-774, 1207,562, 1877,-2769, 1660,2514, -1675,-1325, -2569,1566, 1708,-687, -2294,-3237, 401,3758, 1191,-3464, -3122,-2813, -3311,-361, 3922,785, 427,-3137, -3114,2165, -1786,-132, 3219,2267, -252,683, 450,1840, 1234,-2414, 4551,-2318, -3524,1415, -1349,-2227, -3074,-1847, -2834,599, -3522,-382, 3008},
{-5403, 23475,2646, -934,-20644, 32604,28173, 934,5712, -14567,-13685, 634,-16438, 24980,17013, -15921,-8674, -14372,20703, 24062,30037, 18879,5286, -19344,-5121, -24029,24944, 9483,14452, -11812,2262, -19355,15234, -26627,-21842, 21951,14076, 10868,2685, 8061,5494, 26246,32711, -26108,-14011, 14494,-20952, -25788,22750, 28188,2994, 15942,-1587, 23776,-11187, 17932,-26662, 2467,8057, 20471,-19641, 18945,3862, 28678,27025, 24003,-6271, 19863,-20409, -1039,19579, 1352,-18780, -27414,8627, -1251,31804, 11840,1439, -19138,-9042, -28938,9907, -24525,23958, 32767,-18957, 6637,-10220, -25058,-15910, 5948,-4235, -8511,-13161, 15761,18647, -17352,15590, -17896,8451, -25494,-3372, -765,16189, 2868,8692, -27698,29420, -17390,9302, -17805,26057, -6184,9430, 26692,20180, 22730,-6358, 13618,9372, 9046,8481, 23417,133, 19151,25647, 27328,8447, 2096,2308, -10072,9416, 17430,13768, -22669,-21793, -26247,27980, -8137,-17353, 23185,25794, -12307,22716, 4671,11974, -25047,27586, -13536,-14945, 5542,-12263, 19030,4147, -20630,32381, 3856,-16237, -19940,6376, 19413,-2133, 3687,3171, -1501,463, -664,-2567, 983,-1351, 1221,421, -4409,4415, -4169,-2973, 1823,-3228, -531,3277, 3635,3596, -933,-2818, -3733,1259, -2603,3175, -328,-4165, 3247,4346, 246,1086, -447,-211, -1829,2953, 741,-705, 378,1796, -306,1411, 3449,2170, -2536,3350, 3347,-2945, -519,4888, -4331,2813, 2689,1866, 2612,-3603, 372,1232, -3906,3503, -2701,780, 946,-4310, -3855,-2913, -2459,-2462, -2440,1495, -1024,2230, 52,2530, -1135,-2785, -4773,-2182, -2738,125, -4047,-565, 457,2712, -3899,4428, 3062,-4262, -2325,-5251, -2490,1273, -1252,309, 2634,-3500, -2452,-576, 3346,799, 3338,-3565, 3890,735, 1869,-1816, -4153,-1319, 1392,-4762, 290,3837, 448,-1612, -4236,3762, -4339,-686, -4532,-2719, -1863,-4655, 4302,-1398, -3596,-2800, -895,-4129, -1670,303, -749,-2478, 3251,-1751, -4193,-1830, 1480,-827, -4496,2232, -3024,708, 4465,291, 4312,-1139, 268,1796, -1159,-3025, -1304,1, -1780,3930, 341,1323, 738,4522, -4488,-4580, -2688},
{-1104, -80,1865, -21093,12304, -17685,-19065, 373,11853, 12713,-16715, 3233,16253, 3350,21107, -9832,7234, 21265,1653, -5951,5823, 2297,6365, -9169,-18088, -3931,-5600, 9719,6343, -1854,-6140, 1244,-3293, -3812,-17444, -2719,-4672, -5199,-20586, -13678,-23910, -19896,-16416, -20206,-1233, -7783,7295, 18801,2569, -3476,22065, -7132,-11963, 14204,5170, 7357,13393, -14690,1491, 1511,-3114, 11285,5645, -20138,17410, 16508,1705, -11145,-15916, -11691,1124, -380,10130, 3057,-4473, -22217,-16677, 11167,-1128, -17642,-21016, 617,3199, 20766,21694, 20099,18488, 15551,19486, 22539,-16586, -20040,9975, 14920,4014, -14241,14750, -7970,5127, 15620,-13948, 4143,9410, 19909,8311, -21240,-16333, -11042,4605, 9587,-1415, -122,-5069, -23438,-15904, -16377,-7861, 16335,-11596, -9078,3408, -6067,6830, -14095,-7838, -11970,-9759, -22127,10468, -1748,-16136, 3886,13869, -2362,1000, 10002,-19938, -7445,995, 17298,17409, -11495,-8422, -9919,8067, 9812,-24564, 1135,-21751, -17796,13456, -14190,2634, 3254,2436, 20112,1205, -14,15926, 9214,13537, 18486,2705, -3759,2455, -3169,-4645, 2310,140, -3880,2518, 3119,-3834, 2212,1802, 3804,-1689, 1574,2088, -1812,2176, -3879,-2639, -1551,2509, 2913,-197, -4290,2041, -2145,-3987, 2628,3257, 3351,4195, 3236,1766, 2054,-2143, 1965,-1629, -1350,3115, -2959,-2638, -2549,1566, -1216,2185, -1841,666, -2203,2530, -3010,-1016, 2601,-3078, 1350,-351, -495,3740, -1172,3155, -1742,1137, 2477,-2933, -503,1465, 3385,1530, 3706,-1954, -3698,-3585, -2893,3926, 1274,641, 1726,2879, 3662,1386, -3267,-2276, 3640,2252, -101,-3332, 135,376, -130,-2645, -2151,-268, -3374,-216, -3430,723, -3227,2073, -2982,4158, 157,978, 1138,-519, -2190,2469, -9,-2435, 2178,35, -2003,4127, -3309,2266, 4116,2281, -2683,2853, 3504,3023, 1489,-1405, 2053,-2006, -4091,888, 295,-995, 1660,1570, 16,2559, -3250,1252, -3359,-2383, -206,-3448, -3326,-2352, -2792,-2964, 74,-3011, -2493,2793, 1783,-3021, -3101,1479, -1115,1633, -1523,2929, -1424,2422, 636,957, -3224,2349, 798},
{3684, -4862,-436, -4920,-2020, -3833,-6591, -6237,3698, 2585,-1067, 1964,5462, -2689,2719, 3545,3689, 2764,-890, -4089,-1023, -933,-3681, -2253,-3760, -1592,821, 3374,4039, -2640,6583, 1599,4292, 1356,1777, 4205,-1749, -1933,2642, 913,961, 2819,3300, -370,-3452, 4834,-3292, 239,-3372, 5209,5943, -183,297, 4228,-6766, -3158,3750, -4312,-905, -5936,-5263, -3266,4211, 1578,4446, -2897,-1887, -1453,5020, 4612,2799, 3360,-5392, 1368,-5050, -5780,-3054, -6045,-6962, -4823,-3890, 2335,-2372, -275,-3693, 4633,1284, -5843,-1373, -2504,-2253, -5427,-4933, 148,-6505, 352,-1003, -3098,-4731, 3191,-1194, 6499,-1267, -2351,-868, 4910,-1622, 5938,-6959, -3164,-3076, -2600,871, -3539,-4837, 2161,2073, -4270,-2391, 3641,4293, 1849,-1143, 1271,6366, 935,-4236, 1500,-3314, -2256,4218, 4786,-3279, -1267,-1195, 5825,-2451, 286,7150, -1044,6660, -3394,-203, 7110,1399, 1859,-1005, -6759,-2135, -215,2600, 3800,-5859, -3336,3110, -2392,4793, -3851,965, -3763,2067, -2809,-3223, -25317,-23100, -25295,6459, -23366,-14917, -29277,-4885, -13750,-13616, -14478,-10944, 12424,-14523, -1894,10043, 24276,-27236, -31439,-9795, -6802,-5041, 7327,-19544, -21500,-3868, 10045,23277, 24907,7245, 10757,-12935, 21511,-22948, 21640,-16280, 10397,459, 6078,-7312, -14402,-13954, -24934,-27064, -7035,-2672, 15606,23738, -13679,-11844, -6261,11002, 5283,10105, 4499,7813, 5555,-8249, -15662,-23961, -21903,3067, 13388,15996, 6647,19225, 4503,23786, 360,-17692, 28702,-11852, 3684,-17654, 9666,-14516, -15347,2358, -17645,-10403, -13954,2103, 15760,23858, -22247,-25341, -12511,-22513, 29510,-26260, -19371,-31493, -17766,-17308, -10928,-16417, -8713,15308, -22015,14884, -1723,-5894, -11401,5770, 2494,-11873, 13654,15712, 3022,-31498, -12261,-21820, 3794,-24603, -5656,-30157, 4820,15086, 14655,-5022, -20366,16023, 20262,-1326, 8747,21154, -25883,-20, 7486,17221, 5148,15410, -28530,-153, -629,10703, -8330,21980, 21081,-7702, -26603,-1457, -1722,-28492, 8932,-2081, -3394,-30014, 10150,2400, -13797,-9311, -9921,-14841, -3703,248, -8110,17440, 792,-7320, 6126},
{-4468, 1321,2149, -1883,-2531, -4851,-1061, 3299,-5096, 1798,-349, -2945,-5172, -369,3490, -164,-6153, 1004,-492, 3522,479, -516,1835, -4315,2822, -1939,-3864, 3788,-4884, 2174,2237, 545,3955, 3451,-5305, 3407,-160, 6096,4668, -1913,2886, -339,-3221, 5080,2148, 1947,-2321, -2862,4807, 293,3306, -3222,-6088, 3890,1785, -4225,-4543, -687,-5602, -5777,-726, 880,1293, -1634,-5619, -2821,-226, 850,-5067, -1394,-1328, -61,6073, 5056,1848, -2191,654, -5397,13, 3871,-3261, 3088,-4962, -1200,-1822, 61,3889, 2287,-5538, -1877,-3040, 1553,539, 846,4613, -888,2710, -4167,870, -2014,-1441, 2279,2687, -1588,-5043, -2457,945, -1559,3841, -4449,-998, -1350,-3847, -5108,-5630, -4219,-3306, -3634,846, -4730,-2265, 4685,5044, 3536,4286, -1150,-4291, 5380,-3056, -4127,-2564, 901,-2139, 4527,1123, 1762,-1501, 4182,-5413, -1140,3105, 5886,2950, -1035,4600, 4867,2690, -1616,6198, 2154,-361, 2775,4445, -2479,2711, -554,3667, -6086,2148, 4314,-2102, -480,-9836, 9357,-188, 17210,19103, -10510,-4700, -3770,-13065, 10730,-8677, 8623,10348, 1445,-3261, 19005,1585, -6734,13651, 7380,1240, 14032,-6169, 7847,9424, 14417,10370, 13139,11453, -20962,3575, 6285,10052, -7011,-2253, -12831,894, 16863,17708, -14427,12250, 20538,-9185, -9551,-4406, -16871,13174, -15308,18883, 12219,19034, -9205,4963, -5088,3838, -12148,4896, -11840,4023, -2414,22159, -4159,-14486, -6335,13934, 5549,10471, 11131,-7694, 6475,8532, 12477,7167, 10871,-1141, 17537,-6097, -2336,-8455, -9514,1498, -15960,13518, -4771,10470, -3879,-8999, -8535,4129, -3527,4758, 9179,-3314, 2416,18521, 18327,-1948, 15396,9932, -18700,3204, -11493,18541, 73,-10498, 3847,-5442, -11918,17170, -12761,1439, -2238,20845, 5386,13181, -12018,-9616, -3859,10100, 10962,931, 16281,12328, -2903,4564, 7596,-12540, 3288,1975, 9452,15226, 18552,16696, -13168,-3793, -5259,478, 9857,-11551, -16414,-15338, 6143,16302, 12462,12523, 16544,16566, 17877,3525, 11120,-9552, -3484,-1622, -15315,14793, -1985,808, 13238,1812, -1841,-16090, 11014},
{20486, 19264,27409, 10703,19854, 23351,19516, -5657,14067, -20707,12303, 3751,5416, 11439,17979, 21377,-10298, -9166,-21348, -5996,-14283, -1597,27154, 26842,3430, 12611,-18587, 22614,-21494, -22795,-21811, -2107,-6689, 26023,-2692, 10948,10285, -8563,-28664, -10377,-17217, 29460,13480, 9182,-2499, -159,-14860, 25684,10032, 13683,-30475, -18989,2093, -25716,-22656, 16732,25544, 28001,-31432, -21763,-16642, -13253,17792, 12227,31735, -14796,-15950, 31995,17010, -12932,-26185, -10556,20037, 2077,4698, 23660,16994, -21559,25074, 10930,18069, -14422,6763, -25225,-26821, 13374,-11702, -1142,-2183, 6485,23607, -19625,16942, 9354,26715, -24585,20989, -31733,-4421, -537,-20284, 1570,16456, -20511,3185, -21577,-14491, 28249,14417, -5530,-15894, 13593,13327, -12769,-9615, 5816,-32224, 5522,-2133, 8449,-18436, -12817,-18341, 27008,-25279, 31403,4727, -21242,-2687, -22100,-22389, -19139,-7071, -27430,-10266, 24641,-12561, -15383,-26816, 13548,-29114, 4757,-19267, 4323,-25774, 13729,-15322, -21588,28245, 1173,1475, 10211,7888, 2725,-18583, 8661,-8323, 18008,-13559, 1364,-29077, -4040,6161, 14727,6036, -7145,4833, 13576,10674, 9438,6829, -6251,-2004, 6244,-8673, 7468,-3212, 6751,2854, -6523,12330, 3604,-87, 10330,-3305, 614,9730, 11808,-1854, 9662,12186, -1501,-4266, -9025,3050, -10636,6703, -10927,-8682, -4801,14493, 649,-6940, 9954,11869, 114,-8795, 10994,-6691, 1087,9397, 4953,606, 9898,-560, -12701,8454, 8927,-2227, 11841,13195, 2212,5190, -7729,-5786, 4344,2721, -10518,6398, -4315,-9360, 3545,-12149, -3999,2558, 9925,-8126, 11223,-493, 3637,8463, 3938,6241, 10058,-7972, -8667,445, 1308,-5552, -5344,9353, 4937,6190, 6173,477, 105,11943, -3220,7203, -2475,-10573, 11867,-9090, -4336,-1069, 3486,-8591, 8604,5446, 767,-1119, -3906,-6178, 13264,14079, 2199,15048, -2754,12641, -1053,-9275, -4765,-12202, 10439,6567, -8857,-9177, -6699,-9632, 9734,15202, 15131,-4779, 318,15062, 11432,13752, -10022,-2355, -15547,-9665, 213,-11089, 10876,-118, 3633,9232, -3419,-56, 11288,-5990, -3265,-7657, 6027,10996, 10000,-3764, 2810,6759, -9456,11810, -1053,4875, -3125},
{5920, -3042,2405, 4690,3476, -2348,4567, 6171,5801, -2951,1640, 6749,3668, -3199,421, -1059,6543, 3655,-5223, 1662,-4344, -1053,-5513, 698,-3767, 987,-1903, 4021,-5856, 6680,-2107, -5180,4243, -4242,911, -3862,230, 453,3890, 3608,841, 3731,-5619, -1089,-3606, -4601,2194, 749,-36, -2709,-2652, -4055,455, 3890,3293, -713,2284, 7325,-3475, 1375,-2126, 6578,-438, -6339,1399, -2295,-2212, -6568,-7265, -5166,-3990, -3943,3777, 3971,-2308, -4401,1946, -6273,1513, 2550,-4999, -2784,2458, 1592,1638, -6801,3862, 6344,-6149, 3194,5133, 1862,451, -5049,-743, -1563,614, -5270,4360, -1740,-2438, 2114,-7000, 4712,-952, -5900,-6420, 3921,4869, -2889,-2380, 5569,-1629, 4322,-2996, 2076,-1896, -2235,4585, 92,-2520, -8382,-4550, -2134,-800, -7044,-2922, -2875,-3930, -5874,2213, -6862,5614, -2896,-162, -1394,-1033, 1629,-620, -4122,-5665, -6586,2315, -7859,2942, 7553,-6223, 2802,-1667, 66,-1947, 7369,979, -2879,3173, 2677,-5396, 5668,2799, -1579,-8116, 5324,267, 1076,3754, 2126,-3627, -1404,3195, -3217,-1179, -4601,-691, 774,3930, -533,1146, 106,-3266, -2470,-1515, -811,-611, 2807,-2783, -412,2488, 951,1369, -3341,-4184, -3663,1761, 3085,-4447, 1633,-3308, 1462,4872, 916,4183, 4028,2271, -296,-3757, 1703,-1821, 399,-3305, 2834,-830, 2503,-738, 1900,-3179, 1498,-2854, 4408,-3744, -3243,-2148, -4977,1803, 2643,1336, -4479,1234, -1281,4116, -491,2210, 386,3753, 1139,-2011, 1047,4336, 1436,-253, 1302,2851, -146,3405, 1450,1551, 1024,-4614, 2115,-3682, 4379,3057, -1824,1841, 2487,3202, -639,-245, -564,-3063, 4742,1543, 2393,1217, -1973,1882, 702,-2657, 3549,61, 782,3812, 1896,466, -2505,-2066, -3359,-1262, -3171,-3133, -355,-2898, 3620,-408, -479,-2434, -531,59, 899,4102, -2156,-1787, -3783,2033, -1615,-2764, 3344,-1320, 1450,2007, 2896,477, 807,-954, 3263,3231, -4141,2148, 3935,-1427, 684,726, -1393,-1260, 3795,3314, -3188,647, 2214,-1653, 594,-3191, 3612,-415, 2111},
{14451, 12426,3334, 3833,-723, -8556,15108, 7453,5824, -13333,-553, 4671,-5547, -2136,12134, -8036,7700, 1418,3103, -4353,-2093, 10090,4383, 14317,-6414, 14409,10436, -5250,-6834, -1004,9124, -7098,5221, 4586,9675, 2074,-3324, 7877,3489, 6254,-2935, 11446,-1588, -8819,4678, 10654,-906, -8929,4723, 9916,-5653, -5578,5632, -5658,6767, 2540,-2515, 13896,-8048, -735,5552, 5960,-4402, 6047,8366, 7756,9108, -11,1934, -6020,3821, -517,12285, 13288,401, 13138,4146, 3892,1611, -3789,-10416, -3398,2360, -5502,12258, -5975,-9648, 8509,1608, -5909,-633, 1554,-3394, 14369,4560, -5451,-6609, 10166,-951, 1943,2117, -4201,6169, -9479,3175, 9406,-2790, 8155,3598, 2236,6224, -9566,7920, 14419,3207, 7027,-438, 5263,3870, -11159,2855, -3383,-11196, -7974,-1148, -1914,84, 13496,1272, 1824,12390, 13409,2494, 13254,302, 9443,-8773, 1799,11304, 10000,9863, 8388,5355, -6863,13231, -8758,13321, 13675,-6691, 14771,-3454, -4005,10420, -469,3259, -13043,7583, 5317,-6543, 3371,-6577, -12795,-6722, -6029,4101, 6613,3255, -7279,6443, 6733,-1318, 8274,-2503, 8096,4615, -4020,-7575, -2790,3020, 1816,967, 7915,-8469, 8726,-9375, 6984,-744, 8566,3249, -2317,7787, -7692,8359, -2794,-9376, -5772,-3328, 1977,-1612, -5671,-5936, 1240,-2284, 1758,6666, 5775,-6435, -8181,-7193, 6574,438, 7574,4915, 443,1611, -5810,4036, 3710,6569, 8779,6895, 8311,7749, -3057,8527, -3992,8608, 9154,5234, -7513,-210, -2443,929, -2561,7336, 1175,-8117, 5452,5748, 5501,6879, 2253,-608, 450,-91, 8375,-2061, 5961,-980, -2411,-7679, 4940,-4637, -4567,-2445, 8257,-5243, -7996,2540, -10463,-4166, -7666,-1748, 8517,-1014, 9242,-7408, -7135,8034, 6393,6110, 2776,5559, 7809,2279, 443,5987, 9127,6806, -6556,4649, -5470,3032, 10790,6505, -2881,4989, 1455,-2596, -5203,3293, -7916,-3821, 7222,5313, -8875,-6141, 423,-2594, 10147,-2019, 1408,2848, -7951,1709, -5153,-9809, 978,-4965, 1099,486, -2672,-8415, -9823,-2553, 4150,-5683, 8528,1188, -4788,3883, 5981,8950, -967}};
static BiasActivation<CONV_LAYER_0_PE, CONV_LAYER_0_ATILES, conv_layer_0_bias_dtype, conv_layer_0_acc_dtype, conv_layer_0_output_dtype, conv_layer_0_m0_dtype> conv_layer_0_activations = {
.m_bias = {
-508192188,
510323739,
-401156811,
511994506,
-511869302,
514009257,
-515319437,
-393987061,
510458616,
-464909528,
240914301,
-474202665,
511046456,
500083685,
-482820147,
483109110},
.m0 = CONV_LAYER_0_M0,
.zero_point = CONV_LAYER_0_OUTPUT_ZERO_POINT,
.min_val = ACT_MIN_VALUE,
.max_val = ACT_MAX_VALUE};
static ap_int<CONV_LAYER_1_WEIGHT_BITS> conv_layer_1_weights[CONV_LAYER_1_PE][CONV_LAYER_1_WTILES][CONV_LAYER_1_SIMD] = {
{-3361, -1854, -3872, 786,-1279, 3284, 3018, -3055,2713, 2505, -2632, 1328,-1471, 1273, 609, -930,-3538, 312, 2086, -80,332, -1550, 4081, 1980,2474, -2330, 4666, 1818,933, 1705, 4108, 2482,1139, 157, 980, -2825,2825, 1204, 3100, 1262,1030, -2768, -297, -3661,1774, 1288, 332, 3275,2907, -2059, -2724, -874,-1083, 2907, 1546, 3247,2859, 3969, -257, -2769,1617, 1481, -1855, -1163,-3438, -2074, 756, 2042,403, -2263, 714, -2590,-1396, 2206, -2550, -2034,-1119, 2793, 972, 814,-3730, -3675, -732, 2276,-2804, -533, -363, 1337,-2467, 3083, 2730, -473,-971, -3788, -116, -119,281, -794, -3807, 1448,-1024, -527, 3055, 3160,3479, 850, -2454, 1587,-1510, 440, -1622, 2107,3479, 2299, -1207, -3109,-46, 2554, 3250, -1739,590, 740, 2341, 185,680, -1852, -743, 275,-1542, -1911, -579, -1732,-2281, 2000, -750, 1125,455, 671, -2412, -3004,-2385, 889, 2659, 2418,-2912, -4746, 3435, 5061,3334, -4461, -1697, 4013,-2760, -3232, 3764, 4229,-1735, -4702, -3075, -179,3392, -3154, 3254, -2277,676, -4886, -2445, 4019,2496, -3307, -1962, 392,-1107, 353, -3585, -3149,-2480, -1971, -1789, -897,-857, -4114, 5391, -540,3949, -4037, -4490, 6128,41, 3667, 5137, -4843,2914, -1592, 1983, -2868,-4463, 4277, -5869, -1512,-6037, 2542, -530, -4157,3314, 4198, 3348, 3532,2490, -2739, -1473, 4521,4598, 2169, 4052, 3059,-6337, 1395, -4992, -3682,5434, 797, -3159, -2049,-4208, -3093, 5109, 3700,-3770, -2768, -811, -1408,-722, -5227, 4323, -2505,4189, -628, 4554, -2639,3910, -4389, 2372, -4399,737, 2481, 2207, -2821,3568, -5694, -5039, 3485,-692, 3465, 2280, 3074,-2036, -1215, -4025, 5169,-3570, -1797, -2153, 3999,-217, 4468, 1453, 1474,-2319, 763, 2436, -2490,-4705, -3512, 1035, 5954,-4369, 2661, 1655, 706,1136, -5006, -3755, -1372,-4318, 1363, 3091, -5493,-18666, 19450, -23594, -26887,-139, 15456, -18376, -25364,2809, 2338, 8711, -12520,-14357, -23678, -14837, -5601,-2667, -21887, -16133, -6250,20327, -13359, -25832, 15096,-24288, -2306, 13517, -19956,27857, -17298, 18786, 13002,20988, 20846, -4894, 21035,6153, -19274, 17521, -3486,21650, -16782, 26037, -25319,28414, -12666, 15206, -22180,-22735, -11900, -1879, 923,4616, 9743, -7492, -14426,-20252, 727, 9757, -12216,-11790, -15440, -19165, -17079,24849, 12069, 18537, 23446,-3710, 6573, 6963, -9473,-3611, 14298, 23352, -19135,17646, 22978, -11834, -11975,9293, -9466, -3685, -21502,22768, -13413, -18477, 8331,20415, 15094, -16293, -6094,13841, 9499, 5492, -3885,-15145, 12054, -9351, 16964,2149, -18541, -18518, 13736,-15379, 347, -12339, -20019,23836, -12059, 16963, -885,-6769, 20012, 15005, -16375,13666, 7581, -1113, 3778,-5693, -8615, -12527, 12226,10484, 6410, -13795, 7467,3975, 12586, 3379, 7345,-12857, 9131, 20193, 19718,-10780, 19501, 4012, 5563,24110, 17060, 8379, -15702,756, 2620, 9176, -5948,-5749, 6597, 4546, -274,7611, -2663, 3414, 2497,3259, -3389, -4026, -5461,-5602, -6777, 7725, 5230,-799, -6156, -3048, -5438,3163, 6692, -5440, 7400,-846, -5494, -7716, 5420,-6822, -1135, -5391, -2975,983, -5586, -6835, -7223,7580, -3090, 7406, -4364,1792, -2097, -2822, 3333,5304, -6669, -4522, 2535,-7298, -4254, -1337, 4363,-5899, -1588, -3685, 4577,345, -3273, -6761, -4101,1849, 4685, -541, -2450,-5881, -6870, 3027, 1251,690, -4656, -2201, -294,-7460, 6652, -7124, -2587,2370, 998, 2265, 7470,6491, -6136, -3837, -3249,6704, 1663, -2879, -6036,5552, 6050, 6299, -4690,4123, 577, -3011, 2746,-2894, 437, -3411, 137,-6036, -7704, -5767, 235,-757, 238, -2028, 2949,-2633, 1387, -6893, 4450,5607, -5193, 6241, -6408,-7314, 4146, 6913, -5545,6975, 3132, 3586, -4948,-5598, -6638, 7234, -956,-6361, 4321, 3247, -2094,4638, -6208, -3944, 6431,-2900, -5496, 3466, 7486},
{612, 12095, 14162, 13922,-11884, -723, -7889, 13842,-12354, 8834, 9825, -15770,7787, 7322, 10867, 9220,766, 320, -3672, 13697,-12036, -13800, 2785, -11965,10189, 6165, 13632, -7803,-14099, -1545, 4920, 3749,3020, 10820, -6752, -14030,-4896, 15720, -14808, -4567,-3213, -2332, -12755, 3932,4126, -7366, 3086, 10067,-8073, 6612, 11621, -1107,-14667, 8482, 13939, -7,7698, 3478, 7439, 2175,12698, -5554, -12001, -10993,9376, -8375, -6094, 552,5621, -13207, 12526, 10351,-10728, 1334, -13688, 10476,-2368, 3062, -8064, -8847,3367, -14290, -13015, -14433,-10699, -213, -8233, 10447,-14266, -4033, 12992, -4014,217, 13524, 4032, -9987,13904, -2129, 13443, -7989,-5830, 1656, -12120, -10851,15146, -8724, -14190, 12006,6925, -9429, 5715, 14994,2178, 5940, -14546, 9561,6689, 9193, -3353, -1573,-12725, 1392, -7176, -11503,-1064, 10441, 13294, 9285,10749, -3540, -4522, -287,456, -7240, 14832, -296,-6193, -5902, 5123, -7890,4670, 2429, -4224, 10954,14834, -15971, 30340, -476,10388, 13502, 9053, -5781,-10972, -23439, 17175, 7592,-3272, 22261, -29552, 25919,17128, 392, 2152, 15767,13066, -6248, 17526, 23674,25177, -7667, 24350, 26095,12335, 8051, -25603, -20066,-26947, -10297, 31621, 31443,16400, 1485, 13397, -20228,-6800, 16128, 17535, -15581,14129, -5509, 2974, 27311,23494, -19394, -2639, 9718,-29590, -26350, 17431, 14861,2501, 5616, -13583, 5765,554, -23579, 21850, -12488,7115, 5179, -18584, -8443,-2437, 12089, 25603, -21301,-20483, -27281, -8484, -20125,-5230, -32767, -14554, -10102,6641, 1289, -6930, -1119,-16299, -5875, -23530, -17188,-7094, 10407, -18160, 11566,-10743, -32410, 17838, -22659,-6479, -26696, 6333, -23152,26790, -24104, 7995, 11071,-20890, 28005, -17224, 10613,9604, -29028, 24383, 2837,-16040, 19737, -12817, 22469,-10336, -31066, -2034, -23830,22350, -9037, 314, 31569,16467, -23071, -21173, 13927,17963, 11242, -20556, -5772,-27386, 4768, 27855, -26626,14967, -20851, -3924, -17531,-18741, 13110, 22685, -15918,-3014, 6511, -1579, 4717,-3033, -6425, 4686, 4050,4202, 6469, -4742, 2536,2254, 6005, 5021, 4056,-3434, 2325, -4499, 3264,-683, -1767, -1120, -1045,-2855, -641, -6001, -2306,7104, -1659, 5812, 548,-3990, 757, 688, -82,-2162, 6042, -4931, -3254,-4825, -863, 3771, -1354,2686, -1294, -5947, -6224,-879, 4968, -5694, -858,-4136, 552, 6271, -1426,7206, -1486, 243, 1090,5135, 3944, -290, 659,-5277, -4046, -3322, -3433,-689, 1742, 6184, -2070,5099, -1273, 5683, 2884,-5095, -5449, 5209, -1153,-1760, 1513, 993, 5684,3954, 5829, -1341, -2093,-4216, -2136, 5292, -5442,912, 4129, 4952, 2006,929, -3387, -6966, -4817,-1608, 4755, -721, -6188,5752, -2942, -2829, 877,3443, 4173, -2468, 1150,-2237, -7358, 649, -7020,2851, 518, 6853, 884,36, 6602, -2172, -2490,-5900, 1560, 4162, -1506,-1553, -649, 4278, 3962,282, 2498, 125, 5062,3618, 5675, -2424, 1707,-6564, -3895, -4863, -4148,-763, 4724, 4591, -8460,4525, 1665, 3935, -2227,-2268, -4338, 6550, -222,459, 4521, 7337, 7144,2774, -2245, -5197, -3573,2352, 1011, 3828, 3288,-3334, -980, -6151, -3943,-3279, -95, 6165, -2071,4434, -3810, 400, -7852,-3905, -1033, -1148, 849,2693, 3925, 6014, 2432,-3089, -6099, 4374, 4740,3529, 8036, -3811, -975,5725, -3428, -1321, 8042,6748, 5338, 3815, -501,4033, -4820, 2704, 4136,-5424, -2000, -6241, -7194,-7034, 5275, -5989, -6298,-1353, 7622, -6734, -4023,21, 2672, -6602, -3922,-6702, 4346, -3394, -2374,-453, -3332, 2980, -5273,-4920, -824, -1805, 1132,-5772, 5465, -5864, 5413,1484, -15, 2702, -4775,5274, -1688, 4688, -6232,-4051, 3679, -6683, -1092,-4389, -7060, 5667, -3348,4482, -148, 2675, -7882,-1818, 4652, 4567, -5138,-6808, -4023, -4027, -1961,2698, 2621, -1548, -469,2968, -1429, 6112, 2830,4968, 2677, -1402, 625,-1874, 1670, -3221, 2492,-6960, 649, 3616, 868},
{4927, -2061, -7273, -10050,4407, 422, -12488, 1728,-1197, -9939, 2919, 9635,2836, 8702, 11300, 7480,6968, -12505, -374, 4077,-956, 1828, -11868, -8231,10974, -4968, -12978, 1541,12360, 4029, 1148, 11766,-2099, -8326, -760, -11147,7373, -6982, 9365, 3601,9699, -461, 5293, -6546,11936, 3254, 2660, 9390,-10922, -10125, -8411, -9728,7530, -3442, -5431, -3253,10028, -6260, 1809, -8481,6738, 7602, 8602, -6641,-4574, -9977, 980, 5479,11755, 827, 6424, 9206,3149, 6011, -11883, 8191,1092, -721, -1688, -123,-4661, 2253, 2490, 9993,-5734, -11367, 6590, -1810,-9491, 8575, 507, -3187,-9715, -11142, 11, -6798,489, 9516, 5889, -4882,-1376, -9337, -10627, 7506,-3053, 1942, 6753, -9406,-7248, -9967, 10873, 8953,3779, 5451, 2983, -1598,-9438, 2986, -2207, -12789,-11914, -11544, -3335, 8491,8307, -9994, 9802, 9312,-4943, 7609, -5568, -2193,2995, -11632, 3162, 4576,-11796, 1719, -10513, -4865,68, 9722, -4077, 7509,4820, -11080, -4909, 1633,-4086, 9836, 11118, 1172,-12068, 5756, -12469, -4418,4873, -1957, -1411, 10725,-10928, -483, -2266, 4291,9751, 5208, 9917, -703,5365, 9541, 4011, 5327,13840, 8931, 8992, -7598,-7039, -8868, 9591, 14301,11397, -3390, 3137, 13468,-6476, 11237, -9263, -15693,7203, -5732, 14675, 3514,5775, -11944, -13189, 4436,-6430, -3415, -2570, -16012,12874, 8417, 5603, 3661,12549, 12802, 8241, -13572,-15480, 12813, -2115, -5805,9903, -2021, -6073, 10350,3578, 9312, 6726, 8959,-7262, -8243, -4044, 15799,-281, 7898, 14764, -6127,296, 201, -7584, 9295,-11908, 14633, -9872, -6172,-14233, -6823, -6309, -9922,12522, 1344, -14995, 4303,-4831, -4266, -5768, 5267,-3221, 3595, -9684, -10732,-1932, 2656, -6315, -4714,13547, 6161, 14019, -5986,-14654, 7839, -4581, -11185,5571, 9267, 12608, -11140,14976, -821, -9060, 15528,1785, -10205, 15064, 5940,-9738, 11373, -1095, -10666,12498, 1309, -14946, -7431,13694, -4383, -783, -10127,1917, 4438, -6433, 1932,-6472, 1025, 6115, -6493,6548, -4762, 1374, 2217,-7994, 2838, -6434, -6220,3851, 4421, 3690, 2023,4751, -5352, -2262, -2899,-7793, 2422, -7748, 4202,4782, 798, 4073, 6101,7612, -182, 6909, 8589,-4447, -7072, 3166, 3465,1209, 15, -3859, -5574,304, -5570, -5962, -1646,2291, 6120, 8628, -4404,5230, -240, -1996, 1158,5462, -1269, 4515, 5983,6563, 3100, 1687, 5900,931, -2295, 1153, 7212,6978, -1720, 6419, -5855,2669, -7539, 2864, 8731,-4842, -2621, -4346, 4063,-4328, -1716, 3244, 5746,-1834, -4883, -1342, 2408,-3780, 1671, -2311, 6672,-4753, 5993, 3292, -2654,-4286, -4191, -4879, 9131,2685, -2654, 5514, 1586,-3863, -4225, -3922, -3180,-7013, 2346, -353, -5464,1542, 5745, 3274, 2823,-7637, 5367, 1186, -2581,-4127, 3413, 4533, 8368,1719, -2458, 993, -5644,5228, -1483, 2615, 6819,5308, -368, -7033, 3343,2563, 3895, 4662, 2674,-6482, 2756, -3531, -5257,9599, -8590, -1969, 4416,5289, 3316, 354, 8607,-6321, -469, -5757, 3467,-3496, 7867, -9899, 4250,8232, -8799, -1059, 687,3778, 6372, 5998, -11510,-8278, 10641, -10105, 3845,-1603, -1590, -5489, 8674,-6713, -5259, -8721, -7759,1774, -8846, -1237, -10688,-1861, -15, -5712, 4104,-5039, 10010, -7270, 7609,-7813, -1193, 4508, -3072,-544, 9954, 10029, 9172,-8936, 6431, 6258, -3564,153, 6165, 1662, -10327,-6418, -11307, 2971, 3161,-5930, -2815, -3331, 9160,3705, 8577, -4904, -2224,479, 9226, -5082, 10678,-2368, 135, -9894, -4510,-6990, -6594, -9980, 3622,5688, 3390, 1014, -3984,6359, -8054, 2114, 9066,6163, -3421, -2145, -7303,8671, 8177, 2135, 2978,10056, 4817, 7168, 7559,2940, -5341, 3761, -4925,-10794, 2480, -10072, 4172,1360, 11632, -4122, 6234,4102, -6730, -1111, 2377,-4, -8575, -2900, -5817,1289, 8425, 6813, 929,6318, -6338, 9531, 2159,2945, -1260, -573, -8151,-3726, 5047, 572, -5576},
{11740, 10398, 3887, 1662,-5052, 12805, -10645, -3674,16211, 18500, -1172, -1157,-17849, -15353, -17803, -11573,-19786, -10978, 15976, 13247,-4823, 16923, 4320, -9088,-5241, 7454, 7529, -15694,9696, -2759, -8776, -20685,-18304, 184, 2321, -10280,-9781, 16890, 6685, 14219,-5768, -8076, 10590, -4656,4387, 9219, -944, 11378,5160, -4396, 240, 12488,-116, 14156, -709, -12017,-9103, 10156, -11469, -12779,5044, -2435, -10783, -14119,-8159, 6197, 1804, 2490,-3620, -21094, 4642, 7012,7020, 13239, 2143, 14960,1212, 11347, -1730, -2906,-19612, -21213, -14275, -923,5657, 16533, 19725, 9917,8000, -13646, 3237, 9939,-2002, -4496, -16771, -13454,-15458, -20986, -15831, 16080,-9134, 3284, -5025, -5048,20440, 9145, 6428, -3700,11400, -2785, -7866, -1565,-6982, -7526, -8371, -7037,-6355, 7529, 9173, 15926,19168, -9034, -6931, -12441,6892, -18225, -15660, 2591,-1545, -11703, -2050, 4153,-15283, 17298, -729, 3766,-4085, -26, -9196, -2589,3029, -6157, -14592, -5614,-22154, 21450, 27512, -25515,3981, 2382, 24210, -7779,5341, -10253, 4751, -20204,15301, 22875, -26885, -7177,-5184, -1935, -19698, 22720,-16425, 2329, 27409, 26868,-16879, -6792, 27786, -17712,-1635, 19502, -5160, -15096,-6812, 6864, 15797, 24604,-10611, 22122, 7944, 1288,27219, 14684, 8135, -7980,-12602, 1453, -7619, -17715,13990, 16739, -17910, 26964,16406, -695, 2956, -8170,-16662, 24878, -4231, 9896,-3130, 13696, 14959, 896,-23090, 21876, -22259, 15231,-21081, 1232, 4405, 4268,-15504, -26746, 263, -425,1013, 19322, 14511, -20495,2158, -4486, 27089, -816,-12673, 5695, 4418, 9074,15979, -9618, -1360, -22605,21587, 8305, -13323, 2510,-14820, -9384, 17747, 26675,-10801, 19351, 15048, 8461,-24025, -14183, -7278, -17114,8445, 257, -11825, 17819,25721, -13231, 6211, -9275,27662, 10797, -24598, 23555,25648, 4610, 973, -12557,116, 16278, 28665, -15852,-18544, -7239, -18284, -23910,66, -26360, 17824, 20622,-19251, -25182, -2773, 1290,8539, -18003, 26634, 24579,-15341, 3949, 9112, -11054,-14926, -12101, -9135, 14761,-19623, 11686, -9290, -13819,9943, 11784, -8621, -8709,7537, 10798, 15404, -9016,17645, -17382, -9254, -18584,2574, -10533, 2039, 22983,-11215, -16476, 17678, 7197,12406, -3477, 13864, 15222,-543, 5678, 22406, -20121,-11672, 22645, 9269, -14977,16176, -18469, -3222, -15073,-12857, 6549, -7265, 6079,-13601, -15477, -11240, 14942,-9157, 13551, -19620, 1483,-14384, 8811, -19382, 15700,-1482, -2329, -8288, 14051,-7179, 234, -9602, 14892,16836, 9925, -4496, 64,11615, 7231, 20355, 14088,18237, 14096, 14190, 16899,-14730, -21464, 21476, 17735,12834, 8431, -15838, 3319,4652, -16870, -17199, 13423,-12825, -15212, -2939, 14442,-10376, 2855, 12887, 3542,898, 21274, 15376, 7036,-10181, 4021, -8527, 6004,-1753, -13421, 15220, -2047,-2011, 23205, 14605, -461,20495, -19959, -17566, -2829,-19759, 9738, -3647, -7839,-7253, 5773, 10489, 12212,-12155, 7403, -9057, -20304,-1166, -19226, 12064, -9835,-21539, -21539, 19962, -15409,-2975, 1900, -3436, 7497,-5957, 3357, 2615, 518,1087, 3488, -167, 3482,414, -153, -1562, -3133,-3826, -3934, 1014, -2477,3969, 4240, -906, -59,2218, 2762, 110, -2716,6181, -4027, 7194, 6899,5040, -2453, -6828, 263,-1500, -1986, 4987, -3169,-6952, -7001, 7041, -7622,-2241, -2089, -1068, 2876,5781, 595, 4896, -3768,5760, -6415, 1939, 6919,-3055, 4191, 5261, 1850,2404, -2934, -5124, 2479,-517, -5054, 1337, -3827,82, 5127, -2504, -1212,-3956, -2090, -5593, -2846,7919, -7728, -6891, -444,-4482, -2552, -2096, -5082,317, 5035, 1075, -7781,7108, -307, 3443, -2193,-4769, -7396, -6471, -645,-1159, -4540, -5256, -2913,-2043, -2033, -1072, 2369,-4450, 7230, 1165, -2771,-1317, -8129, -1762, 4609,-3124, 431, -6148, 1960,-2993, 1769, 5635, 3712,-1792, 3129, 6437, -3336,4409, 4711, 7090, -4515,4808, -1932, -944, -1289,3043, -6756, 3344, 819,-1217, -7014, -1740, -202,-6681, 1553, 5706, -4564}};
static BiasActivation<CONV_LAYER_1_PE, CONV_LAYER_1_ATILES, conv_layer_1_bias_dtype, conv_layer_1_acc_dtype, conv_layer_1_output_dtype, conv_layer_1_m0_dtype> conv_layer_1_activations = {
.m_bias = {
-48909237,
65625951,
-46149921,
170883538,
-50063444,
165007110,
-34916926,
69673153,
40729206,
-221633530,
-159731570,
-6071404,
380980541,
-470858135,
-71604655,
109731815},
.m0 = CONV_LAYER_1_M0,
.zero_point = CONV_LAYER_1_OUTPUT_ZERO_POINT,
.min_val = ACT_MIN_VALUE,
.max_val = ACT_MAX_VALUE};
static ap_int<CONV_LAYER_2_WEIGHT_BITS> conv_layer_2_weights[CONV_LAYER_2_PE][CONV_LAYER_2_WTILES][CONV_LAYER_2_SIMD] = {
{21982, -3574,13499, -12688,-7917, 11708,27975, -12082,17944, 16838,-23396, 8923,-5368, 21098,2032, 8943,13320, 12280,9186, -3573,-20473, 2675,357, 7608,-17870, -3216,-17410, -28570,19903, 26200,8719, -868,4843, -7968,-22680, 16681,-13527, 7744,-24415, -8262,-20695, -16517,-11695, -14448,-6914, 4329,-14327, 8603,26441, 1453,25771, 11690,-14016, -4506,1379, -10644,-7418, -13934,-21564, 29861,9090, -7954,-2078, -4883,18529, 16809,15198, -7152,-12483, -18366,6390, 19479,-4828, 6334,19953, 19163,1179, -25719,11680, -15430,14714, 9404,280, 777,6157, 13063,-16969, 29671,-9602, -4401,-6325, -15232,-3446, -19146,-12445, -1108,-21403, 13384,2347, -14402,20323, -14173,22882, 9110,21462, 11622,-25948, -5226,-9372, 29437,12385, -10500,-2828, 12042,18893, -10980,3350, -13407,1450, -1075,-13330, -2920,25502, -26691,-24574, -10824,7819, -635,28489, 10647,-20255, 11816,1601, 28908,2527, 19003,2260, -13400,-11332, -20905,-20816, 22203,-17289, 26308,-19856, -25487,-13157, -19316,-27917, 3379,4291, -11055,17395, -19073,10990, 19725,-19197, 15428,-7853, 12698,-8017, 5016,-26956, 903,-2639, -25067,14517, -25892,17016, -1536,-3472, -10269,21142, -16598,2274, 20219,-23521, 8606,-1270, -12587,-26549, -28695,6918, -19973,15201, -3068,10792, 27587,-22709, -130,-6629, -1913,-9204, 13370,-2657, 5911,-7424, -11649,-24358, -11310,13907, 17212,-20630, -21239,-25520, 3144,-13698, 7913,-26383, 3498,14518, 24859,-1237, -2613,9666, 11717,20737, -12566,-10666, -9915,-28103, -9802,23662, 2570,2045, -3008,-6819, 22715,-466, 17940,-21241, -12562,21055, 12264,-10542, -16790,-6064, 1305,-25013, -24866,15541, 14973,-4669, 8495,-23655, -7279,29956, -24439,3245, 6802,14955, -21432,4061, 27571,20204, 7801,-3719, 22543,5539, 9008,-4120, 12570,1231, -7990,7418, 2541,-25667, -20774,5081, -4286,-22773, -21433,55, -20925,-16152, 3486,6372, -2826,-2760, 17647,272, 22203,-5381, -12102,-21344, 5431,23032, 15052,-271, -10694,-13185, -23337,21221, -7220,-22131, -5141,-505, 4275,-12299, 14763,25732, -6423,-10188, 6398,22093, -22176,-16916, 4690,5349, -11110,5536, 21984,-26787, -18830,16180, 21950,-4986, -460,-15880, -3956,-23961, -3169,-21371, 6017,-7312, 22103,26192, 9205,-11991, -5322,12229, 1606,5387, 13248,-6016, 4541,-8380, 13329,-10674, 3642,1685, -5900,-8398, 21440,-21834, 18126,-10374, -7899,18942, -23980,1174, -11213,-22991, -24562,25897, -21352,12841, 28459,16130, 17000,6937, 22548,-18815, -27528,23984, 4414,-23679, -23386,-9500, 6306,-3064, 17326,-17732, -24541,-19723, 15514,21906, 2475,1183, -25733,14684, 16797,-6808, 1955,15988, 11660,2215, 15538,-6318, -21158,9111, -22772,4501, 2963,-10976, -19746,-1173, 23316,-14191, 6298,29431, -5333,4243, -18675,-1656, 395,-2789, -3519,6609, -3683,20724, -6035,21452, -28988,23047, 9946,21830, 7559,7284, -21788,17645, 19619,25691, -1119,-25728, 10142,14855, -911,-12367, -17954,5811, 3705,-26395, -15160,26696, 6733,-8443, 8604,-5233, -25216,15289, -24013,25318, -8323,-13607, 15316,9433, 21330,20964, -59,8052, 10994,-14088, -22552,22451, -23816,12574, 9394,6585, 538,-26507, 20741,-8335, -14258,1449, 4784,-12280, -9692,3843, -14083,19572, 18364,-26255, 5678,-14611, -23085,-15178, 19202,-25938, -22950,13115, 21973,7434, -30499,-2567, -7799,-4336, 16967,5475, -20947,-24299, 2585,22, 18992,4546, 12504,-17696, 25524,11383, -17219,15640, -14403,27520, 11425,1685, -21237,21452, -1254,5257, 22979,11920, 21846,22410, 9874,-5292, -2105,21254, -9794,-19845, -19326,-20046, -18567,-29178, -3711,-24222, -17115,22796, 16026,25472, 5118,-17466, 13693,7789, -21885,-5101, -15024,-755, 19947,-13182, 2230,20678, 15057,-2242, -1426,-14904, 5752,15463, 10884,11604, -19704,-22736, 10076,1237, -2911,15992, 15675,-654, 2545,4366, 17207,-23677, 20631,-651, 5328,3504, 9774,-25144, -25608,-9231, -10529,18052, 20500,4174, -5320,-7613, -6823,1468, 20585,-18560, 15813,11599, 2244,1839, -13308,11914, 9338,-21660, 11239,-4138, 127,-24719, -15931,-3717, 15381,14614, -20559,-13258, 3053,-5839, 21571,20207, 12204,-6607, -10187,16230, -17561,-17023, 20115,-24078, 10938,-287, 19657,27041, -3568,23721, -10314,-413, -22477,-7865, 4757,-26149, -13983,-12468, -11883,5150, 7634,-26490, 1101,27770, -18684,12462, 4443,-2118, -20319,-602, -7984,12591, 7223,12533, -1431,-18443, -4589,-31587, 19462,-19187, 17676,-25493, 19962,-25039, -30929,-5337, -15255,28902, -19321,1772, -23499,-30698, 22149,-26933, -8509,-12217, 16683,16122, -12898,19023, 7567,-13209, 13883,-888, -24053,-4659, 17645,5289, 21899,-8698, 1598,-3316, 935,21328, 9549,-15047, 10816,22339, 23188,-3349, -13746,-27118, 7804,-17580, -11340,-16271, -8207,4634, 14132,2577, 10557,-3562, -15254,-15217, -20252,28509, 7663,15239, 19983,-1194, 7909,11269, -18283,-20251, -18753,-5466, 1860,-10338, -8802,13761, 2214,-17085, -22522,-5150, 24199,-5558, 15677,8390, 16737,-15419, -13762,18900, 9929,19218, -3182,-27658, 16050,-11071, -9468,-21247, 1402,-26401, -2768,-6475, -20901,-2159, 2320,-16630, -14728,-10581, -24822,23558, -9633,-22988, 1536,-23728, 19475,-17860, -15629,-24411, 15520,-21375, -13804,-23109, 20570,24773, -7234,-27542, 13423,20845, -15912,20482, -16732,-5956, 12640,16504, 27348,22551, -18334,-22374, -20298,5402, 14557,24874, -18202,3211, -17815,-24268, -23056,10910, -6965,-17554, 19896,-17066, 16330,-6947, -4069,-18503, 3072,21471, -18913,-20730, -7578,21856, 3491,5994, 14981,18499, -4733,-26233, 5888,14039, -4331,-12920, -14118,25300, -24665,10997, -5225,-4613, 11720,8732, 20400,-17851, 21397,12908, -8044,24838, 21724,-190, -16691,-17886, -26128,16134, -629,-8136, 9647,8325, -25337,15416, -22730,-10266, 29781,-112, -26019,-23968, 5739,-641, 12922,-17, 26636,5563, 21297,19328, 16072,-2193, -20166,23365, 23762,-2895, -5767,6682, 32767,-14052, -4029,21287, 6264,3235, 2777,15120, -8255,-22813, 10639,-4115, 16651,18014, -3092,17271, 16108,-21904, 13758,-8762, -19903,-17029, -19073,-15174, -7694,-18736, -28754,-490, 19624,1909, 16507,-15244, 12320,1943, -22447,21879, 22623,24104, -9811,17189, 11786,8029, -3277,5612, 22031,-27609, 10902,-8538, 1476,-27786, -12655,-4297, -6944,18639, -22157,19823, -9059,-11125, -10601,4499, -25909,-93, -28767,12745, -13670,-5007, 17069,-9678, 23195,-30906, -14631,14948, 821,-2949, 26956,16626, -24098,12447, 17919,-29913, -5855,5854, -17830,23144, 21455,-7485, -9865,-16763, -9196,-4623, 6831,17753, -29501,2416, 26123,24735, 21791,2425, 4547,-20364, 13497,4979, 16212,17208, -4683,8279, 5424,180, 2343,-5554, 22084,-12190, -7336,24573, 21169,-1834, -28903,-31297, -23381,-26280, -14012,-25984, -16364,-12065, -8205,18190, -8751,18160, 18976,5544, 2145,-4949, -15846,18985, -26184,-5215, -9081,6944, 17987,850, 15700,-15485, 11224,-267, 21486,-16424, 3184,-26195, 18316,18394, 17993,25297, 9457,12806, -12428,29297, -4617,-16783, 12159,-196, -22544,-14572, 24455,7688, 13590,19254, -16656,-13509, 3639,24829, 14386,-13907, -21152,-24580, 4206,10016, -25505,5826, 11322,10174, 13327,5570, 6042,-9413, 7951,27055, 10626,4341, -7325,25896, 20029,-12833, -10686,-12212, 28715,21773, -21977,27117, 27808,-14410, -15532,23624, -14228,-3195, -25727,-3611, 24350,-25227, 6210,-21799, -12705,-6623, 5108,25954, -22021,23668, 4174,3195, 6125,-19746, 21164,24181, -15150,6481, 3039,14838, 6503,11605, 22817,-9111, 17902,3642, 21810,10603, 2851,10860, 10720,3958, 12639,-10486, 24528,26826, 18243,-21777, 6109,2422, -15102,30353, -16829,26062, -11060,7914, 8181,23702, -10053,2385, 11912,-18053, -16403,8634, 755,9581, 27616,-8468, 25486,6068, 2794,-8544, -6511,8327, 24552,29457, -18974,15305, -4620,-6248, -24443,-2392, 5119,18170, -3141,-12761, -13841,-12795, -14886,18080, 20703,-6247, 23361,-8205, 5932,9634, 13439,16416, -18736},
{-24117, 6330,20135, 8241,-13899, -19009,-25523, -26169,-25467, 11239,-19490, 12,4614, -1912,20193, -5157,4310, -21022,-24734, 5586,1176, 23781,-13290, -8521,-28086, -12315,5, -9373,6447, 3432,22571, -21812,-13587, -9606,19916, -14964,-14845, 16926,-24186, 22428,5569, -10454,10657, 15842,17337, -10535,-18538, -18031,19058, -25751,1850, -8020,-22800, -17622,-4816, 15725,-26153, 12399,12686, -862,-24409, 13430,4474, -16512,-10399, 25029,16123, -23996,-19170, -7771,18406, -23566,-26856, -12787,-17382, 24917,-3050, -24158,-25194, -26476,-15982, -18988,-13593, 15845,14316, -26775,14292, 16131,-2253, -5212,-15101, -7310,14565, 9412,-4632, -11962,15949, -16219,-10480, 2546,-7247, 20806,20340, 17033,-3984, 5201,22439, 10853,292, -29715,-21077, -24362,10420, -10097,-7522, -14543,-23202, 14598,-27875, 26139,-13567, -25317,16132, -13794,14273, -26906,-12288, 17538,-9725, -17756,20825, -3109,27145, -15265,-11135, -12072,-2384, -8656,-6459, -26213,-7933, 20838,-7046, -18288,16445, 16938,24427, -19091,18719, 14957,8546, -13694,4105, 2909,-16766, -21445,13402, -12675,18559, -928,-3084, -9775,-25951, -18590,-18169, 613,26497, 21288,-8421, 24767,-11472, 4872,25786, 14976,8614, 19946,-23022, 21086,-12498, -26805,-4937, -4737,-12981, 18378,-27509, 2740,-19207, -8977,-18647, 12571,-18536, -4498,26271, 20889,-12919, 1649,13057, -9552,-20023, 570,-8880, 22179,-26414, -22541,-25747, 13536,12899, -8021,23352, 23971,-2516, 7174,11444, -17167,22063, 9848,2735, -13032,-4581, -73,-9459, -9900,14481, 27347,20416, -25534,13931, -2895,-16239, -26988,25348, -20409,-21384, 13215,-17220, -28494,25542, 16257,-5582, -20916,30134, 2750,19977, -4491,-7266, -13059,25638, 7126,-6563, 5702,-7007, -3834,11008, 476,-21257, 30498,-19216, -16252,5672, -22888,7766, -5456,16834, -7493,-5532, -22386,-23821, -15204,-10706, -1387,-16104, -13290,9580, -5292,21666, 14833,-25931, 21043,-4800, -2336,1564, -1967,-20035, 103,22993, 2928,-1761, -20683,-13020, -23610,26043, 5607,-13905, -5019,-24086, 1787,6410, 7079,14680, -5411,-6771, 2131,-11631, 28563,-7000, -8287,20661, -15138,-12167, 24469,11096, -23154,-4459, 17688,-8529, -6372,16340, -7610,18999, -17255,-15643, 3276,-23572, -12097,9696, -18119,-7677, -22324,27966, -28555,-12399, -2662,-10255, 3057,16723, 16475,-15991, 4506,-23664, 11339,-5552, 23972,1806, 25757,21141, 12286,-13273, 21735,-19106, -2561,20252, 20982,-24497, -16058,178, 19000,-9193, 4179,9143, 11563,16064, 13985,-12153, 23872,-22505, 3316,20698, -1471,4510, -635,16897, 22331,24370, 19893,-12170, -15908,-24863, -13106,6435, 7786,-18357, -25440,7777, -22000,1941, -9550,-12548, -13707,13368, 2442,-15187, 13560,-13237, -2349,20675, 18395,-19153, 2083,-19042, -23509,17143, 20219,10318, -17451,-18619, 18147,6618, -15808,-24687, 13519,-26830, -34,-2315, 7947,-8737, 3947,-24494, 21946,23294, 9473,-14683, -28912,-18322, 23464,-23805, 11489,-10834, 11275,-10496, -19392,14562, -14082,777, 19646,11595, -23115,-10307, 23064,30729, 29420,-9511, -2836,28167, 8239,9567, -18254,3279, -20791,27039, -262,19366, -18560,-5522, 10121,-26247, 9905,-9644, -15959,-26479, -19940,15047, 9681,19880, 20271,-26734, -24631,-12582, 26498,-8213, 21759,-16809, -23094,-24861, -17309,-8820, 9329,-17122, -9336,-13406, 2692,-13397, -14623,20517, 15656,28952, -9535,1371, -3408,-15614, 7095,17344, 252,15847, -5770,-10703, -11797,12983, 10581,6041, 6462,-11636, 21400,6855, -8632,9747, -21448,27955, -14864,-5692, 8167,16946, 23085,5653, 17985,-17125, 6782,30083, 11941,-2822, -14623,-11360, 15663,4391, 9818,27172, -23672,6088, 7574,-5339, 1141,-22688, -9651,-15612, 8137,-10599, 300,11557, 11912,25048, -1235,26021, 23538,-20819, -19792,-22149, -6608,-10578, -16416,12591, -17301,22118, -16594,-20928, 12807,8618, -20064,-19196, 12877,-8016, -10932,-26086, -22454,-3929, -5737,-22593, -11994,-7534, 25242,-27513, -14641,10078, 24196,-18727, 12221,24435, -11189,-21574, 2073,18103, -9642,29854, 3455,-20176, 10674,-12540, -19282,9441, 21833,-13712, 21193,-5091, 20608,-21588, 20215,23661, -12867,-10614, 1442,-19016, 6895,-9934, -1719,-4081, -17184,23480, -9925,7734, 7467,-15239, -9300,-6056, 28332,24233, -9745,-22403, -2014,21218, -10170,20207, 24100,25761, 27587,25323, -22614,-15051, 2543,-26533, 369,11441, -1881,22055, -15995,-5531, 16552,12515, -4824,-16286, -7720,-1885, 11987,-31175, -25713,3341, -25908,-17214, 474,-2105, 14507,20626, -5616,19612, 9972,4009, 20353,-3832, -2163,11200, 2796,22215, 25732,9474, -7386,-10835, -4764,15012, 13248,-20272, -12782,-17172, -27322,11393, 26890,16881, -14139,21239, 10707,-13672, -5148,-98, 24354,14325, -6220,1721, 11533,21347, 3528,4295, 28473,-18500, 22798,-536, -9690,-17467, -11356,29042, 5676,3321, 11959,14220, 25772,25484, 26599,2926, -7016,-27965, -3125,13539, 7134,29014, -15952,-3755, -12618,14261, 23932,26496, -23258,-15768, -11450,-23464, -17680,6504, -5656,-25429, 662,11071, -2286,5507, -297,23064, 3177,-21612, -28217,26480, -14143,-20583, 7614,628, -13524,15506, -16339,-6550, -28584,19062, -11256,7761, 24930,18364, 17671,-27180, -8915,10630, -3839,-11340, 664,-13963, -21204,20699, -19795,14806, 2452,16169, 681,-12948, -13299,-26223, 27090,-9276, 21052,-7315, -29242,-20395, -12368,-27232, -15729,3420, 17098,8591, 18008,8632, 22544,21494, -8790,-7192, 7980,9496, -25631,-11452, 16696,7398, -23679,-9651, -28160,17559, 46,3613, 18945,-2730, 23416,604, 10654,-220, -2592,14372, -22001,-2501, -26835,25897, -21570,17433, 16826,16004, -23033,481, 9007,2843, 13630,14370, -12726,3335, 2365,-8816, -18566,21082, -20792,4381, 18651,22135, -166,-25624, 14646,-9163, 3880,-23805, -13131,-9343, 3536,-9070, 8926,1436, -5677,-8597, -25111,-11657, -17176,-11552, 8201,-412, 17478,4283, 6706,-12985, 2774,-16453, -1536,10842, -13448,16614, -22994,-8667, 21148,21923, -16126,-10979, 19332,25246, 14957,8722, 15891,-15417, 3356,21187, -22202,-19764, -12893,22243, 20510,-1385, 9761,-697, -1453,8074, -628,8458, 1505,30215, 11120,24985, 19381,241, -20000,22075, 1263,23446, 26570,-8218, -17770,3431, 1665,21499, 16843,20750, 5305,17038, -11293,843, 3590,9427, -17974,-4183, 158,603, 9192,9751, -24688,21644, -22422,-22999, -10557,15456, -21720,7344, 29612,-8315, 307,27393, 2915,-6742, -7045,-3948, -7733,-15848, -4608,11728, 25371,-17281, -24356,20030, -9601,-10632, -19264,12954, -14703,17481, 6249,17291, -3856,86, 5098,-2133, 17109,17099, -318,6596, 25258,6992, -23101,14883, 18443,9825, 10607,25783, -25306,26657, -17875,-23774, 16373,-14189, -11909,15731, 8391,-5753, 5613,29670, -8525,26384, 10749,8890, -22398,5397, 21845,-13148, 5551,3987, -21954,21538, -10662,-16662, -25598,-14977, -18230,6429, 9897,-25385, -23762,23349, 22003,-13740, -15461,19607, -16642,28849, 24230,6171, 2690,-14272, -17597,-20055, -1643,-20307, -16793,-9130, -8590,-17238, 202,-4526, 15776,5216, 626,-5246, 4309,-6135, 19141,4496, -23051,6456, -13091,16836, 10656,-22841, 24411,-4328, -4578,-7954, -17700,-18647, -23257,-26410, -1276,10591, -28062,15956, 10494,-2744, 6929,11071, 25686,-8069, 21706,1042, -4440,-10808, 2416,-21081, 12204,16870, -4370,-9150, 27088,20239, 22307,7908, -17076,-11148, 5469,-11744, 3470,-2898, -14856,-24040, 22154,-26521, 23657,17099, -26044,-4551, -21220,1572, -10171,-22346, 23602,-2281, -2277,-4011, 20237,25672, 14897,-2136, 8940,-12596, -2230,-4902, -5999,-16171, -17243,7811, -17776,-5403, -275,23487, -8771,-15684, 22527,12290, 15958,10110, 26669,-26557, 18352,26812, 7148,-16392, 10820,17702, -12087,-14713, 9094,-15988, 14995,28313, 12567,-20256, 22803,-21780, 18680,15230, -23962,-17466, 25850,13837, -24475,-9646, -17469,-10775, 3876,-9480, 17406,20273, -24219,2016, 25907,-28592, -17776,-22596, 23624,-23754, 5441,-7030, 12206,-8368, -4555,1553, 22241}};
static BiasActivation<CONV_LAYER_2_PE, CONV_LAYER_2_ATILES, conv_layer_2_bias_dtype, conv_layer_2_acc_dtype, conv_layer_2_output_dtype, conv_layer_2_m0_dtype> conv_layer_2_activations = {
.m_bias = {
12221165,
-72838841,
66038901,
12035723,
35325244,
-125888228,
-90767857,
64059359,
-133950969,
85349752,
62305220,
-48091418,
11961329,
28754643,
-113996406,
-147355903},
.m0 = CONV_LAYER_2_M0,
.zero_point = CONV_LAYER_2_OUTPUT_ZERO_POINT,
.min_val = ACT_MIN_VALUE,
.max_val = ACT_MAX_VALUE};
static ap_int<CONV_LAYER_3_WEIGHT_BITS> conv_layer_3_weights[CONV_LAYER_3_PE][CONV_LAYER_3_WTILES][CONV_LAYER_3_SIMD] = {
{15997, -25327,-20187, 21597,-24491, -10690,6258, 5919,-15540, -19432,-26936, -12106,17811, 12805,-22804, 21082,-9092, 1213,14576, -21384,20671, -23776,25855, -26704,4973, -20655,-17626, 5755,-12887, 21878,-23814, -25878,6125, 10664,1737, -18843,-17085, -3255,-18608, 134,2096, 17275,-25280, 13624,6842, 17892,16895, -24291,-10663, -9588,7263, -24145,-13528, -26218,17880, -11469,12828, -13928,-7283, 5257,-9934, 12282,8503, -14764,23509, 1360,-10481, -10683,8707, 6999,22898, 26388,-24951, -28124,20266, 24297,17667, 8594,9537, -15321,17213, -1036,-25578, -18665,-26583, -15771,-19941, 5770,-20213, 25006,-688, -11000,-24024, 12526,12273, -9337,23709, 4000,-24032, -23360,-23180, 7665,8933, 13746,-3714, -18309,-20402, -20300,-21628, -7515,18977, 23479,-28610, -25977,12137, -15520,25783, -7103,-22861, -16859,463, -16490,7209, -5676,6969, 25640,-14663, 13101,-26609, -11579,-14200, -25702,202, -13056,-22369, 6285,7567, -22070,18013, 12674,-28288, -29964,-14780, 21381,4075, -62,8095, 2183,-16429, 21129,-15768, 7857,24266, -1347,26051, 7751,11238, -6765,19627, 18523,12005, -20770,-20155, -17621,23231, 5287,-3162, -22328,-12065, 10307,27894, 9879,-8751, -21608,22958, -11844,-10254, 22425,4755, 9168,1141, -12515,-21208, -744,16660, -22964,-19440, 6433,-24095, -26104,-8418, 25686,3693, 18712,6192, -12762,-20039, 13214,7718, 11368,-24518, 22017,-3540, -24240,20730, -26775,-4790, -13127,-5131, 4912,-8594, -20135,23305, -4912,-2523, 3595,-8619, 6103,-25883, -22545,10521, -12,-19822, 8757,-21184, -10068,6738, 6207,-10147, 567,-11647, 24406,-10710, -5121,-2094, -29196,26403, -13713,-710, -2920,7486, 5546,21747, -14992,7557, -24391,-29021, -26384,27049, 22224,-22183, 13446,-26708, -2177,-9087, -3121,-2101, -16514,13171, 15896,16126, 658,11163, 1875,-22121, -19261,-19910, 15310,20442, 23927,18814, 6024,-5137, 16516,-2962, -4975,16030, 13903,7714, 42,-22316, -13566,15369, 7129,6917, 16520,-2742, 17234,-12491, -570,9390, 765,4330, 13130,12427, 19452,21339, 1374,23382, 12218,4216, 16122,-17783, -3418,13234, 1607,8390, -21662,-19698, -19815,-26780, -19171,-22334, -6044,5037, -19079,23238, 139,3824, -27679,-22210, -4085,-8685, -8443,-27154, 8859,14487, -27563,-22958, 4647,14304, 26414,-17013, 11533,7847, 149,-12416, 3865,-15077, 17786,18839, -10643,-12965, -19189,-2516, 22389,13775, -16024,-14500, -1516,7047, 19277,12829, 13110,-27866, 12712,-21516, -11817,-25300, 19450,-25707, -29928,23300, -76,769, 25373,-100, 6349,11522, -4801,-10029, 3155,-14855, 1360,25570, -22149,-5207, -26276,27793, -13393,-4227, -2383,20826, -290,-20664, -7134,6265, 67,14652, 800,10767, -889,-15731, -3303,12159, -29234,20595, -23630,-16909, -23990,-30102, -14935,-8870, 8599,20832, 7359,-5356, 8391,4225, 8097,-6689, 12237,5673, -7600,14907, -9354,28166, 23429,-2461, -27188,-7211, -28813,-15867, -28587,-6834, -1835,16094, 26378,-15261, -12408,-27038, 3098,7746, -8109,-11868, 6743,17286, 5579,-5118, -12121,7537, 5310,20219, 3871,8252, 9439,-26448, -20312,-15383, -7617,15256, -3514,-5231, 7251,13889, -3877,-26889, -20781,15167, -12143,22576, -20060,4499, -4185,849, 25164,8549, -13835,17549, -17680,4259, -11683,879, 2734,21451, 18134,6093, 10046,-1152, -25011,-5280, -5415,-20958, 11016,-9512, 19588,-28500, -13686,8562, 22638,-14536, 18484,19532, -16828,20894, -29352,-7437, 6185,8898, 19858,22686, 2648,-24693, 22132,12310, 20054,-5631, -15679,-2352, -2292,-241, 16364,-20422, 20435,-18959, 8266,-25146, -4414,-22065, -4035,14687, -898,13578, 9447,-8463, -22765,-13744, -16300,-10807, 13494,22875, 18639,-26892, -14613,-4379, -7153,21040, -8563,29007, -20698,-19526, -28729,-4044, 9693,5230, -23577,14314, 4990,-19740, -18818,-18728, -5525,-18937, 9840,29999, -25737,-4591, 15841,-24173, 2449,12148, 4510,-13470, -26329,-24167, -18835,12792, 22538,-20495, 2785,15057, 5387,-1077, 24617,4027, 13260,-20194, 17991,23744, -26855,6605, 7799,8576, 3579,-8935, -4536,-5401, -9910,-22449, 1441,-16226, 25636,-17042, 16194,19316, -18938,11749, -29566,8178, 16366,3654, 19982,11282, 7403,21067, -6336,-9007, 20743,-10379, -15734,16154, 4820,-14602, 21254,9498, 377,2197, 19433,22205, 7681,-22873, 7706,-12910, -25759,14151, 25933,-12001, 12534,-11167, 5724,-5333, -9174,-18899, 9470,8868, -11258,-7296, -6112,-26263, 14103,1046, 14867,-22803, -8282,-1894, 9639,-13408, -16459,896, -29051,17258, 5254,-8600, 16159,6837, 20274,5044, -23604,-4243, -4162,-9155, -11100,-14154, -23860,24501, -21934,15941, -9774,-22626, -5221,5442, -20545,-12162, -25333,-2632, 23338,19244, 14765,6825, -21919,-17335, 9693,-17404, 14701,-21528, -19283,-24730, -9579,14917, -11670,-17012, -5007,-5844, 809,14096, -22140,19721, 764,4116, -6192,21410, 17947,20843, -7660,19090, -17973,-21007, 11692,-6645, -7298,-19307, -5025,-18405, 15643,-23542, 14184,20681, -2432,-28327, -6414,-21051, -18487,7317, 19680,-17988, -1735,-26704, -19008,-14266, -11806,24134, -20644,18930, 3205,-31166, -23842,6906, -17500,-10945, 13882,-1470, 11528,2345, 6324,-15526, -31270,-29261, 297,-27145, 11686,-23032, -24277,-22397, -26675,1102, 17619,-1499, 23672,21262, 17180,-1532, -21638,-2532, -19709,-19543, -22594,14889, 5009,-2794, -26851,10922, 2673,10263, -7906,24405, 24234,-23895, -26927,-25574, 24770,-19823, 7001,-22828, 4606,3250, -16470,-18188, -6590,-21669, 10719,-14778, -15893,-24294, -18076,-1314, -29415,-12378, 22342,-2702, -438,18270, -22859,9667, -25275,-7291, -8769,13255, -16499,22363, 14000,-6102, 14163,-29581, -27161,18732, -26243,9831, -2314,839, -13013,-28760, 3448,-3115, -3943,1991, 6349,-14448, -8369,-5990, -21759,-13774, -4082,-6697, -7303,26016, -3444,1516, 22225,-11464, -20361,-23229, 11983,27292, -28920,-16787, 4343,-23667, 18230,-16045, 17975,9856, 11494,-5682, -3135,-5134, 18044,-7157, -2599,10023, 17260,21991, 21638,-24016, 16588,21070, -3397,-24002, 20193,21236, 19752,-12935, -21053,8031, 8835,20251, 14775,22007, -31252,-31288, 20684,-27855, 15074,15570, -28817,-2032, -8557,-28038, -26118,-9187, -26434,-577, -30257,14824, 3187,22598, 13785,-29903, -12533,-31203, -29729,16347, 5202,-13126, -25763,-1011, -22054,-19858, -21541,17278, 16977,-7354, 10817,-19233, 23491,3233, -11302,17251, -10404,-16418, 20960,-6975, -28543,-9844, 17295,21587, -25944,-27727, -27975,-8625, -4575,5064, -1717,-30434, 9410,-12651, -10739,-20742, -15136,5942, 22899,-30656, -4827,-12491, 5918,-20563, 13403,23651, 16350,-5612, -3192,-15235, -9565,-30642, 9555,20890, -23933,-4754, 19678,-5483, -11458,-30225, 3318,23703, -45,-8395, 3906,-30201, -28940,5484, 1964,-9693, -29262,21499, -22040,-32271, 12383,11054, 4404,-12343, -19262,-27243, 22752,19264, -22923,-32767, -423,-17355, 19235,-1799, -25238,-14689, 16573,-10090, -4206,-29030, -1871,-11005, -16997,-10882, -16965,22761, -15643,6138, -19787,22139, 2684,-21272, 17800,5370, 7659,-1631, 12270,-14964, 18092,8628, -7390,-10056, 16451,-8890, -15529,-396, -16578,-24651, -29584,6095, -252,17728, 2229,3931, 25647,2114, -22179,-10870, 10729,8025, 11931,-19268, 1295,-13390, 24134,2025, -15316,-21489, 9882,23147, -11411,-348, -19949,25393, -9520,4436, 544,-7023, -15817,-16601, 17361,-11001, -26152,23988, -16430,16375, 3116,-5103, -15763,1618, 15956,-10067, 1412,22853, -11440,1981, 844,16208, 28447,-3507, 16336,19672, 22484,-14340, -14778,-7678, -3726,-8726, -28860,-395, -29213,-1887, 16112,-28876, 6582,1035, -23385,-1494, -26059,-15377, -2116,-10315, -13115,3030, 4078,-18563, 22892,-25670, -10582,11610, -7541,18657, -26137,14239, 25542,9607, 14591,5107, -26931,22965, -3943,-3118, 2323,6559, 15559,18987, 1299,25550, 1449,-15160, -24214,-23292, -6779,-18104, -15024,25764, 4965,11894, 2540,5153, 22618,20871, -20752,13654, -12485,20643, -1589,1934, -5726,-18822, 3200,-7055, -20118,1242, 19760,12383, 16962},
{28015, -2408,20415, 24003,8935, -22737,10121, 21026,8621, -17739,-12516, 5678,17473, -12038,-6204, 20878,10165, 4092,-24019, -5298,19028, -25842,-22088, -197,-1122, 25189,6319, -190,13807, -26391,1172, 3766,-19288, -7746,23890, -13721,-9867, 14940,-4129, -3056,-3420, -23887,-14011, 4836,-6064, -20923,-5749, 14031,-5164, 669,-6782, -22761,-1458, -4094,-18254, 7973,1196, -7480,10693, -20017,15640, 3604,6432, 14666,-5473, 8830,3857, -1916,-30154, -12178,23486, 25652,13721, -4850,15839, 959,-18120, 15808,-6838, 2165,12009, 14844,21163, -19856,-12345, 17103,-16783, -23465,100, 6893,14323, -9859,11258, 11624,9009, -9475,-3912, -18922,20006, -3650,23740, -8971,24841, -16050,-12492, -1206,-4503, -10272,-26104, -13882,-13229, 9187,-16901, 23946,-10747, 10508,-15958, -6166,-6055, -24385,-4118, -22113,4900, -5775,-2181, 26053,1904, -170,-23001, 20291,-14746, 14204,-5264, 16316,-21096, 8839,2783, -21208,-4648, -12215,24772, 4176,-10149, 18321,-26833, -2299,14155, -18373,406, -4345,24235, 12958,-18315, -27693,-14158, -28813,20051, -28462,6440, -26614,17602, -23619,7029, -11690,23827, -10353,-24765, -22540,19410, -5002,-23588, -9196,25664, 1340,17576, 25532,9861, -15344,9193, 4647,-19477, -8721,15003, -4238,11152, -17119,14480, 9751,1497, 7008,-18678, 2086,-28635, 6388,18808, 6466,22636, -1092,4677, 8020,6342, -24814,21417, 17482,23126, 17936,-21495, 13827,19695, -15255,-13186, 20876,-16893, 14805,8100, -24145,-12625, 23806,20630, 8781,2468, -12020,9143, 15921,17351, -7477,-23693, 25666,-5884, -9004,-12463, -19194,-17200, -20588,-9144, 14302,-23879, -14808,6747, 9422,-24271, -28550,17592, -696,-5069, -2525,-14121, 22168,15657, -11297,27224, 1403,18959, 11506,20077, -17804,-20720, 5713,-24173, -26144,-10818, 2020,521, 21102,-25856, -11507,-1139, -16732,-7525, 5036,-19127, -16726,-16253, -9456,-24734, -23033,15008, -10786,-22822, 23807,6990, 19851,14662, 19198,-27034, -24383,10753, -23085,5591, 7698,9696, 2901,21104, -14543,-12754, -21545,2638, 6063,22022, -2026,4247, -16223,-19787, 21378,-117, -8502,-27782, -24152,-14209, 18277,-4130, 22492,10206, 1452,-28671, -16617,23025, -23810,-27220, -25001,11346, -14866,7992, 24290,-13861, -5075,14851, -285,-7199, 23206,-2961, -29897,-21648, -2233,-26994, -12031,17189, 4893,-16170, 6480,-20722, -14950,5878, -19452,-10252, -21929,3979, -28376,-18941, 19225,-1746, 8644,-20611, -11857,-19176, 23294,-14040, 15590,14003, 20977,-29934, 3706,8812, 5348,-6720, -16040,-17358, -25708,22011, 6669,20230, 6234,-5196, 16191,9174, 17778,-13276, -6129,-6648, -10524,-26585, -28691,14832, -2977,-18303, -29486,2593, 10557,1141, 13112,-16707, -29810,-8366, 17403,21816, -26274,8088, 3889,-24305, -26949,-30015, 17736,19774, -15389,12984, 1289,21655, -16446,-10640, -12486,-19752, 17377,-13667, -12999,6155, -31660,-29866, 18282,-105, 10008,20680, 15215,12148, -26,-4610, -8410,-9195, -1207,12027, 13062,-935, -15587,25001, 2407,-3945, 4524,9400, 22435,-22492, 14564,-7918, 27106,-10670, 30434,-26301, 22199,29343, 1768,-21956, -10717,-6313, 12926,-21420, -24122,-18407, -10418,11786, 18377,8300, 6984,-11351, 23792,-15392, -27804,892, 1839,9915, -20614,14948, -12309,3735, 20855,876, -10874,-15236, -6617,-7512, -13931,-5519, 24061,5376, 25359,-2007, 25466,-9436, -8437,-13742, -1770,-18487, 17388,-20460, -23695,-23719, -17571,-9636, 23458,21549, -12115,6100, 16877,-26313, 15216,17280, 21149,-24416, -7298,13648, -12938,3261, 24727,-23944, -11220,-22813, -24626,20434, 2915,-5427, 12839,-10940, 4790,18485, 6413,-23044, 1781,13229, -24471,-24759, -405,-3003, 15131,-19004, 28721,12846, 18983,11233, -27825,20297, -22413,-24975, -4472,5466, -12780,-25078, -560,-8209, -29186,-3581, 19998,-21575, 15022,3181, 4903,6316, -22696,-13863, -21558,20347, 23540,-14862, -6141,-341, 2155,2964, 21472,-21253, 600,6157, 13606,-13863, 18619,-25848, -9641,-25856, -16147,-2853, -24623,-7673, 15589,-26006, -1133,-13385, -11652,23519, -22869,9800, -5170,4790, 19684,12355, -17170,9560, -18849,25217, 20571,19473, -5582,-29893, 14025,-24985, 6338,-11378, -8500,20894, 19012,-8973, 21601,21729, 24827,-2377, -9966,-13838, 16783,22474, 22995,-30967, -25743,12984, -16600,-4322, -11721,-7692, -8622,-21864, 4493,16134, 18625,18174, 21269,11429, -14652,-6892, -21787,6537, -20411,19985, 23649,23673, -483,-23691, -15965,4769, 23030,-20217, -14244,-31498, -26139,-29314, -26848,12361, -22340,-3820, -23147,-10962, 7854,15715, -9500,-16378, 7020,15575, -32255,-2365, 25657,-30158, 25803,-25080, -13960,2114, -18202,17067, 14076,-27922, -990,14432, 18896,7155, -8450,-13782, -21237,2267, -20524,22301, 21307,18414, -29682,12883, 23565,9929, 14569,-18617, -22043,-13007, 22981,-6940, -6428,20486, 17285,14339, -5627,-29632, 14455,-29563, -16994,9931, -8906,402, 4654,11210, -3508,-20174, -19665,-11520, -8085,-28687, 6305,4501, -9886,-11762, 1732,-29213, 24706,-17187, -24679,6656, 21562,-11805, -5642,17347, -13329,-15721, -9809,-22109, 5990,15204, -6580,7616, 22689,-12073, 2389,1416, 6376,6208, 1266,4159, 9276,7992, 6014,17723, -5372,-2674, -3196,7203, -828,-24506, -24515,-6952, 4319,-834, -25063,13778, 17609,17182, -17540,-25251, 2261,-6422, 2222,4035, 8694,-25735, 1077,4260, 20725,10011, 6365,-17434, 996,-26366, 18307,22601, 18703,13983, -17844,14210, -18880,-1322, -6231,10654, -5943,3764, -697,24479, 13749,7489, -730,-15897, 23275,12225, 26665,-29114, 144,11996, 20862,-4116, -16328,1287, -28673,-22593, -23026,5756, 17359,-1473, -8947,11189, -28019,-15706, 2783,3625, 1676,-15132, -15417,-14814, 3118,23244, -16781,-2471, -30603,4531, 19292,-5460, 27300,2442, -2506,964, -18929,-23789, -5041,23967, -17966,-25555, -11061,-3672, -26535,-29601, 5235,-13011, -24339,10266, -9988,5544, -6515,-21215, -22367,17440, 5493,6193, -345,16187, -28247,-7735, -12832,-19504, -30467,-2726, 12852,21415, 3966,17507, -443,-29919, 17474,-31119, 14492,11839, 1437,21058, 8040,-11878, -11237,2296, -2822,21991, 24949,-10662, -27492,15217, 4907,3951, 8794,-25045, -24048,-25801, 23276,11435, -28416,-15558, 24494,10887, -5508,-9541, -30274,4485, -19044,-1901, 12729,-16636, -21667,16494, 11185,-12109, 13721,-15346, -23826,-13507, 19001,-17328, 17421,2598, -23929,15911, 4121,-20029, -17249,671, -21679,-20287, -12839,-9691, 7032,18255, 10231,-13633, -24541,12153, -10558,-17750, 24013,6995, 24501,22733, 2198,-14287, -30870,22385, 7367,-10564, 19605,-7566, -9932,-4923, -1282,11663, 19559,23022, -12193,870, 16448,22133, 11349,-25581, -21106,-11673, -22405,5238, 1349,-18590, -14738,16862, -25332,-19402, -15764,-13725, 13139,6598, 11077,-640, -10452,8385, -3291,20549, -9363,-24000, -27700,12885, -1781,-13159, -16041,-4440, 14404,18715, 1381,-11527, 8699,-10366, -9538,-7466, -29680,-5252, -5552,9808, -18511,-22213, 641,-9047, -2403,19147, -5258,-12786, -5193,3247, -8791,-420, 10857,-11669, 2572,-4305, -16882,2621, 23104,-3461, 11513,15303, -8494,9608, -26545,10051, -29059,23255, -19175,7161, -2647,-29593, -14572,-29229, 7602,-25205, -14690,-9325, -27781,-7479, -24180,-15868, 6319,-7220, -15733,-23115, 10598,-29094, -30334,-11025, 6132,5472, -19936,-10445, -5072,4109, 15099,-17163, -2948,-13802, 11061,-1817, 1032,-7249, 17264,-27553, 7946,23261, -23685,18754, -7327,3999, -6322,-16485, -1603,-698, 20252,22751, 3127,-13945, 8569,-25448, -14015,-20843, 23240,-11335, 2789,-11420, -23127,11228, -18940,-10680, 5681,3459, -13369,-14428, -21654,4263, 23043,17686, -21390,-4148, -14211,-942, -8315,16015, -14297,-10052, 22151,18311, -2344,3570, -16492,-639, -15365,-13652, -20598,13015, -8106,-12554, 1291,9287, -25137,14846, -14269,19828, 21549,21236, 16037,-30446, 17968,11659, 3258,-29660, -2246,-5316, 22372,12241, 12597,-8541, -23809,-3433, 507,-25426, 11685,-18122, -24062,23872, -7073,12003, 12660,-15817, 3925}};
static BiasActivation<CONV_LAYER_3_PE, CONV_LAYER_3_ATILES, conv_layer_3_bias_dtype, conv_layer_3_acc_dtype, conv_layer_3_output_dtype, conv_layer_3_m0_dtype> conv_layer_3_activations = {
.m_bias = {
70684368,
-225430370,
257025718,
-70796821,
-272457696,
-157784399,
199413166,
5426468,
-147137718,
224395700,
255376755,
-223912867,
217979017,
46096748,
238099098,
-13986427},
.m0 = CONV_LAYER_3_M0,
.zero_point = CONV_LAYER_3_OUTPUT_ZERO_POINT,
.min_val = ACT_MIN_VALUE,
.max_val = ACT_MAX_VALUE};
static ap_int<CONVTRANSPOSE_0_WEIGHT_BITS> convtranspose_0_weights[CONVTRANSPOSE_0_PE][CONVTRANSPOSE_0_WTILES][CONVTRANSPOSE_0_SIMD] = {
{25156,-20539,29145,7917,8487,22495,4607,-26715,20542,29731,-7869,29204,5628,9678,-23725,5910,9366,9592,-17690,-24189,2919,-2629,9559,19768,-11439,-24947,27928,26650,16895,-12182,17005,-29117,-16712,23181,-19560,-9207,2660,-21793,-21986,27969,29184,-1829,-20598,17551,-1057,-13756,-30106,-8856,-19242,26996,-5018,6169,-3362,-17764,23205,20809,-2949,8415,25980,10696,-3725,-27402,-152,28488,6622,24410,5286,-8621,10666,-5367,28434,24556,-25645,-9035,-22206,22264,26873,1610,-11240,1865,22994,14121,-7506,11016,1094,14857,-27284,-1162,-31927,-8065,20295,19118,22494,-20691,-1898,-3131,14856,-12962,9212,-25861,-15871,-359,-5404,22648,-5434,5457,12110,6140,-13661,-6858,-20192,19849,1498,-17727,-2417,-3154,15602,-18433,-30929,13401,-11860,2058,20897,3638,-30761,-11117,-28743,-29402,10504,-16493,-16481,-12823,-15669,19312,-19588,26346,-14857,-24180,3011,5145,-16046,11171,29037,9031,12825,-21683,-26790,-7787,-9447,-1287,-27265,-15536,-15168,-20902,8702,-11772,-20768,7768,20723,25749,-13372,-6413,-28714,15916,1508,-1534,-24548,-24294,9673,-27578,13339,-13390,18195,-18913,17153,2827,-2984,1362,25320,-15581,-22939,-7169,25478,20329,4384,-10232,-13505,20839,-7669,16067,22417,23018,-21368,-8871,-24225,3739,1048,16678,26776,-23340,13024,-21801,8939,4762,-10782,-27965,-8939,-24739,-6663,-5927,14445,417,-13737,16368,-20528,2953,21508,28548,24872,10179,18987,11258,-23329,25897,-22374,-10420,29610,15557,-6220,25421,-26663,-26832,29645,-14512,23771,18959,25011,-5192,8213,21457,-8654,26515,-20416,23538,9405,12890,16752,219,16309,6653,-28631,9159,32257,20218,-23102,-13464,18821,19800,20614,8642,-10696,19363,8249,18703,-21453,24362,-27309,-4785,-7831,-16168,-31959,3805,4440,17408,-395,3734,-21823,-29131,-21780,4680,-29580,6754,23046,-24739,21225,-11120,7535,18795,4500,-6147,-26378,13694,-7480,16656,601,11073,10708,-4700,14950,-10926,14123,-6291,25989,-19720,8545,-4450,-14329,3746,30182,19936,-18201,-18580,-13781,17958,-10601,-25041,-10026,24833,30538,5933,-3400,607,15949,-520,19331,-4442,17329,8425,23561,1835,11962,21123,18068,20994,-9861,-176,-1052,852,-12847,17605,11647,12604,18671,12880,2954,-27304,7857,-1282,21920,19677,-1476,16039,-2302,1208,24965,-25483,-9079,-8262,9663,-205,-10576,22044,5583,-10264,2005,-8693,-9918,-25246,23252,24872,-19324,16735,22143,-5694,-29463,-5372,-12951,18016,10460,2982,22132,4984,-28086,-7427,674,-4150,-18994,25084,13052,-13725,5863,-26372,24679,14913,4426,20966,-27688,-27489,31831,11053,-28349,-18630,-15711,-15978,-18031,-27351,-22249,-12493,25495,16530,-18701,-688,-730,17519,-8838,-25120,-26414,1857,-7366,6756,22964,-1888,9404,-15279,11559,-22396,-22442,1046,11876,-14651,-10124,13005,15610,4386,-4638,22576,12245,-17785,28109,22847,4235,-19476,28595,16139,27249,-16528,-5308,5982,28380,-24715,-17695,22368,-9958,-6884,-15881,-16606,-20743,23385,21761,19922,25004,22049,-3855,-6551,20516,-23056,-29484,-8885,-2600,26988,19263,27911,-3572,28259,2324,-24296,26331,7036,-3772,-13051,-17073,3774,1686,-14255,-20922,-15572,-20723,-7855,1011,13031,2879,-6857,18462,-10879,-13881,-24515,6451,-24887,-17081,-27374,-9993,-4246,23192,-23115,20904,-21874,9980,-20068,17593,4356,26786,-29649,5924,21573,15911,-4700,25000,-14183,-5363,-6803,13801,-14947,8971,-8978,-19356,-30244,17420,-19015,21891,-19471,-24477,-16175,-2070,9079,10730,-28181,19291,18850,5790,11606,-6760,-24530,8457,17056,-27082,-24669,-28347,5962,-14097,25069,20386,14071,8586,-18164,-8568,-7783,-30452,14188,21549,-21566,6943,9758,-16844,14530,-18098,-23777,-21499,-964,-19711,29508,3990,-24349,-9673,20852,-23079,21324,-25422,7402,-24778,23336,13839,15761,-29991,-3462,-24482,-11716,16484,21294,-10292,14100,5106,-12731,25483,-2288,2465,-11740,-15871,-3800,2650,-10854,-11848,-26100,25046,13063,8640,24322,-18190,4444,25736,-7188,-17387,7659,-14311,19739,-26274,2710,2842,2867,-22905,-16078,-22760,21213,21811,-1962,20926,-24785,-9975,14688,-23954,30224,10584,-18579,-10630,-543,11383,-5495,2755,-28611,21064,-9459,21025,28069,-28020,-12793,17746,22602,28088,-25624,-23158,3652,964,-26032,-6527,-1756,27053,-30228,28140,-26836,-27247,-28834,19914,22741,-1909,18418,-16667,15321,-16634,21940,26809,2432,-15671,-23818,-32767,26622,-7208,-9582,23563,-24093,-27175,-12898,24937,-3591,-20116,20451,-3248,-13806,-5873,-8294,-2165,28376,-19835,4058,-7738,27725,-27791,4549,10296,16439,23701,8455,-14041,2096,29682,6329,-10036,-18897,-14844,10745,-1033,11737,-1267,-24388,-26112,-11443,4423,-3156,-5107,-19347,-27986,27821,12205,22099,-24908,-14891,-27659,-4371,4845,-7741,25729,7743,6279,3394,15254,11502,3393,-2494,8752,-19823,-11972,-11028,-9660,-19487,-5455,21247,18599,-21685,4350,-20387,15414,-3708,-5347,174,-3928,-24179,1593,-7193,26184,-349,-18978,-17037,29654,-3688,515,-27338,21944,25472,-26592,-25242,-8866,17467,26656,24317,-267,29019,-4451,-13823,21495,-7810,-9907,-16719,10370,-8515,-16451,8820,-5964,-10578,-29302,-15520,-22446,12144,-6542,-6477,-30111,1438,-2578,-8424,27102,-2613,19335,-17551,27472,-21816,-21064,10024,-8939,165,-30550,16740,-31220,-8980,-14972,-19156,22750,-26587,22821,-16914,-29941,-27607,-8125,11640,1883,19442,12977,-3262,-28891,24036,-11308,-29440,-25585,-19349,24260,7137,12999,3088,3431,-24068,-1482,-27088,-15100,18574,5308,24285,5599,-5421,19885,25473,4678,-22098,-8277,-27796,11474,26308,21117,21809,-10565,26432,-28745,28536,5235,-25892,16890,24086,-17892,-15592,19520,-4602,-11548,18594,-27697,-1237,17407,-24871,-20839,-4963,19820,-17475,9734,1587,2445,-13698,20834,26967,28958,12139,-26017,28179,19007,-25780,-7305,-29803,5380,-24535,945,28947,-1362,6271,-20603,677,-23605,-21421,1459,1464,16226,-18971,-18845,26662,-22721,-21423,19410,3841,-5064,-14683,8850,16495,868,20490,9854,-19858,15977,2196,-1198,-26029,-7036,26917,-13390,11233,15296,-22391,-22161,-25132,-14975,9480,-4001,23772,21850,-25676,-12132,20562,17089,-5743,24526,12087,-26863,14003,13946,-18871,3065,21020,-14520,3913,5231,14807,-2115,5384,-4806,-21727,25188,13970,15828,-364,-20568,-1943,-10533,13254,17206,-25744,268,4125,-14316,-15415,-4855,28516,8419,26265,-16803,-28281,1488,5335,224,-30421,-15386,27163,29281,30147,7788,-6186,15347,25549,3511,-20547,8840,20131,-17357,-4807,-10483,-28279,-12899,18208,-15235,-16651,-6523,12634,-4450,20774,-21507,29972,11767,-6018,19904,28821,-24503,5847,-13255,18376,24060,-24448,-22930,-1663,13746,24607,4559,18121,-12388,-6903}};
static BiasActivation<CONVTRANSPOSE_0_PE, CONVTRANSPOSE_0_ATILES, convtranspose_0_bias_dtype, convtranspose_0_acc_dtype, convtranspose_0_output_dtype, convtranspose_0_m0_dtype> convtranspose_0_activations = {
.m_bias = {
-220932449,
-1490828339,
-307473607,
-317988846,
1360244747,
422052402,
1860211551,
-1035633214,
-440210738,
582121225,
648747610,
1609443991,
466344625,
-814520448,
-1435785080,
-1048891586},
.m0 = CONVTRANSPOSE_0_M0,
.zero_point = CONVTRANSPOSE_0_OUTPUT_ZERO_POINT,
.min_val = ACT_MIN_VALUE,
.max_val = ACT_MAX_VALUE};
static ap_int<CONV_LAYER_4_WEIGHT_BITS> conv_layer_4_weights[CONV_LAYER_4_PE][CONV_LAYER_4_WTILES][CONV_LAYER_4_SIMD] = {
{-4168, -2900, 1766, 3227,-3006, -3161, 5164, 2519,-2299, 24, 3389, -1447,-1392, -5488, 6341, 3350,6530, 6104, 6878, 5021,2342, -4921, -3581, -5298,-3543, -99, -2580, -5594,-1600, -3692, -4328, -5806,-296, -2197, -7219, 5117,-4124, 854, -4792, 2157,-8593, -817, 1458, 216,-3337, -6340, -2126, -3970,-5756, 3027, -285, 1993,-588, -3301, 5381, 3874,-1156, 2635, 4943, -5764,-6632, 934, 1881, 405,-5056, -5044, 1435, -9065,5641, -4286, -4638, -5049,-481, 6341, -3255, -4352,6392, -6984, 6897, -3259,7406, -1123, -1174, -2216,-2686, -2472, -6833, -3984,5705, -5230, -1247, -5041,-5850, -2738, 1431, 6481,5223, 1282, 3832, 2514,7561, 41, -2431, -4830,2268, 3016, 1739, -1785,7871, 3193, -7446, -4023,7359, -2812, -3041, 4510,-844, -6562, -1571, -3412,-5796, 2386, 5094, -2127,2878, -3742, 216, -2604,-8448, 3087, 3816, -6911,5564, 443, -5086, -6114,-7924, 3592, 1287, -8245,2366, -1743, 1773, 4969,-5970, -4591, 7126, -3631,-1827, 2643, -2455, 6002,-3097, -3225, -1043, -2637,-2298, 6055, 2196, 5891,156, -3773, 2362, -6971,1675, -7276, 3321, 484,-8548, 2094, -6881, -4892,-6600, 2731, -4624, -9286,3709, -3876, 4106, -5899,-6206, 2109, -2558, 4988,-162, -5196, -7751, -4816,-5837, 5093, -352, 7064,-3874, -3165, 5302, 2569,789, -86, -770, 2485,-9168, -925, 5118, 1433,-2878, 4951, 1776, -5669,963, -1951, -1420, 1040,-5555, 5213, 277, -1997,-4131, -6476, 3768, 4874,-4590, 1035, 5908, 418,-2366, 5505, 4666, 5233,4429, 5342, 6730, 3168,-8803, -520, 6205, 535,-589, 937, -33, -6109,3934, -1568, 7467, -1817,-3665, 2703, 6480, 4879,-3431, 2791, 7200, 848,-1722, -2817, 4296, 3390,4217, -5431, 2166, -9966,5141, 5606, 6778, 1095,591, 7315, 3466, 1463,-6487, -4472, -1956, 2183,-1873, -1460, 3784, 116,6686, -5395, -3561, 1700,-2905, 5191, -3482, -7200,-6827, 3247, -2425, -4429,5670, 926, -1728, 5057,-247, -6266, -7990, -8064,-5911, -2342, 6509, -7332,5905, -5729, -4033, -6140,-4061, 3775, 4119, 794,-7552, 4121, -2551, 4523,-5101, 4287, 3204, -5804,-4817, -217, -1584, 318,-5425, -2799, -5964, -526,-2086, 5037, -3901, 5517,-3983, 7258, -772, -8488,2470, 7302, 2982, -8486,-5828, -1204, 1253, 9813,1755, 5789, 5291, 5749,598, 7953, 2531, -3792,-3938, 3642, 2398, 6929,-5128, -5452, 654, -520,1981, -6729, 2248, 4613,-7494, -7911, -3487, -168,616, -190, 4193, 4661,-1326, -3540, -845, -8765,-6561, -4846, 2187, 5495,-7070, 4132, 3163, 8311,86, 5338, -632, 5159,4984, -6977, -2202, -1748,-828, 6808, 3207, 446,4721, 4681, 6676, 3016,3041, -1757, -7797, -818,-7383, 4660, 3923, -4934,528, 5728, 7184, 8814,-1755, 2424, -8250, -1794,574, -1394, 5281, -982,-1000, -1090, -2471, -2689,1971, -1493, -2433, -9089,-7435, 2779, -241, 2842,2945, 4116, -4224, -9143,-3668, 8101, -1786, 5449,4074, -928, -6858, -1986,4850, -2999, -569, -2691,3346, -6509, 6118, -7261,2765, -1612, -4152, -3621,840, 4865, -5396, -2429,-208, -6611, -2887, -486,4626, -4562, 382, 3992,-2466, -2789, 4801, 493,3576, 4081, 1940, -5996,5947, 5647, -2078, 910,-3677, -1687, -1390, 6828,-7484, 743, 6694, -7919,3991, 5846, -3068, 6619,3661, 7365, 1789, 4797,-1032, -834, -1303, 3274,-1799, -1968, -3392, -2769,-6408, 1680, 861, 1188,4605, 2078, -4198, -7456,-4389, 2069, -3928, -2255,4572, -5183, -6170, -1763,4171, 3820, 841, -4540,1035, -3180, 631, 8829,6684, 2191, -1328, -9023,536, -6176, -3035, -2670,-3977, -2020, 6158, -4129,2926, -3353, -116, 2041,-3067, -791, 860, 6616,-398, -247, 1996, -406,-531, -3486, -5773, 3681,7224, 5555, -3885, 7165,-4689, -841, -7026, -7727,7794, -2619, 6194, -3381,6702, 3781, 195, 4531,-7828, -964, 8614, 1831,845, 1537, 5530, -701,-5553, -2423, 2071, -10973,-2699, 12980, -6355, -5777,-11910, 5416, 8016, 9402,3433, -1801, 9647, -1255,-2942, 8322, -9999, 9679,5386, -3233, -11846, -9396,6543, -5516, -7664, -11759,1986, 2380, -4112, -3052,3547, -1231, -13429, 9589,8536, -2099, 929, -10744,3809, -3073, 1064, -7371,-5567, -88, 6556, -11966,-3271, 6172, -6602, 6210,-4223, -4755, 2019, -9114,-5166, -8992, -954, 6302,-5894, -3671, -6963, 9762,5683, 7712, 5226, -4318,-6301, -7346, -6882, 4142,-10327, 6726, 10171, -8912,1937, -239, -6215, 708,1545, 5593, 1063, -6009,4963, -3679, 9785, 9624,-7205, 8478, -3265, 9320,-8009, -12510, 586, 6502,-7025, -10394, -12198, 5918,-5501, -2426, 6172, -2482,-7566, 1978, -6652, 13493,-9508, -4424, -11383, -11097,3757, -4109, -2336, 11683,7806, -4315, -10065, -6791,2264, -9033, 5863, -7564,7285, -2599, -8943, -4216,3168, 9137, -1346, -1282,-2630, 566, 872, -2795,6352, 4226, 218, 5362,4793, -3346, 7328, -11674,9685, -2857, 4453, 7814,-24, -9897, 5938, -6489,11646, 6190, -4275, -3934,11224, 1498, -8570, -6214,-3932, 832, -4235, -4473,-2645, 6670, -11731, -432,-3553, 7721, 123, -12693,3964, 8442, -11672, 31,7352, 5938, 9864, 3099,3243, 6272, 10968, 5657,-7332, 5940, 563, 779,7858, -7512, 2931, -2598,-7713, -5063, 7062, -6149,12472, -4295, -1113, -4268,-1513, -2544, 9765, 9846,7438, 2574, 5651, -6863,5144, -6623, -9842, 1348,5088, -12866, 9858, 9091,-7281, 5255, -4816, -9553,-602, 10674, 855, 9135,3973, -2111, -2395, -7454,7147, 7121, 2290, -2175,-6336, -4422, 548, -32,-5543, 7279, 6190, 2752,-10553, -5363, 12012, 10813,-6527, -5824, -2425, -2723,-6661, -7665, -8073, -9252,-7245, 9695, 6258, 3627,3617, 5569, 6300, 10124,-9184, 2991, 1157, 5579,8562, 6345, -5337, -8979,-6913, -3643, 5351, -12395,4762, -6021, -1839, -8007,2515, 8643, -11234, 1135,4412, -2848, 6980, 9214,8274, -10711, 7930, 1521,6858, -5896, 6153, -3399,579, 6393, -2455, -7793,-9819, 6769, -5360, 1525,8449, 4877, 2461, -5667,-545, 2069, -528, -4678,-1660, -5748, -5249, -7870,-8008, -5545, -5384, -2791,5811, 4350, -10528, -8131,-6434, 1724, -2873, -6220,-6443, -8231, 7968, 1442,10998, 7128, 6205, 1026,8544, 2869, 9632, -4072,-9554, -9017, 8892, -3502,471, 7773, 1564, -8637,3342, -10862, -630, 1828,4490, -2348, 8856, 3159,4000, 3897, 4651, 7165,4946, 518, -1091, -6094,-7872, -5460, -9083, -4001,3446, -6201, -8571, -6130,-4693, -3210, 3634, 3940,-2235, 3396, -498, -11612,-9826, -4246, -870, -5093,4647, 9464, 672, -3079,-7159, 254, 7152, 5761,-223, -3051, -3452, 2707,-10048, -3836, -8647, -379,-1304, 10871, 6166, -4307,7951, 10071, -8304, 3930,6653, -10605, 5577, -6363,3719, 2118, -1399, -4154,1253, -4363, -5369, -2991,-2308, 8600, 2084, -7494,-5103, -4641, -2603, -6607,-2967, -6526, -6068, -7429,-1019, 564, 9060, -1530,7927, -2766, 1836, -1781,-3630, 5270, 9076, 1661,-5241, 3741, -2848, 6520,4810, -2238, 1584, 3068,-5487, -10354, -1436, 7953,-10380, 8570, -5946, -347,-4522, -2694, -9587, -1675,3276, 7267, -10538, -5857,6523, -7188, -2018, -8943,-6661, 5678, -1832, -8144,1496, -2660, 6562, 79,-2075, 6681, 3704, 9175,-5762, 236, -121, -7835,-4482, 5263, -1441, -5024,3385, -2490, 7494, 1589,3803, 444, -359, 2751,5487, 9028, 8501, -363,-1687, 3075, 5665, 3095,-2668, -9933, -535, -2731,-9408, -5026, -2508, 5307,-6122, -6733, -8441, -1188,-8298, 2614, -2364, -5647,-8089, 863, -5565, 8239,-7262, 2223, -9156, 2603,-3425, 6649, 563, -2804,-6026, -2616, -4643, -3581,-2694, -9703, -698, -1430,-763, 3419, -30, 8911,-4337, -10400, -2641, 4583,-9351, 6504, -5237, 3754,1866, -565, 3123, 697,1227, 536, 8, -10982,3973, -3071, -6528, -929,-7894, 3727, 1979, -6111,1845, 4821, -4990, 6677,-6801, 5085, 8528, 2260},
{-1738, -5383, -2876, 2483,8743, -11329, -666, -9051,-15060, -3843, 13949, 880,-18191, -9954, -2625, -22897,9539, 5354, -10391, 17673,7615, -349, 12098, -19446,-13351, 17668, -11520, -10955,15694, -9882, 3544, 3582,7488, 8974, -22987, -11397,-3813, 9494, 15891, -9970,5579, -15821, -12665, -21391,568, 9347, 2829, -17990,-4675, -4691, 11502, -3527,13949, -5765, 14018, -12512,-3506, -12575, 3918, 2982,-526, -719, -6314, -10550,-5272, 5056, 11792, -6094,8188, 4055, -14665, -4620,-528, 3188, -13797, 13063,-9432, -8156, 1701, 5568,-12812, -6599, 13377, -2312,6541, -16839, -866, -18142,13661, -18904, -12592, -8513,-5878, 13854, 2416, -4199,-5473, 8686, 10394, -17231,7618, 6157, -17073, -12075,8328, -20021, -5262, -22666,2808, -11588, -2277, 14776,15558, -9208, -1968, -14151,-9042, 17277, 10967, -19353,-21413, 6181, 17554, 6927,18928, -19301, -333, 414,11824, 8709, -5725, -12816,15163, 320, -1802, -12709,-9292, -11913, 18912, -15155,-2733, -1611, -3472, -3239,10437, -8924, 7343, 10870,16806, -9631, 5659, 6969,-3647, -8990, 14840, -9634,2196, 162, -14007, -890,-1975, 5104, 12105, -2275,-5228, 15924, -8842, 5297,-23521, 13534, -15662, 10197,13991, 3964, -10188, 3089,-13078, 11308, -8561, -17359,-1503, 10477, -5838, 2166,-11137, -12666, -3721, 2704,12466, 11376, -12785, 2051,3837, -18983, 8859, -13255,-10651, 8103, 13820, -20092,-6468, 3052, -2111, -21832,1560, -13488, 14934, -14672,-4071, -14527, -17276, -2275,7805, 18533, -4757, -19388,-17220, 11849, 18706, 10749,10685, -20040, 8958, -10082,10894, -14261, -20456, 13852,-8431, -18628, -13093, 13596,-14465, 11336, 12328, -20147,-15733, -1137, 4617, 8035,-3052, 19030, -7061, -4658,7360, 12597, 4331, -20493,12258, 13745, 6056, -11224,-10579, 6151, 5099, 19193,5624, 7457, -4542, -21749,12314, 3360, -11738, -707,-9519, -6728, -17855, 14085,-8763, 6971, 4699, -18485,-16296, -7386, 10515, -12563,-11395, 19670, -14983, -18119,-3853, -5009, 16616, 7863,3025, 15904, -902, -861,-252, -13901, 13909, -10239,11568, 3347, -1026, -5494,-12403, -9248, -9006, -2048,-11874, 3262, -4214, -5940,12766, -9347, -16024, -17435,-15502, 13770, -17036, 3221,14782, -12147, 13824, 1319,7994, -1439, -15945, -2467,13212, -9445, 859, 612,-6822, -5561, 5193, -12044,13815, -10192, 1068, 8017,3506, -15140, -83, -11724,15053, -10720, 12747, 5330,-132, 5981, -3323, 9689,-17784, -8578, 5571, -12311,-7151, 4018, 16846, -11938,-10828, -4883, -17541, 13037,-359, 1501, -6101, -3639,-9072, -6700, 6137, 9297,13769, -12499, 14742, -12254,2041, -19581, 8733, -968,10102, 4278, 4028, 6000,-167, -5309, 11231, -974,-9670, 5682, 14826, 10454,766, 10087, 7356, -2300,-5596, -15755, -4733, 2280,-1967, -14324, 5524, 12351,11272, -9870, 1306, -11049,15384, -16743, -16714, -5989,4960, 3264, 15254, -9060,5813, 1399, -4541, -5288,-11257, -7590, -4738, -4247,-15899, -13439, 11201, -11009,-12575, -276, -14567, 555,-9125, -13127, -527, 466,15416, -20180, 15139, -6451,1866, 14971, -11263, 1810,-18053, 8021, -16043, -19250,-9828, 7984, -10301, 1763,9106, -3954, -14841, -12749,-8056, 3608, -7676, -15272,456, 12832, 7727, 11700,-16175, -11969, 1791, -8122,12235, 14035, 4378, 15833,-1527, -9841, 6070, -6862,-16368, 9684, -7312, -7959,-18552, -16684, -15063, -8418,7381, -5210, -10532, -7482,-14315, -4180, -959, -3931,-5266, -4153, 15327, 9740,-580, 1730, 1837, -518,-814, -2128, -15946, -5063,10403, 8676, 6598, -10438,-14023, 12030, -2085, -15360,-13475, -1241, -12013, 9369,11031, -7082, 9799, -5796,10180, 5018, -12474, 4570,1006, 7672, 1108, 9231,13245, 3507, 17608, -8343,13034, 13073, -9031, 5181,-10664, 9034, 13433, 5878,6875, -11093, 8316, 10340,4716, 539, -1786, 17257,-1292, -2258, -13249, 12535,-7238, -7588, -11910, 12354,-11160, 12316, 10861, -12083,14292, -9205, 10149, -7235,12254, -2750, 8848, 1108,13928, 11971, -10535, -15546,-13091, 16360, -5879, -19298,10606, -17019, 7560, 14627,-10205, -1205, -13575, -6765,2622, 816, -66, -5053,6104, -509, -151, -5,3322, 9478, 4337, 8659,-8905, 153, -9201, 4355,-614, 1107, 8585, 2152,-2745, 6095, 4550, 2342,-3208, -8760, -7596, -7342,9786, 4740, -6105, -7359,5404, -5464, -558, 5215,-6171, -961, -5676, 1446,-7595, 2799, -6679, -3038,-7713, 6748, 4362, -10633,-3704, -1307, 2441, 5340,8205, 306, -781, -1407,-243, -2511, 6393, -6488,9297, -8443, -4197, -2795,7035, -2372, 6369, -365,-3884, -4790, -7215, -7234,-11478, 5812, -3282, -9009,2101, -2423, 4646, 558,-6875, -6294, 6783, -4162,316, 7008, 9082, 2601,3056, -2797, 2140, 2646,3548, 1205, -8364, 1940,1978, 4381, -8378, 6615,9624, 8035, -1764, 5930,4979, 1150, -3589, -258,-4024, -10270, -1133, -1140,5888, -428, -8095, -2378,3222, 1634, -2893, -1247,-9570, -8898, 878, 4868,-6555, -3051, -3105, 2736,7136, 8437, -7807, -10645,-4219, -4889, -3893, -865,-5444, -6844, 8291, 3372,4667, -5405, 2445, -6057,-6816, 311, 3307, 6090,-1601, 9153, -1344, -2785,1509, -9709, 4851, 8147,2088, 5027, -6502, 5546,-10234, -7321, -9873, -2020,-4037, 8881, 4274, 1716,-1242, -2586, 7395, -5711,-4855, -7567, -2028, -294,-791, -1981, 6210, -1078,5802, -3082, 6946, -7496,-1116, 1966, 9621, 7440,-2286, -6770, 8708, 8162,-4132, 7194, -7746, 3920,2870, -6195, 4683, 3440,-12059, -221, 4857, 7638,-1028, -135, -10864, -9451,-8494, 1684, -1435, -4404,-5882, 5450, -1632, 2401,-9440, 1468, 7944, 1241,5586, -3178, -5210, 9100,-10735, 5126, -9017, -1840,-5701, 8284, -6620, -7601,2602, 10887, 6913, 11417,-2923, 7606, 7243, -5830,3610, -9120, -8864, 8188,-1334, -3980, 904, -12352,-11968, 5200, 7061, 5813,-7419, 7339, 770, -2314,2063, -5626, -7313, -8969,3730, -82, -6742, 4057,3635, -4512, -2840, 6163,5068, 5255, 769, -11832,8123, -8454, -932, -8272,3187, -5794, -1727, -4930,-7041, 2359, 8504, 6349,1309, -7874, -9486, 4200,-31119, 8748, 19306, 13055,12835, 10483, -23705, -4548,15887, -12772, 874, -27254,-3450, 20207, -23233, -555,-23255, 8774, 26866, -25268,-2432, 24432, -163, -20770,-20516, 14106, -15459, 25947,17071, 4315, 25308, 13042,-29265, 5292, -11145, 1231,22458, 2971, 13243, 7917,2906, -13446, -6172, -16919,22832, -9246, 22185, 19527,777, 14031, -15462, -10442,10395, 4409, -24412, -12813,4109, -2123, 9282, -13566,-18358, 9626, -7368, -6156,-5690, 4619, -28911, -14966,22985, 17220, -4597, -18055,-86, 13005, -11944, -6157,7629, -20253, -5760, 970,25313, 9684, -8210, 22776,9330, -14780, -10316, 16408,-32767, -6828, 23980, 7225,-1696, -21657, -18696, 22925,-5413, -1154, 18643, 4142,-6954, -492, -17328, 4313,-26836, 22393, 22286, -27663,15197, 4106, 19361, -573,-21364, -24209, -7837, 17917,-22715, 29792, 2312, -6284,9189, -22507, 27387, -12187,5594, -26274, -6196, 18450,9574, 18697, 12174, -12924,-20388, -19950, 20319, -3363,243, -14700, 1732, 14672,5782, -6803, 23245, -25976,18794, -27277, 18685, 5299,4719, 13925, 13958, -9465,-12740, 16843, -9498, 15197,-8902, 10901, 15780, 20585,-19276, -2053, -2120, -2001,-10626, 2636, -3537, 14919,7842, -12369, 26175, 21769,21197, 18833, 24341, -19039,-5444, -2725, -15282, -21727,2979, 27974, -16818, -11587,-10760, -3478, -3777, -2477,-14640, -24944, -27446, 11604,-41, -11233, 5522, 20572,-26639, -24214, 20587, -15286,-32156, -8315, 24705, -26938,11364, 21458, 9770, -25016,-4121, 11535, 3010, 1129,19375, 18238, -10460, -2672,-30404, -8732, 481, 11659,-18588, 4526, -22947, 4493,-30604, -2763, -18316, -31764,-22731, 23997, 18917, -4860,15544, -18084, -16055, 4800,-12522, 11259, 8206, -14497,-2153, 24317, 5468, 24069,-5479, -12249, -1794, -12416,-32473, -25131, -4057, 5082,21105, 21774, 12626, -11386,23423, -11856, -4433, 21049,-21571, -18922, 25847, -20391,-26925, -9078, 12694, -11892,10873, -23112, -9086, 10250,-8069, -14958, 16740, 4240,4408, -10334, -7695, -22893,12702, 17898, 7774, 26148,-10117, -24982, -13206, 22986},
{1804, 8731, 7503, -10800,-5124, -246, 16793, 11601,-2201, 1232, -1103, -5745,-7776, 14808, 6591, -10681,3534, -5212, -8143, 939,-11355, 3946, 1194, -6063,-4777, 836, 17151, -1217,10943, -12440, 14554, 8844,-11162, -15067, -13312, 6587,-3560, 5791, -6158, 13558,-14254, -9938, 7298, 9622,1677, 5294, 9496, -15378,-3766, -12372, 10618, 6070,9696, -11192, -6505, -5313,5711, 9897, -4932, -9499,12145, -9895, -3601, 8336,9155, -6568, 3803, 10791,2584, 8883, 1343, 12839,-850, 4896, 9462, 12806,11417, 3005, -3633, 6506,-8142, -4925, 15268, -10328,3154, -12123, -2161, 19319,458, 8444, -6035, 3005,5087, -4445, 14892, 7553,-7608, -6924, -13939, -8015,12543, -3715, -4411, -3065,-9067, -2294, 12817, -8139,4937, 12295, -713, -5362,-10120, 11654, -6324, -2726,10919, -16711, -8985, 16935,-12006, 9259, 16738, 11306,-7758, -5037, -8875, 5756,5865, -4488, -16565, 8820,-11115, -12030, -12874, 3718,-13861, -4645, -10534, -5321,-12754, -2555, 16001, 7984,-1113, 15566, 3303, -13795,11414, -16425, 6402, -5432,-11976, 11094, 221, 5411,9226, 2100, -795, -12840,15479, -13523, -2751, 10115,653, -12526, -10830, -2733,-5003, 3636, -13757, 11207,-13999, 1245, 13630, -3600,8515, -5581, -729, -11448,-12123, -2626, 11787, -9616,-8448, 11878, -1581, 6277,-1191, -9527, 10120, 10733,-1355, -4566, -2500, 12280,5717, -5360, 12532, -11002,-3569, 17780, -9138, -4706,-6543, 11090, 6312, 12214,-8737, 14916, 15474, -14681,-6280, -5726, -12227, 465,3034, -13884, 10008, -10739,2786, -9219, -13007, -4424,1727, 14383, -13877, 7829,15506, 4033, 10651, 13882,-10636, -5428, -10275, -5909,-10169, -13798, -8855, -9123,-7613, 1859, -1262, 9541,-12897, 5724, -4324, -6883,7723, 13081, 3684, 60,-1307, 5785, 1364, 2951,6383, 7452, -6260, -12426,4051, -3248, 10424, -9053,6056, 9292, 14271, 654,7789, 7255, 11198, -13091,15363, 15177, 1759, -6363,10924, -16255, -12236, 3941,14417, -10199, -3218, 1466,-14868, -14181, 6038, -2446,-2541, -17345, 13874, 14151,3494, 3411, -13438, 1259,-9570, -7556, 1759, 3127,7410, 3191, 2532, 4289,5290, 8782, 12664, 3005,-3572, -5141, 5902, 1076,999, -10595, 14196, 16841,-3246, 15486, 1517, 11062,16207, 5926, 3102, 339,-9178, -9105, 16799, -9687,7531, -828, 8594, -7534,-822, 541, -2169, 9224,-13790, 1043, 11981, -18130,11428, -1810, -10360, 12012,-15125, 13567, -9728, -14651,-6046, 9692, 2717, 1016,16116, -11626, 4610, 16411,2862, 5847, -10814, 10699,-8201, 10896, 6791, 2616,-9646, -1465, 13332, 16295,-16406, 5960, -10507, -7183,-163, -11007, -10305, -5875,7161, -15318, 3442, 7359,-9014, -2549, 923, -11129,-11056, -14873, -911, 2256,-2882, -4423, -2106, -2636,4173, -1133, 8138, 14915,6745, 17056, -4765, -2312,-11845, -2924, 6253, 10066,-192, 14262, 426, 602,-10840, -8577, -10858, -13883,1282, 11314, 7434, 10126,-11990, -10420, 11949, 7352,11958, 11679, -9056, -12208,6485, 6195, -13474, -3291,4278, -2420, -3228, -367,4230, 736, -3985, -7090,-133, 2670, 3433, 16548,7658, -7071, -9937, 9504,-14673, 6521, -10056, -13057,4763, 13034, 13675, -6644,-5589, 5558, -5390, 14168,-65, 14635, 9829, 2028,3523, -8369, -5283, 12653,1750, -5424, -5820, 9927,13798, -2111, 2918, -9255,5166, 6907, -8056, -1246,15738, 13686, 1429, 3273,-7499, 15815, -10184, -316,686, 7029, -4622, 1235,4348, -10585, -12315, 2073,13759, -4416, -4976, 10467,15770, 10623, 5725, -16777,-7694, -13070, 1445, -9082,3289, 14856, 4373, -16880,-12144, 5043, -11681, 4654,4287, -1721, -12901, 16272,13451, 11790, -10080, -7745,4981, -12623, -15401, -5193,1381, -6923, 8996, -6587,-15374, -6384, -9771, 12814,-2160, -9111, 12901, -5990,-15811, 13500, -11317, 16153,13627, -4114, -16467, 15865,14887, 15044, -1995, 9145,-7639, -10657, 1152, -16142,11817, 6784, -4040, -11142,-13311, -13922, 3760, -10705,16208, 2997, -5452, -3672,-14105, -8659, -3581, -7923,9763, -12417, -8567, 4181,7516, 12306, 2834, -12176,-11766, 4291, 5458, -8393,-2796, 6999, -8666, -13332,-3658, -1922, -3428, -6742,-11379, 4717, -664, 875,10622, -3892, -10170, 9490,-2854, -1350, -4578, -6662,-36, -8899, 6827, 9779,-2501, 8500, 6063, 94,-13662, -1096, -2482, -5781,-5166, 9427, 8240, -3696,-11452, -5565, -8882, 2889,-9181, -6324, -2243, -3522,-5420, 7362, 11746, 1812,-7358, -8752, 3051, -8574,9609, 5744, 3425, 10218,8853, -8940, -3028, -264,5314, -5093, 4092, -9709,-9387, -993, -5640, -6548,1473, 5332, 2700, -459,2747, 644, -10201, -10337,-2922, -2402, 6596, -6074,8882, 4357, -8776, 3843,7003, 679, -6620, -12211,3464, -3623, -7886, -10395,-12226, -5541, -3202, -11496,-12098, 5104, 7540, -5360,4841, 3623, 5946, 4099,-6915, 1275, -870, -10789,10121, 4132, 7216, 8925,-7370, -11914, -547, 6339,-3469, -1621, -12007, 4681,5493, -9392, 9598, -4427,-5292, -549, 52, 1283,-10893, 6383, 9159, 2662,6609, 10285, -7169, -652,-9327, -12051, 6634, 7411,-6248, 4217, 7856, -1901,-511, -4246, 5897, -3780,-8474, -4993, -3817, 10793,4210, -4958, 2359, -9595,-3026, 7793, -13620, -8357,-8179, 5367, 8126, 2671,-1709, -7806, 4728, -6876,9953, 3806, -11583, 2138,7728, -10013, -610, -7828,2129, 6814, 7512, -6308,-3718, -10299, 6192, -8232,-11053, 10582, 7400, -8336,7278, -5809, 5538, -1957,-3205, -5733, -9198, -7017,-5305, -1489, -6734, -6503,1010, -3617, -7565, 31,-7084, 2389, 965, 7623,868, -9427, 9933, 9557,479, 10624, -10991, 1043,-55, -9498, -8088, 7440,-194, -11093, 7777, -2111,-2581, -10423, 4879, 6387,-8011, -6562, 3733, -8872,7, -5736, 6495, -7183,2973, -4377, 10855, 2352,3286, -1686, 2074, 7211,-1555, 274, 2578, 1608,-3415, 564, 5609, 9850,3642, -9962, 4604, 778,9956, 8623, 10087, 6882,6568, -3188, 3135, -4360,-6160, 287, 41, 6758,3128, 4255, 2113, -2235,565, -1230, 8940, 8292,-7303, 2808, 7439, -4973,8360, 3936, -2611, -10630,2543, -4814, -683, 9437,-6328, 4791, 11853, 5117,-10975, 5313, -2068, 2939,1146, -8663, -8073, -5056,-7580, 13480, 3198, 9917,11415, -3294, -7508, 2595,-5914, -4042, 5129, 10769,9039, 10602, 32, -747,-1226, -5569, 3617, 4099,4797, 8552, 6522, 7510,-10864, 1329, 8411, -1607,4049, 1628, -11329, -1663,8612, -4364, 6329, 6750,-9533, 4710, 2165, 7811,985, 9524, 11069, -7975,-2119, -6303, -4295, 8693,-3284, 7948, 12021, -3375,585, -6467, -13822, -7819,2579, 7658, -1394, -5860,-6791, -6185, 9822, -14457,-5037, 6464, 2627, -4852,-5110, 7420, -4831, 9157,2272, 7756, -5212, 696,10151, -1626, -9997, -9128,-8240, -8668, -7943, -8571,2589, -5110, -1820, 7242,7428, -1654, -5835, -11343,-2223, 7137, -776, -7578,2759, -5740, 9445, 4676,-4680, 2561, 933, 2201,-8390, 1359, 1429, -9995,7364, 8224, 9178, 2972,7353, 1263, 6595, 7724,6507, 2283, 290, 376,6802, 5352, 2082, -8860,-1130, 7968, 2168, -7662,629, 11486, 12474, -4412,9910, 9158, 10855, -10387,11945, -10163, 10957, 13053,6473, -3981, -1336, 6593,8949, 3748, -10128, -10600,-8517, 21, -14908, 7230,1414, 3370, -2742, 1992,-12054, -11972, -8718, -2965,-113, 8381, -10984, -10576,11942, -2092, -9953, -6985,-11596, 10266, -8047, 3299,-4971, 8354, 4462, 7167,6482, -10870, 6786, 256,9428, 179, 644, -6017,-2640, -12441, 3423, -9211,-4067, -1199, -2803, -11674,-3740, -171, 6573, 5950,-1582, -2484, -9240, -9615,2658, -3578, -6309, -212,-3364, 2066, -1547, -2592,12448, -3838, -10246, 1275,-10421, 3226, 2946, 7050,7971, 5524, 3335, -9471,3230, -3939, 3481, 6584,-9852, -2096, -5066, -12459,7692, 2407, 1908, 8243,-1922, 2391, -2964, 2737,8359, 10029, -11259, -9837,-9913, -1643, -2782, -119,-1693, 5197, 3529, -10007,531, -6366, 6859, -13512,2517, 7136, 2450, -12889,-10922, -5288, -285, 5297,-9419, -5584, -8673, -13247,1927, -12165, -6812, 1652,7890, 4195, -3446, 6649},
